<?xml version="1.0"?>
<opencv_storage>
<opencv_ml_ann_mlp>
  <format>3</format>
  <layer_sizes>
    140 40 34</layer_sizes>
  <activation_function>SIGMOID_SYM</activation_function>
  <f_param1>1.</f_param1>
  <f_param2>1.</f_param2>
  <min_val>-9.4999999999999996e-01</min_val>
  <max_val>9.4999999999999996e-01</max_val>
  <min_val1>-9.7999999999999998e-01</min_val1>
  <max_val1>9.7999999999999998e-01</max_val1>
  <training_params>
    <train_method>BACKPROP</train_method>
    <dw_scale>1.0000000000000001e-01</dw_scale>
    <moment_scale>1.0000000000000001e-01</moment_scale>
    <term_criteria>
      <iterations>30000</iterations></term_criteria></training_params>
  <input_scale>
    5.9560112418426288e+00 -4.3920867390932008e+00
    6.1552840257820778e+00 -5.0050761006950699e+00
    6.0737014261930353e+00 -4.9680518855482552e+00
    6.1253770546630362e+00 -4.6550431640096379e+00
    6.4950824372459577e+00 -4.7211119834716815e+00
    6.6563874821228790e+00 -4.7752305142010316e+00
    6.6861596613221721e+00 -4.7814969202277844e+00
    6.5846596304505525e+00 -4.7406069470873247e+00
    5.5695305390224812e+00 -4.1515185538503507e+00
    5.4246783417393871e+00 -4.1891487500297622e+00
    5.4460616117927945e+00 -4.1306144026413385e+00
    5.5884357844415549e+00 -4.0513152346779293e+00
    5.8806150239598010e+00 -4.0995785575497159e+00
    5.9343217398045489e+00 -4.1482754481681825e+00
    5.8122627113632310e+00 -4.1710137345176763e+00
    5.6884836837389781e+00 -4.0749710428578592e+00
    5.0938389303458012e+00 -3.7563090453267174e+00
    4.9727369994388200e+00 -3.9030473133176371e+00
    5.1021096254259168e+00 -3.8938028473760546e+00
    5.2786515722616754e+00 -3.7336670025175840e+00
    8.1129637276671271e+00 -2.7826743460484527e+00
    7.1448056352934772e+00 -2.6976812368765226e+00
    5.7396110850709778e+00 -2.3632736404766059e+00
    4.3047342319130486e+00 -2.1196075558954872e+00
    3.6910189273859109e+00 -2.3273049759037412e+00
    3.6739919812349098e+00 -2.7268346504330601e+00
    3.9256127127964016e+00 -3.1918349755665503e+00
    4.0777688848858284e+00 -3.2605777092160872e+00
    5.3686208627342165e+00 -4.0760472558579419e+00
    5.8409620229017705e+00 -4.3732736752907693e+00
    5.7647323517838158e+00 -4.3907321578018639e+00
    5.5406565074465650e+00 -4.4490079598097143e+00
    5.3724034428680119e+00 -4.5641376109693548e+00
    5.0963122210928828e+00 -4.2620709182282193e+00
    4.7673569567987881e+00 -3.6347559948391805e+00
    4.4955866611355235e+00 -2.7763845003474219e+00
    3.3193712387443695e+00 -8.0985904753858695e-01
    4.5051050555348189e+00 -7.5967687776911574e-01
    6.0650253197014017e+00 -7.5633598613250974e-01
    6.6383214716763845e+00 -7.7632845048316024e-01
    1.6951952837447343e-01 -2.1407259302084125e-01
    2.3642824884489058e-02 -3.7747511334874356e-01
    1.1188253759788240e-02 -8.6047476781676646e-01
    1.0547278461013375e-02 -1.5315893685321587e+00
    1.0342311811831838e-02 -1.8076337491401235e+00
    1.1103875441174771e-02 -1.9995583220202446e+00
    1.1368367996921494e-02 -1.6590424353722621e+00
    1.2363766586674102e-02 -7.5911641318372147e-01
    3.0906075133891937e-02 -2.9222562603539853e-01
    1.9852676502034686e-01 -1.1654324944421666e-01
    1.7496414802990334e-01 -2.4625015346723345e-01
    2.0325133659884302e-02 -4.5640929550767295e-01
    1.0362309997492082e-02 -1.1146853350578709e+00
    1.0885736855849601e-02 -1.7167305782127460e+00
    1.2343308209717140e-02 -1.4117827276996571e+00
    1.2088840266753321e-02 -1.5393040083057774e+00
    1.0673109341854841e-02 -1.7937138996427375e+00
    1.1206480182130808e-02 -1.0297132825476512e+00
    2.7630491038193032e-02 -3.4288324295980854e-01
    2.0183088506803398e-01 -1.2402733697158255e-01
    1.8280856560728065e-01 -2.3741617222898131e-01
    1.9875646446800246e-02 -4.5858196449402611e-01
    9.7606645793506877e-03 -1.0613435695156612e+00
    1.0556962488660962e-02 -1.2774736631236772e+00
    1.0819654346071000e-02 -7.0102619991574577e-01
    1.0516351604088422e-02 -7.5711288393152831e-01
    1.0190593179189111e-02 -1.2668642627190190e+00
    1.0181569438700716e-02 -9.4065876455695641e-01
    2.5350046095923614e-02 -3.5944190959426481e-01
    2.1707951872556797e-01 -1.1740885131391185e-01
    2.7942074891494451e-01 -2.6923275876903796e-01
    2.3342010842558620e-02 -4.3270703397418103e-01
    9.5728482871898866e-03 -1.0236336689886534e+00
    1.0590223115409464e-02 -1.3880604591052073e+00
    1.0203477910421525e-02 -8.6617307673399047e-01
    1.0411735281725907e-02 -9.2807522162354184e-01
    1.0305764924726277e-02 -1.2086151702089203e+00
    1.0221099114731203e-02 -8.2595207171658569e-01
    2.8507954757511788e-02 -3.3791399928823551e-01
    3.0710463120691422e-01 -1.2156565849053665e-01
    4.3687712421062375e-01 -3.3770985743705484e-01
    2.9022431822653745e-02 -3.8732557445683935e-01
    9.9488197603631087e-03 -9.7630611964171177e-01
    9.8114134105229834e-03 -1.5036219740671071e+00
    1.0168530952883895e-02 -1.4765122054767099e+00
    1.1217169409483861e-02 -1.8632509477485448e+00
    1.1226345220770595e-02 -1.8604654272470968e+00
    1.1060892685398230e-02 -8.5590286617451583e-01
    3.2435475480728025e-02 -3.1598343852960564e-01
    3.9060136038783544e-01 -1.3281902944461160e-01
    4.5595206286271622e-01 -3.8090641000142139e-01
    3.0863181677982087e-02 -3.6888654733867293e-01
    1.0089121903663126e-02 -8.7826222744081994e-01
    9.9812795571130215e-03 -1.2849125978662896e+00
    1.1279080300164048e-02 -1.1755331503781257e+00
    1.0481825073758997e-02 -1.3703328430014066e+00
    1.1054606847107037e-02 -1.7812217485883157e+00
    1.0279232293224076e-02 -9.7412292135829814e-01
    2.9274731554295934e-02 -3.7129545981057943e-01
    3.4182538484589903e-01 -1.4094378464793447e-01
    2.8766460299127466e-01 -2.6592117435547974e-01
    2.7478390021617644e-02 -3.8523454790729167e-01
    9.7070527361583711e-03 -8.9652318276882392e-01
    1.0233471668793046e-02 -1.1077457072143362e+00
    1.1972022630959740e-02 -6.4201725384213415e-01
    1.0907973484644293e-02 -7.9497886083405123e-01
    1.0556415166280565e-02 -1.3748342307093662e+00
    9.7468038535459857e-03 -1.0387658154200303e+00
    2.1346633816422319e-02 -4.3711341141610677e-01
    1.9342584220082154e-01 -1.2773113021199697e-01
    2.0593312702888567e-01 -2.0935483155696949e-01
    2.4225467928236294e-02 -4.1427228000028160e-01
    1.0271306509921790e-02 -1.1506667790092870e+00
    1.0506592979823148e-02 -1.4426868983885623e+00
    1.1499665960112213e-02 -7.4867642455397709e-01
    1.0074223550548263e-02 -7.7062208152727307e-01
    1.0178554291949029e-02 -1.3131538215481335e+00
    9.8146395260149868e-03 -1.0666560825389357e+00
    1.8877048639117818e-02 -4.4361944292207067e-01
    1.5289929407681183e-01 -1.2628243507862416e-01
    1.9991200229476777e-01 -2.1114839880094680e-01
    2.6136799724389689e-02 -3.6504576810054379e-01
    1.0885388091873616e-02 -1.1383143050082436e+00
    1.0617821552027444e-02 -1.8184794230176218e+00
    1.2459478041765651e-02 -1.4770219178657109e+00
    1.2751544986198043e-02 -1.5315963394728653e+00
    1.0348500217284238e-02 -1.6518314502230813e+00
    1.0696085453555491e-02 -1.0309673695669404e+00
    2.2869365622693497e-02 -4.0274360113416963e-01
    1.8510655281258490e-01 -1.2766755555431109e-01
    2.1902934377102795e-01 -2.2955342951495419e-01
    3.3844155954473938e-02 -2.8092610311664645e-01
    1.2526020929875585e-02 -7.2824221929252131e-01
    1.1302715149845662e-02 -1.5083994996504655e+00
    1.0169279968649376e-02 -1.6734838279149120e+00
    9.9101731148894274e-03 -1.5823281571937169e+00
    1.0912711136274643e-02 -1.4073581986634363e+00
    1.2465498172807435e-02 -7.3133150176853945e-01
    2.7720741026094335e-02 -2.9600235328083324e-01
    2.1477210160538907e-01 -1.2822535235031388e-01</input_scale>
  <output_scale>
    5.2631578947368418e-01 4.9999999999999994e-01 5.2631578947368418e-01
    4.9999999999999994e-01 5.2631578947368418e-01 4.9999999999999994e-01
    5.2631578947368418e-01 4.9999999999999994e-01 5.2631578947368418e-01
    4.9999999999999994e-01 5.2631578947368418e-01 4.9999999999999994e-01
    5.2631578947368418e-01 4.9999999999999994e-01 5.2631578947368418e-01
    4.9999999999999994e-01 5.2631578947368418e-01 4.9999999999999994e-01
    5.2631578947368418e-01 4.9999999999999994e-01 5.2631578947368418e-01
    4.9999999999999994e-01 5.2631578947368418e-01 4.9999999999999994e-01
    5.2631578947368418e-01 4.9999999999999994e-01 5.2631578947368418e-01
    4.9999999999999994e-01 5.2631578947368418e-01 4.9999999999999994e-01
    5.2631578947368418e-01 4.9999999999999994e-01 5.2631578947368418e-01
    4.9999999999999994e-01 5.2631578947368418e-01 4.9999999999999994e-01
    5.2631578947368418e-01 4.9999999999999994e-01 5.2631578947368418e-01
    4.9999999999999994e-01 5.2631578947368418e-01 4.9999999999999994e-01
    5.2631578947368418e-01 4.9999999999999994e-01 5.2631578947368418e-01
    4.9999999999999994e-01 5.2631578947368418e-01 4.9999999999999994e-01
    5.2631578947368418e-01 4.9999999999999994e-01 5.2631578947368418e-01
    4.9999999999999994e-01 5.2631578947368418e-01 4.9999999999999994e-01
    5.2631578947368418e-01 4.9999999999999994e-01 5.2631578947368418e-01
    4.9999999999999994e-01 5.2631578947368418e-01 4.9999999999999994e-01
    5.2631578947368418e-01 4.9999999999999994e-01 5.2631578947368418e-01
    4.9999999999999994e-01 5.2631578947368418e-01 4.9999999999999994e-01
    5.2631578947368418e-01 4.9999999999999994e-01</output_scale>
  <inv_output_scale>
    1.8999999999999999e+00 -9.4999999999999996e-01
    1.8999999999999999e+00 -9.4999999999999996e-01
    1.8999999999999999e+00 -9.4999999999999996e-01
    1.8999999999999999e+00 -9.4999999999999996e-01
    1.8999999999999999e+00 -9.4999999999999996e-01
    1.8999999999999999e+00 -9.4999999999999996e-01
    1.8999999999999999e+00 -9.4999999999999996e-01
    1.8999999999999999e+00 -9.4999999999999996e-01
    1.8999999999999999e+00 -9.4999999999999996e-01
    1.8999999999999999e+00 -9.4999999999999996e-01
    1.8999999999999999e+00 -9.4999999999999996e-01
    1.8999999999999999e+00 -9.4999999999999996e-01
    1.8999999999999999e+00 -9.4999999999999996e-01
    1.8999999999999999e+00 -9.4999999999999996e-01
    1.8999999999999999e+00 -9.4999999999999996e-01
    1.8999999999999999e+00 -9.4999999999999996e-01
    1.8999999999999999e+00 -9.4999999999999996e-01
    1.8999999999999999e+00 -9.4999999999999996e-01
    1.8999999999999999e+00 -9.4999999999999996e-01
    1.8999999999999999e+00 -9.4999999999999996e-01
    1.8999999999999999e+00 -9.4999999999999996e-01
    1.8999999999999999e+00 -9.4999999999999996e-01
    1.8999999999999999e+00 -9.4999999999999996e-01
    1.8999999999999999e+00 -9.4999999999999996e-01
    1.8999999999999999e+00 -9.4999999999999996e-01
    1.8999999999999999e+00 -9.4999999999999996e-01
    1.8999999999999999e+00 -9.4999999999999996e-01
    1.8999999999999999e+00 -9.4999999999999996e-01
    1.8999999999999999e+00 -9.4999999999999996e-01
    1.8999999999999999e+00 -9.4999999999999996e-01
    1.8999999999999999e+00 -9.4999999999999996e-01
    1.8999999999999999e+00 -9.4999999999999996e-01
    1.8999999999999999e+00 -9.4999999999999996e-01
    1.8999999999999999e+00 -9.4999999999999996e-01</inv_output_scale>
  <weights>
    <_>
      -2.1416214788155834e+00 -1.3131202361930464e-01
      6.6448193286670876e-01 -6.8508362716801108e-01
      -1.9009740116310495e-01 9.4045310075825106e-01
      -1.8200023501508997e+00 -5.3709858634582808e-01
      -4.5370361468146186e-01 1.4582967026981548e+00
      -4.9654183328872015e-01 -8.1313219335703490e-01
      -8.3105772945177048e-01 1.2315338728961247e+00
      2.0719575887004602e+00 -2.6308078920768130e-01
      -1.1305559019979079e-01 9.5556538616180320e-01
      1.0373950654136892e+00 1.2978747531138610e+00
      -8.1221844315150327e-01 1.0100520223616776e-02
      1.2388609878969485e+00 -1.3141275661703584e+00
      -7.4015387911102487e-02 -2.8615902966552798e-01
      1.2586395607106358e+00 5.1506674843108935e-01
      -3.5740456221025324e-01 -5.7434948500159699e-01
      -3.2209437738428637e-01 4.1083738845683404e-01
      -7.5159145246713821e-01 -1.0922326893121006e+00
      1.3136045911796559e-01 -1.2389952968124651e-01
      3.8005648309630748e-02 2.7915526860866074e-01
      4.6534572660859103e-01 -2.9636788463332864e-01
      -2.5338833413776078e+00 -6.9011168259094335e-01
      1.7393391985631601e+00 -1.4300868601446313e+00
      -7.8507655432481904e-01 -2.4227122943741702e-01
      -9.7558060711222902e-02 -5.9019350085814359e-01
      1.0766126607943289e+00 1.3377374989730857e+00
      -6.5084740562605492e-02 2.1836134196429869e-02
      -2.8640941624410082e-01 1.2429037281920385e+00
      1.0465344399493517e+00 -1.2017585089042573e-01
      -2.9577154877662665e-01 4.7674839724766321e-01
      1.3176563892830222e+00 2.0097322405588200e+00
      4.0188521620195700e-01 5.7257070976787205e-01
      1.2460092330391117e+00 -8.3801199931713177e-01
      2.1991081229927964e-01 -2.2307802526677270e-01
      9.5338642215941638e-01 -3.2497029694990931e-01
      -8.5728568643619052e-01 -9.3737007759657143e-01
      -2.3542147688749245e-02 1.0926536621992962e-01
      -3.8987855462801541e-01 -1.1443853098467727e+00
      -7.5350149008737466e-01 8.6758603336619833e-01
      1.0900830240266661e+00 2.5256460829410594e-02
      -7.5878621393277634e-01 -1.2093384297614154e+00
      -1.7943683002650264e+00 -7.4570220595543402e-01
      3.5659446595787420e-01 4.5102964119679928e-01
      -1.5279759519751199e+00 -1.9375025783133959e-01
      3.3651143247389442e-01 -1.0858343426214569e+00
      1.7799454826486913e-01 1.6037627966452668e+00
      9.8925584951058887e-01 -6.4585905222595719e-02
      -6.5088681423390837e-01 -1.0317549602542240e+00
      -7.8899935608042593e-02 -1.1274966105451680e+00
      9.7715945901180412e-01 -3.4534676070274389e-01
      -2.3359204129242311e-01 2.3653198395739386e-01
      -3.9069369841585999e-01 1.0784435155207370e-01
      2.4805401166296676e-01 8.6730749002605834e-01
      -4.0611390048084400e-01 -9.2265267094293801e-01
      -6.3773140258540006e-01 -1.4607428252223666e+00
      -1.5044440088063224e-01 -2.3084722936672961e-01
      5.3383370781071116e-01 6.0604692687902695e-01
      -5.9018904147141504e-01 -2.8180968922439825e-01
      -1.0487916260924566e+00 6.1676629608456202e-01
      1.0394815729492843e+00 -5.7090810590598307e-01
      -1.0696557336566981e+00 1.6440966901392418e-01
      -8.8685380854243434e-02 -1.6496740195159463e+00
      4.0193031220550063e-01 -2.6892176901563242e-01
      -5.5253942381287569e-01 -4.2821324874588618e-01
      -9.7723606806709204e-02 3.3407064699153050e-01
      6.5306584941663337e-01 -4.9212461055061335e-01
      8.4277520959986396e-01 3.8414313109637443e-01
      -5.1027462646423161e-01 -1.3589722076225499e+00
      -2.5488593765072248e-01 1.7452946935674196e-01
      7.2906843302303334e-02 7.6547588211814011e-01
      -2.5629347255143492e-01 4.2448343010881656e-01
      -1.2881368625078482e-01 -1.1030240292401081e+00
      1.5233991437440783e-01 2.2108300352878871e-01
      -5.1741425389932172e-01 1.6028981926863078e-01
      -1.1080103055913209e+00 -1.5159185572730716e-01
      -4.1620418891359728e-01 5.1951840898561230e-01
      2.9854257007524659e-03 5.1917767277856142e-01
      2.9454277398659640e-01 -1.3414369843697985e-01
      -3.1246649115269193e-01 4.5910721048174952e-01
      -6.6984271714983123e-01 7.4875278427967906e-01
      -2.1958512860159216e-01 5.1079243598862745e-01
      3.6488059319786337e-01 -3.2845540868582757e-01
      5.9322774582018512e-01 -3.1261431114936300e-01
      9.1991797191920210e-01 9.7314950775372511e-01
      -7.5648352904778204e-01 -3.3456389055813357e-01
      2.1256407750313586e-01 -3.6501472537602286e-01
      1.7070739686822916e-02 -1.1068245906598367e-01
      4.6072748413125458e-01 -8.4248585865228476e-01
      -9.4752018923003090e-01 1.6142631603080659e-01
      -2.2828326982916196e+00 1.0814724503822062e+00
      -4.9118548999248235e-01 5.1562588165203904e-01
      -6.1240547187070571e-01 -2.3032012942680842e+00
      -2.8600673863068643e-01 -4.6965311994013786e-01
      -5.6800090580123780e-02 1.9133293530772444e-01
      -3.8284759670416907e-01 -1.6555886915734226e+00
      -9.6638454633270121e-01 1.0098544948301698e+00
      -1.2231025140804822e-01 2.9947837116896936e-01
      4.7197559170542108e-01 -5.7690684656071944e-01
      -6.3978373423077772e-01 -7.9383893825211341e-02
      -1.6855345111655121e-01 5.9303125934631773e-01
      -3.5542112678050986e-01 1.6842279965659887e-01
      6.5326819358091870e-01 6.4036464947818605e-01
      -1.2111590210180556e+00 8.8032268654517098e-01
      1.4973272684523578e-01 -5.7921806423128913e-02
      2.4741493182447671e-01 4.6334792808765290e-02
      1.1224708388682414e+00 -1.1502111597180085e+00
      -1.0105565145257596e+00 -2.7299988284603442e-02
      1.9073832665776014e-01 -1.6133270153466242e-01
      2.9848693222014450e-01 -1.3247674698075726e-01
      -9.9288421867562182e-01 -9.5412163112620196e-03
      -7.0603038683202790e-01 7.5499746137221901e-01
      1.6605955699423111e-01 -1.3469463036433196e+00
      -1.6456695839606199e+00 -6.6815445396788808e-01
      6.4445667914215993e-02 -2.2554101976174404e-01
      -7.8854383432693465e-02 -1.4109036008012878e+00
      1.8575820270160595e-01 -1.1965367293177381e-01
      -2.8400764170231674e-01 -6.4115976804335084e-01
      -1.1634186631020793e-01 -1.6935084738327991e-01
      6.2331607962923929e-01 8.1625043591266921e-01
      -6.1104989835795820e-01 2.3259205684866932e-01
      -7.4169237392698029e-01 -6.9486798754935936e-02
      -3.4936490328646036e-01 1.1321139146220130e-01
      -2.7317839044981246e-01 2.1233204660766374e+00
      2.9322994512387268e-01 -3.9718894934152343e-01
      -1.3979568240136975e+00 3.6520096691143078e-01
      -2.5977424291559270e-01 8.2609557233870368e-01
      -3.7376734069513834e-01 -4.0604747404101432e-01
      2.2443244637097062e-01 1.8612497379503931e-01
      -4.1794950444352086e-01 -1.4004719301162236e-01
      -8.9631939353174117e-01 -5.6235464586810924e-01
      4.9723513060836201e-02 2.2075972800810442e-01
      -1.0999676825834917e-01 -3.1490549085873382e-01
      1.1973999637299102e+00 -2.7965341828957530e-01
      3.6103741798791417e-01 1.5943584436114547e-01
      2.0230333819140628e-01 4.3310742455729412e-01
      2.4653125915377541e-01 1.0970337170643567e+00
      -4.6232333879009152e-01 -2.8607903704704252e-01
      6.9593604816236998e-01 -3.8215530700650086e-01
      -1.1395824753368666e+00 3.9919991453279829e-01
      2.8242474513961741e-01 1.0193725824883131e+00
      4.3686962559085762e-01 3.7375755952415052e-01
      9.8221312303984687e-01 -7.5726326542629063e-01
      -9.9638415147008574e-01 -5.8393518249417534e-02
      2.6416743811096299e-01 -3.4014527678817563e-01
      6.5230550471023685e-01 8.5328611323818193e-01
      -2.5285376918366331e-01 -6.5013825249036872e-01
      -1.2552177919051172e-01 -6.3478561517997922e-01
      5.8316884292948934e-01 -4.9108234590019739e-01
      -1.5137005668880517e+00 -2.6461408935121622e-01
      -1.2118801713259526e+00 5.4469558255227069e-01
      5.1837485178788312e-01 -6.4473765729166721e-01
      3.2169150526701593e-02 7.1628515262835857e-01
      7.8171265877627227e-01 2.5839658312494751e-01
      -4.7343311225366352e-01 2.3064747698918017e-01
      6.5715816556669371e-01 7.8816434529815715e-01
      -3.9966407674264581e-01 3.0495097994937481e-01
      3.3565759185565325e-01 -1.1491662959561640e-01
      -5.8147993384895502e-01 -7.1052491407253171e-01
      3.9798376177807060e-01 -5.9577476885753677e-01
      3.0323488827911066e-01 -2.6148429411728796e-01
      6.1529446293816359e-01 4.6926927683265968e-01
      9.3882666286759320e-01 8.0324779878492747e-01
      1.6378173810092933e-01 1.5115519818375606e-01
      -1.8700988360115467e-01 1.5967601074271587e-01
      1.1890683610850636e+00 8.8546348609226644e-01
      -4.5815883638066612e-01 -1.8440396876615189e-01
      1.9537421244360524e+00 9.0651853300987895e-01
      3.0422147223230328e-01 1.0879918007821872e-01
      -1.9962687936628828e-01 -4.4875433145088350e-01
      5.1608645240685747e-01 1.3876016579256547e+00
      -1.2388722767381812e+00 1.1358309534754114e+00
      -9.8141719271349903e-01 -5.1726815206043419e-01
      2.6254869926373098e-01 5.2852621413257236e-02
      -4.0878034283729447e-01 -2.3056476762370121e-01
      5.6665523313554356e-01 1.4935636166361646e-01
      -9.7630700303569706e-01 -3.4652151082575922e-01
      -5.9695888152424015e-01 1.6263652405834540e-02
      5.4694235746016284e-01 -1.1786525314262413e+00
      9.1199102788317693e-02 -1.5971387997149256e+00
      7.5169908984209985e-02 -1.2196846216915636e+00
      -4.0659934035717898e-01 7.4451824009888079e-01
      1.3803471869495196e+00 1.2581320564538718e+00
      2.0077237496500313e+00 1.9394234583706913e+00
      1.9121861707995920e+00 5.8803748761774899e-01
      7.3424020909759219e-02 -1.1206434643506689e-01
      -8.9833574865663024e-01 9.9621847298483623e-01
      1.7762217824537132e+00 3.7180727843105960e-01
      5.6834553336047124e-02 1.0452684508759194e+00
      9.4425311080977259e-01 -4.9732051980703679e-01
      -6.3782407840457100e-01 -1.9934395073943345e-01
      -7.9475820196112801e-01 -1.7641074827555017e-01
      -4.8140348973758862e-01 -7.1563027227587594e-01
      -2.3264535833267511e-01 -8.2059341596694169e-01
      3.2115980649305953e-01 -2.8458976687686832e-01
      1.4336086007679403e+00 -1.0808408767491129e+00
      8.4585208672536483e-01 -1.5014065848683331e-01
      -1.3880780680486615e+00 -4.5027298339491878e-01
      -8.6728890300672468e-01 -1.0911096876769570e+00
      4.2824129709537323e-01 -1.0226010215216681e-01
      8.8929951790511641e-01 -1.6853361963888664e+00
      5.2779241290517720e-01 -4.9334106637963049e-01
      2.2367103946176048e+00 2.7973890843514954e-01
      -1.1154965409679047e+00 1.4546588736441186e+00
      8.8840149053885098e-01 1.0499593649752388e-01
      -7.6078729146547774e-01 7.3063484219008745e-01
      -1.3768158660125214e+00 1.5988509792991290e+00
      1.1015156055079617e-01 2.0367250849977092e-01
      -2.3490517729741738e-02 -1.0478376662786112e-01
      -1.0384867563697127e+00 -1.9576970393160256e-01
      8.2102870388658239e-02 7.3606679530043894e-03
      -7.6490347585201113e-01 -5.6083965331624197e-01
      5.8872176540493204e-02 -1.7495420910258380e-01
      -4.8538255054929713e-01 -1.9246723496012097e+00
      7.1351337213046873e-02 1.0988249949436550e+00
      9.8254541150096164e-01 8.7128431905190640e-01
      2.4719194304164038e-02 -9.2656902248680076e-02
      -3.8832385516299101e-01 7.1408951380137986e-01
      5.6623433128602215e-04 -1.7827684491643309e-01
      8.0891364133277710e-01 -8.3122080550273925e-02
      -9.2239872573305612e-02 -1.1271862978889684e-01
      7.9628055399638620e-01 -1.5584861961218079e+00
      3.0213628578761381e-01 -3.5243345001126125e-01
      -1.2698367701630373e+00 -1.4221600376898827e-01
      6.4866326863354984e-01 6.2911548537196738e-01
      8.1483643275115292e-01 8.0049654116931024e-01
      5.5058609932243896e-01 9.1209338087792613e-01
      -1.4722552929685588e+00 -2.6842884357162511e-01
      1.1823471727829247e+00 -7.9773269536167080e-01
      -3.3414669780351347e-01 -3.3801841096095181e-01
      -4.1911883786674198e-01 -7.3694406766274978e-01
      -1.5248038405076861e-02 -7.8007960196263326e-01
      -2.2722727898136982e-01 6.0074733404349978e-01
      2.2955010186974559e-01 -8.9631175167714039e-01
      2.9469046783748748e-01 6.4496934751879287e-02
      -2.1945188043199151e-01 1.8677465788228471e+00
      -6.3028217857483548e-01 1.2599374402018493e+00
      -2.1588300314010780e-01 -1.5605625686860469e-01
      3.8697619076032114e-01 9.0691851682525670e-01
      -1.7156971932671819e-01 -1.1415858766488571e+00
      -2.9498304248035023e-01 -1.2193629387816725e+00
      4.7549838940501693e-01 2.4322648741420611e-01
      -1.0758896754407359e+00 -1.1024449962932867e+00
      -4.4201124792427265e-01 1.3158943035714519e+00
      -6.4374157206569482e-01 1.8884067609416283e-01
      -1.7225907059404338e-01 -1.3686821126805495e+00
      -3.2994219739706410e-01 6.5116199965846011e-01
      1.5489276095115760e+00 5.9004079456878922e-01
      4.1660793871823298e-01 -4.1447963340569899e-01
      -9.4425872377318132e-01 -6.1467707666597937e-01
      1.4909492010793746e+00 -3.8673489865539618e-01
      4.3432159397921366e-01 -2.5640120585427573e-01
      2.9865520486104996e-01 -7.9431641331607394e-01
      6.9421708636694046e-01 4.6261803396000012e-01
      6.1242634375632798e-01 3.5083945465519117e-01
      -3.2519964019825998e-01 -2.2819292236925762e-01
      -4.4943808428785786e-01 2.0101525335625299e+00
      9.1587854376153210e-01 1.5546951438878548e-01
      6.0484034415543764e-01 8.4688246319854321e-01
      3.1535403538318985e-01 4.5985091100867814e-01
      8.5323833722757503e-01 -7.1462566866045107e-01
      -7.2502378480369989e-01 -5.1828854269369351e-01
      -1.9378805977157665e-01 9.9521805480642911e-01
      -2.2244357843213494e-01 -3.5552294916367144e-01
      -8.9840371204928404e-01 -1.2452234756606329e+00
      4.0897043529965108e-02 6.7811601654033293e-01
      4.9023398806420593e-01 4.3215092775530051e-01
      -6.9624900019187597e-01 3.1326272995676296e-01
      5.0303674562869183e-01 -6.7377389497848927e-01
      -7.6706546118344077e-01 8.7957521404456418e-01
      -2.9559320147791551e-01 5.0506860320289426e-01
      -2.7802578742023848e-01 -1.6717653038959468e-01
      -5.7632449806936414e-01 -4.4505044938943394e-01
      -5.4662417672531105e-01 6.6301222966182427e-01
      -6.7380263687442188e-01 5.6817775206415351e-02
      8.0442179986326898e-02 7.9931088747743091e-03
      -1.4809956404290300e-01 -3.8697474123409265e-01
      -3.2689186740196918e-01 -4.2305285993553443e-01
      2.4518522911402851e-01 2.7226954454113250e-01
      9.0738842010774712e-01 -3.7604633696309875e-01
      3.2237718979532320e-01 1.1745780103901102e+00
      -1.8358076440004891e-02 2.3901786606737735e-01
      5.3948653364943533e-01 7.3042441475649011e-01
      1.8659351714879291e-01 1.8817773143107103e-01
      2.3436589127366159e-01 -8.3299911734651355e-01
      -1.0040583115279746e+00 -2.2854786774298563e-01
      4.1697288448901380e-02 -2.8463542825576532e-01
      -2.1483737151127134e+00 -7.9129727574790448e-02
      3.0237246363260348e-02 -6.9886941064094765e-01
      1.4051924359106896e-01 3.8073742238355868e-01
      -1.1451064377724818e+00 2.7351198055108672e-01
      -4.9260370206428206e-01 4.9292805903231551e-01
      -1.2402610034153310e+00 1.1181416317519703e+00
      -9.9525813117294415e-02 -1.1131992631292835e+00
      1.8710666594394340e-01 -6.3093019213617027e-02
      -1.2239554698500983e+00 -1.4715835658652773e-01
      6.4940578445243979e-01 -9.5839055970349174e-01
      -3.3321925470891844e-01 -3.3158900197161217e-01
      1.3005745166374543e+00 4.8037347964302884e-01
      -2.1793245454921650e-01 -4.0324435136022518e-01
      3.0411815400996062e-01 9.0089893685522682e-01
      -6.7890630885994924e-02 -1.1914979403473044e-01
      7.5643373401296710e-01 9.4453186461236205e-01
      -1.6972004709909478e+00 -4.5395425695128166e-01
      -2.0823869558644962e-02 -1.3160199282051710e-01
      -1.0027457285199426e+00 4.1395385699000427e-02
      4.4886025747977526e-01 -1.1623583429377149e+00
      4.8815282423906770e-01 -8.5104945857151476e-02
      5.5251991371872877e-01 -1.1204870367821582e+00
      -2.7637756559080290e-01 9.2761167408695888e-01
      -7.6680867123280905e-01 8.1298407039350185e-01
      4.9198817476228662e-01 6.4444088909922348e-01
      -2.3852126888640088e-01 -2.1978304714345859e-01
      -6.9620335386780974e-01 -8.9205034713278664e-01
      1.0639107778674690e+00 1.8450503006172703e-01
      -2.2319969251757530e+00 7.3619658064220261e-01
      7.6340147519416524e-01 8.7131682134532884e-01
      2.3780973447882839e-01 -6.1808196882366395e-01
      9.2990257468227067e-01 -1.7729398157310378e-01
      1.7670954937336376e+00 -5.8610070699118744e-01
      -2.5436531403632814e+00 1.4465966019989046e-01
      -1.3323167556335584e+00 1.7219325911312758e-01
      1.5535563020175227e+00 7.6386526080891637e-01
      -1.2034795238598299e+00 1.7107379233028810e+00
      2.3122598078677067e-01 -5.7077593300170248e-01
      1.5780405566335511e+00 -1.5019734236195081e+00
      -1.7539855972697227e+00 -1.9205965004174035e+00
      2.9498076860348736e+00 8.6304110424371994e-01
      3.6131923121538495e-01 -1.3292846438290684e+00
      -7.5017198409826558e-01 -1.2419062917133190e+00
      -3.6852852778890460e-01 5.3929940287807410e-01
      -4.5239351468556066e-01 1.9743376222308287e-01
      1.4727815926559892e-01 2.1020295392595417e-01
      -7.8548349334013967e-01 5.1761665900158282e-01
      -4.0396933879571340e-01 1.1927339279595568e+00
      -1.7732268424096225e+00 1.9965316894734004e+00
      1.3828567636665374e+00 -1.6696052579291348e-01
      -4.6377474173797173e-01 1.5633736509757823e-01
      6.5448201462527400e-01 5.8831620458616951e-01
      2.0250308799342416e+00 -6.2922925754453074e-01
      1.2758310925885401e+00 3.0213229080082343e-01
      2.3712275585188283e-01 -1.0323927940151263e+00
      1.8358635050739904e+00 -9.3286357666612441e-01
      -9.9188489176112588e-02 1.8647458160650319e+00
      1.2764924390312353e+00 -8.8665993664202913e-02
      6.3993183095208267e-02 1.5738398850779851e+00
      -5.9673102302544878e-01 2.5568527315960288e-01
      -5.8211658414764356e-01 1.1385460386148465e-01
      -8.6236189567317900e-01 -4.9127179031197565e-01
      4.9820350056462898e-01 3.0961916584117433e-01
      -1.4917708372328913e+00 -2.4795237604352552e-01
      -1.1191996223293483e+00 -7.4635247136603167e-01
      -2.5725796902747161e-01 -1.1213382849744800e+00
      -1.8036830354719655e+00 8.5570512143516653e-01
      5.2907874878928696e-01 1.4432533067960573e-01
      -3.1842656714125567e-01 1.3707286347142100e+00
      5.5491573004574923e-01 1.3904827853727770e+00
      -3.1872687447177273e-01 7.0897837111327766e-01
      -1.9983119564380876e+00 5.2519994960974670e-01
      7.0090915043120450e-01 5.7552987184797533e-01
      9.7630353654897073e-01 2.1356296069566744e-01
      -4.8238516220392097e-01 -2.4599217087042896e-01
      2.3444595429329014e+00 -1.5884800651926541e+00
      -1.5424488610201721e+00 2.3469311386689045e+00
      2.1831626572261875e-01 -2.0096568771911696e+00
      -9.4651912972769436e-01 1.3141981532940537e+00
      -1.1745433041645792e+00 -4.9389152111134921e-01
      -1.6357321359316037e+00 -5.9025877665014437e-01
      1.5488023919469103e+00 -4.1124527477662076e-01
      -1.2702139513600721e-01 -3.2674187454454925e-02
      3.0230747596002699e-01 3.5995639634116255e-01
      1.0334357943869952e+00 4.8383230596170584e-02
      5.9265099342343652e-01 7.1333089821418963e-02
      2.4337128346668913e-01 8.0543299435928151e-01
      -2.2912026113837608e-01 1.7192776834526100e+00
      -2.2228725081843574e+00 -1.3021526962777902e-01
      2.7434582062094903e+00 -3.3859735979946881e-01
      -7.7410371383247678e-01 -3.2749779473729851e-01
      -1.4650568177938028e+00 3.0163590273717049e+00
      6.6057780778001118e-01 5.8552359536989729e-01
      1.7656336514131519e+00 2.1609459773676465e-01
      -1.1490751220883318e-01 -1.9894208601831493e+00
      -1.2179400841948488e-02 -1.1026866220924871e+00
      1.5416701067118259e+00 9.9058467558981211e-01
      5.3123791637687512e-01 1.6287790475768480e+00
      -7.3288678866857015e-01 1.3079869592094706e-01
      9.2883328158096020e-03 1.2091071985231179e+00
      7.2327268675025891e-01 -1.9310619904396364e+00
      6.2882487441875828e-02 -8.1388842022296615e-01
      -7.7623726635068857e-01 -6.4896011670029696e-01
      -1.2470953987240882e-01 -1.0914218235868172e+00
      2.8233315211849153e-01 1.8837688026903068e-01
      4.8092599286182863e-01 1.1406745976936936e+00
      6.4917496417620768e-01 3.3593380441225118e-01
      4.1726060249978374e-02 -1.5075080977554495e-01
      4.8736565521579539e-01 -2.5429447159240354e-01
      -4.6893866189322497e-01 -1.5477738809318042e+00
      8.9453233063807813e-01 5.9903917683640506e-01
      5.1828372036550829e-01 -1.7028101659648747e+00
      -6.9815523707713123e-01 -1.4898098531382484e+00
      1.7521731261542364e-01 3.5184799265154228e-02
      -5.5659832167467138e-01 6.7039141853185447e-01
      1.2418573318967614e-01 7.9691710030425023e-01
      4.0713133579747246e-01 2.2624912486259785e-01
      -3.4310681148257505e-01 1.4553990511018031e+00
      -6.9916964632908951e-01 -1.2438836693869515e+00
      1.0272856040605840e+00 8.1576444307266327e-01
      6.9873389793357843e-01 -6.8683400567329445e-01
      -8.3419939981172242e-01 -4.5049232008820439e-01
      2.5366286076655714e-01 3.5878892066124313e-01
      -1.0500912927845096e+00 -4.0565432155535369e-01
      7.3326019953766852e-01 2.1956576236811269e+00
      -1.2669248832370172e-01 1.5816195297392959e+00
      -2.4990175373700654e-01 1.2223797873572662e-02
      -1.9352715388463518e-01 1.9143959664141629e-02
      3.4997823649584037e-02 6.5747541822420086e-01
      1.7714771962979742e-01 -3.1226691273734219e-01
      -1.4187116792843855e+00 -2.2352447831387991e-02
      -8.0715268876389612e-01 1.4554937628328676e-01
      -5.6367363323354636e-01 9.8697441579727385e-01
      2.5984133646782920e-01 6.0661493147111267e-01
      5.3002223862492093e-01 -1.3399736935988518e-01
      -4.3155383908770567e-01 -6.1070836740910524e-02
      1.4434394903886731e+00 -4.3041960724173711e-01
      3.0697434930617912e-01 1.1692001890365615e+00
      2.2403659895290917e-01 -2.4072200893924364e-01
      6.5193760706282600e-01 -1.3136801407690454e-01
      3.7685885023761895e-01 -1.1302414646255866e-01
      -4.3116003357303961e-01 2.9123370592418496e-01
      -1.8195026558711366e-01 4.4160547987919012e-02
      4.0568041511792119e-01 6.1850090737615333e-02
      -4.5348352002413717e-01 7.1962832177368974e-01
      -4.4514762443609912e-01 4.7695456987137053e-01
      -6.2121591297969225e-01 -1.9235024978125012e-01
      -8.0271773000331892e-02 -5.3275282244714850e-01
      -3.3804092594068214e-01 5.2045570230373517e-01
      -6.7404024888225356e-01 -9.1898767861699204e-01
      -5.8467503838033474e-01 -3.1279523883452881e-01
      -7.2162423417738408e-01 1.6096211998087466e+00
      -4.3310429022111108e-01 -9.9135508549310913e-01
      5.9207275884096433e-01 -2.5394387696417597e-01
      3.4918625362652961e-01 -6.2110792272168303e-01
      6.8609411011551891e-01 -3.0665442749286476e-01
      9.7289501012880419e-01 -2.3108959725953729e-01
      2.8863856850979014e-01 2.7341666308213325e-01
      4.4623062272371694e-01 5.2459539860162918e-01
      2.0014951942417303e-01 -5.1244872418867393e-01
      1.0377394155906918e+00 -4.2762736600385864e-01
      -7.7855237866628554e-02 2.3780469209321484e-01
      -8.2009964788745315e-01 1.8329144322927515e-01
      2.1022245024866687e-01 -6.8714546196826065e-01
      -3.6515632164134759e-01 -6.0386255638650702e-02
      1.0319747292502041e-01 -2.0207440475380195e-01
      -3.5210442352020760e-01 -1.0981041758421806e+00
      3.2893912105387729e-01 1.4670392683463379e-01
      6.2209502492056035e-01 -3.2261810364280291e-01
      -1.9564149706851083e-01 -1.6103464495193801e-01
      -3.8477491873306024e-01 4.5876270776317635e-01
      9.3098939969751437e-01 2.0386987327249195e-01
      -1.2647220889473842e-01 -3.1398977676501960e-01
      2.2145422652217553e-01 -3.0255623432442053e-02
      1.3319951860160342e-01 -1.1179867164505464e+00
      1.8742029326356524e+00 1.1775540099121853e-01
      1.1802807443362453e+00 -1.2299933349374597e+00
      5.2432359469459555e-01 -1.5929858541475976e+00
      1.6991290915750727e+00 -4.4043525096081493e-01
      -6.1915112804517858e-01 -6.1024201726349592e-01
      -5.8984928639809364e-01 -1.3904395714018607e+00
      -1.6852330322365389e-01 1.1928910517491449e+00
      -7.3987770169098820e-03 -6.4601223834710153e-01
      -1.4255306600745879e-01 -2.4144477611514827e+00
      -6.0732952972021903e-01 -7.7816839191690013e-01
      7.8654591382517025e-01 1.3640811776320005e+00
      -1.2353969235754658e+00 -9.1732179942177708e-02
      -8.9626420883078650e-01 -3.9658346363644797e-01
      -6.5035817379373206e-01 2.2841817115964549e-01
      -1.5945918254297888e+00 3.2547135462274840e-01
      -1.5233599867601175e+00 -7.5287069041167065e-01
      -1.4537273747573864e-01 -9.6750547165450596e-01
      -2.0204829943331563e-02 -8.5570442570482719e-01
      -8.0831416944356260e-01 8.3211793454550848e-02
      -7.1049055669187544e-01 -8.9127254478155254e-02
      1.4075268169465136e+00 4.1211263172260287e-01
      2.1434363473612272e+00 -1.1984549161765765e+00
      6.2869553447953119e-01 -4.2288066070906133e-01
      -1.1273663325217651e+00 6.8223957729522733e-01
      -1.0298557107427120e+00 1.2259692671534255e+00
      7.4292606873482991e-01 2.3992979482084842e-01
      -1.0644897918558625e+00 -3.2737075393419535e-01
      5.6811935108902234e-01 -5.5684212341186745e-01
      -5.5834027133640984e-01 -9.9596347620375214e-01
      -7.8863130280646743e-01 7.7500271527668030e-01
      1.5664124852213793e-01 2.2787433349323836e+00
      6.7431375287399331e-01 -1.7841317162139394e+00
      1.0841471650092229e+00 -6.2927097607852078e-01
      -1.4728857616029505e+00 3.3073186143435540e-01
      -9.3082217783966081e-01 -1.0265554028036332e+00
      1.5779892876761701e+00 1.0420994395693182e+00
      -1.2455656565725099e+00 1.8725218105527190e+00
      9.1047680424713906e-01 -1.4306309331721105e+00
      2.5512577849934273e+00 3.2359993236785684e-01
      -9.3090990906408566e-01 -1.7223840543358702e+00
      9.2353330647806731e-01 7.8664040397801935e-02
      1.3280674610968524e-01 -3.8058715731395087e-01
      3.7589414986875541e-01 3.1687333499793185e-01
      -1.1528121259646558e+00 -1.6369592121140742e-02
      -1.6027411788926778e+00 1.1486543672536385e+00
      1.9108981385098593e+00 -1.9673535553132455e+00
      -2.9418438158616520e+00 -2.2671669078510867e-01
      1.1674309462612142e-01 6.7734339516427811e-01
      -5.4839963144132620e-01 -5.7094509227304890e-01
      9.9593433097612938e-01 8.7383606623899113e-01
      -1.2264283341811284e-01 1.9474863080713936e+00
      -1.7270089197944816e+00 -1.1451740544515143e+00
      6.7638913600438555e-01 1.3764497869600267e+00
      -1.1643509758597406e+00 1.3763578185924619e+00
      -1.1498461402160145e+00 1.9192137947966035e+00
      2.9605641621200347e-02 5.0364718184107704e-01
      -3.7147139907838406e-01 2.1386759587261731e-01
      1.6914649361175674e-01 6.2787910732715335e-01
      1.7085006060789472e+00 6.1661633844001851e-01
      -8.6145295681928535e-01 -1.4671419219833561e+00
      5.7362288675417039e+00 1.1241210542108733e+00
      1.5716072326832529e+00 4.5825686556340699e+00
      -5.8436177761288599e-01 -1.5747670435176395e+00
      -6.7132693316502579e+00 5.1590476712586586e+00
      7.1447510161260575e-01 5.3226932961501872e+00
      2.5047895357308008e+00 -1.0411706043908500e+00
      7.3179715315591454e-01 2.8347652783670512e+00
      -1.8717146962613669e+00 1.9418816508365284e+00
      -4.0303487813765742e+00 -8.7514873598152831e-01
      -1.3236211792489219e+00 4.2367364061443640e+00
      -2.2000820746352954e+00 -1.3270770243916157e+00
      -3.0565636009329813e+00 -4.8420500835131062e+00
      1.6508610124806360e+00 2.2531068214078278e+00
      -2.7039366379027761e+00 -1.2947638533480017e+00
      6.9758497993304536e-01 3.4517727374688354e+00
      -3.7645869572194379e+00 4.3646424724251958e+00
      -2.7757097870997836e+00 4.0144316593239990e+00
      8.5569764675911841e-01 -3.5039523061538930e-01
      1.1254371150888636e+00 1.3580740209819284e+00
      -1.4965071241014143e+00 -1.6056196000114749e+00
      9.7989968447183062e-01 1.6527829141895547e+00
      9.0541996399287628e-01 -1.0193872821372625e+00
      -6.5642279245662083e-01 -1.6462317579406308e-01
      -2.3567161524649181e+00 -1.4561692390172434e+00
      -5.4747669526517073e-01 4.6629690376883448e-01
      -2.2341938233314735e+00 -2.4138037599327200e-01
      -8.1315687445433937e-02 4.5322735775430262e-01
      -1.2976653944065248e+00 1.1332673471294668e+00
      -9.9002129295400268e-02 -1.2893321458046296e+00
      -5.6213724612080951e-01 3.0444599714154013e+00
      7.4477103429071245e-01 -4.4347373650944916e-01
      -3.4061806960087032e-01 -9.1692839357124978e-01
      -2.0197654095185166e-01 -2.2638171539588293e-02
      -8.6675729677421276e-01 -2.3866240239471197e+00
      3.3919147849654657e-01 2.2484078244231903e-01
      1.0758885080690990e+00 -2.3580453772386605e+00
      -9.5006911358093793e-01 6.2300654959712654e-01
      9.9301611048681537e-01 -7.5118380789658712e-01
      -1.6904522502924413e+00 1.1242105647268374e+00
      7.8472325149142430e-02 1.3965854430926945e+00
      -8.9187648566867495e-01 -4.0549231736440905e-01
      1.7451552239811998e+00 1.5426544794669372e-01
      4.6000334560316086e-01 -9.1744367868223445e-02
      -3.3444260118016922e-01 3.7869183483848723e-01
      -1.1909078216490814e+00 1.1422490967392593e+00
      1.6826014371476541e-01 -1.7229128832025797e+00
      4.1250929507879186e-01 2.6765699431640488e-01
      9.3806663508302812e-01 1.9274491886512202e+00
      8.0802038041374169e-01 5.8455508992033223e-01
      -1.8624264577012933e-01 -7.9628959938817867e-01
      1.4266001750311441e+00 6.1661449551927039e-01
      1.3997162344159095e+00 6.3963622109587359e-01
      3.2758344823875579e-01 -7.5399534731926621e-01
      1.3942386069680085e-01 -5.3688112254725961e-01
      1.9553597984486543e-01 6.0312877725390623e-01
      1.7957077355168647e+00 1.3990753356317591e+00
      1.0918604792305142e+00 -7.2491878771614948e-02
      -7.1277049420936274e-03 1.4307905515357033e+00
      8.5994435860055929e-01 -1.2273050669252439e-01
      3.4277494769637878e-01 4.7005369546679177e-01
      -2.3431529378317131e+00 4.7341442524559768e-01
      1.5581698474583725e+00 2.1083580015730279e+00
      2.7993667900878183e-01 -1.9154034787011237e-01
      3.0093542216916100e+00 -1.3162104769216057e-01
      7.4036577112926960e-01 2.2343323137994475e+00
      -1.4626250285587585e+00 9.6559835231323421e-01
      -9.4481913266114853e-02 2.2950615771131880e-01
      -8.0661303497731193e-02 2.4452378191907628e-01
      2.4073134861509313e-01 1.1640063388511650e+00
      5.4353944372067342e-01 -5.9540215157920606e-01
      -8.1678786428934957e-01 -2.3224265716745349e+00
      1.1102743653781082e+00 -7.6208870911647042e-01
      7.3648924567250293e-02 -1.1903012687011971e+00
      -1.1530513144578917e-01 -1.6089390520045153e+00
      1.0093024170454947e+00 1.3862260541767072e-02
      -6.6312349500181855e-01 5.3422449200589028e-01
      -1.3839070453459015e+00 -2.3994887955535985e-01
      -1.7314687801864850e+00 4.5018596049788800e-01
      1.1013970302552221e+00 -2.6096154033526999e+00
      1.2711098607319840e+00 1.6045697450763388e+00
      -2.3382778947641492e+00 -2.4536557321392936e+00
      -5.1231447641576733e-01 1.9612974512526551e+00
      1.1069566253662513e+00 -1.3454093912506265e-01
      1.8075151725424250e+00 -2.3186448145405611e+00
      -1.5790151765137916e+00 -1.5023470339210716e+00
      4.3252656456806371e-01 2.2257240447089557e+00
      -1.9866888900217119e+00 1.7283509062523612e+00
      -1.3161866817039274e+00 -1.7804528082535893e+00
      8.4237685319324762e-01 9.5008874743261185e-01
      7.8807671831975984e-02 -3.0792308816605263e-01
      -7.3180213065670174e-01 -2.9753643653174198e+00
      -1.6405884117321741e+00 -5.4346203777577740e-01
      -9.6584186373798497e-01 -1.6088757727104461e+00
      1.2588915786314372e+00 -1.2603318760658608e+00
      1.4269147328944047e+00 -1.3256233721396693e+00
      -5.7572775390830733e-01 -4.0261380083167503e-01
      -8.0967550320457049e-02 -3.6932793342232657e-02
      -1.1073533791789862e+00 3.8796601457436580e-01
      -1.5419199488942834e-01 -1.3563754943335400e+00
      1.0314716906400891e+00 1.0225907375742405e+00
      -8.2503157252224757e-01 -1.1354977092276619e+00
      8.8607925206803895e-01 1.3364377672709341e-01
      6.8138323573390824e-01 1.3202142468528753e+00
      -4.6292294512178295e-01 -8.4604992819625224e-01
      -1.3384642448651849e+00 -2.1788167626112203e+00
      1.2470872588602457e+00 7.3575557490181270e-02
      -1.1697618610703262e+00 3.6069018922419427e-01
      7.6111185607494314e-01 -1.4004820374838030e+00
      1.0519281760592958e+00 7.8136511989660906e-01
      3.8665947541757467e-01 9.3356532723771590e-01
      1.8949125382824397e-01 4.3890344669217202e-01
      -9.1886641358866061e-01 9.3049000844347729e-01
      -6.0144854628126229e-02 -6.3016090987310691e-01
      1.1301638785000325e+00 -4.3471306067467558e-01
      -4.8655682817881733e-02 1.0311387825272572e-02
      4.6036847940688824e-01 1.7063227047841012e-01
      6.5432984567926911e-01 5.2791629508780323e-02
      1.1426721182165998e+00 -1.1496233351546652e-01
      6.6240884159832136e-01 -4.0812416289718967e-01
      -9.0025539782314701e-01 7.4329158350246027e-01
      7.1407673335145777e-02 7.1460115914524291e-01
      -8.7020157787785313e-01 -1.0878596721146852e+00
      -2.6313693930251303e-01 2.0114167179016063e+00
      4.9061443639763551e-02 9.1541250394621998e-01
      6.7295947854106941e-03 -2.0886610540650902e-01
      2.9344405069443874e-01 -9.3523404218919970e-01
      3.3844944403186022e-01 -4.1760269576645019e-02
      -4.7028107505492350e-01 -3.2436114451160486e-01
      -3.1620458024793319e-01 -1.5844321694729151e+00
      1.9846336804062084e-01 1.5785021473452467e+00
      -1.8424775452392717e+00 9.9631336096240489e-02
      -1.5752048697846899e+00 2.9980359674764656e-01
      -4.2157654291111807e-01 1.5934251649394901e-01
      -8.6653744087196927e-01 1.2190259634917322e+00
      6.8100779064232875e-01 -2.7903393824217120e+00
      -1.7082990293561692e-01 4.4054811034736457e-01
      -2.2471123338695592e-01 2.0239157346405117e+00
      1.3953789909190469e-02 1.1010216334960214e+00
      7.0113400268264903e-01 -1.4703992332474011e-01
      4.5877914863554403e-01 5.6828550809703759e-01
      1.0196364856151812e+00 -3.0652999566829864e-01
      -4.1496185522408963e-01 -7.7378373706968961e-01
      1.6462449495250207e+00 2.0281043565625696e+00
      -2.7874032713287971e+00 -3.0847552332763382e+00
      1.2706417958875702e+00 1.9714769625656394e+00
      1.5917774900566530e+00 7.5445614358839966e-02
      -2.1996045140462099e+00 1.0994916842392368e+00
      -8.9565846676473193e-01 -8.6352560339189266e-01
      -1.6868960468151335e+00 8.2380510586115507e-01
      -8.2477270615157561e-01 1.3309768837646658e+00
      -1.4129230567566715e+00 -1.7576095209215632e+00
      -1.4638393316310787e+00 -3.9814865056393789e-01
      2.7447023356652372e-01 8.1052590366495836e-01
      3.7670175873391393e-01 -2.5337210974697255e+00
      2.5403684753836264e-01 -4.3004087656352948e-02
      -3.3417792255735281e+00 7.7440018088746421e-01
      -4.4774703011339773e-01 1.6906291429918741e+00
      2.1091193931888430e+00 -1.1127989258700752e+00
      1.5275362650195667e+00 -8.9835075055200453e-01
      -2.1385447035434439e+00 6.4495012712580083e-02
      8.2054449876955293e-01 1.4854054624962787e-01
      3.0489100869993830e+00 -8.9234577531666932e-03
      9.2642914507517693e-01 2.9501605801691744e-01
      6.2840487304966597e-01 -3.9937222990688009e-01
      1.8825254695910731e+00 -1.1035404951469583e+00
      -1.0264625201052404e+00 1.2837807668751103e-01
      1.3726296831079463e-01 3.6291522489219796e-01
      4.0910934846562780e-01 1.5394291193875498e+00
      -1.3207461736468391e+00 7.3692267581062154e-01
      4.3648261230277463e-01 8.8341862950357530e-01
      4.1581091141164261e-01 -1.4450511719056114e+00
      8.8267251027333260e-01 -8.7917418895653754e-01
      -4.5939359898461712e-01 -2.6381303163154174e-01
      6.1012333381270434e-01 2.7238045525551008e-01
      4.1903632479722019e-01 -2.8275869977099927e-01
      1.0730249072259694e-01 -1.1137045564148272e-01
      -1.5431511136655160e+00 -8.2322645898022895e-01
      9.3477285802083399e-01 -6.6089653340986099e-01
      7.8067145519671222e-01 -7.7992662380501190e-02
      -2.8334894586890391e-01 2.3376431307513182e-01
      -9.7232917886079995e-01 8.3916977524021941e-01
      5.4604238203509359e-01 -5.1810866353771090e-01
      4.7209878346206291e-01 5.2032606753970492e-02
      2.3419106992329080e+00 6.0882329578365209e-02
      1.9019045959258940e+00 1.3518185108142428e-01
      -7.9695349893957068e-01 8.7893318577269530e-01
      2.1099174404973344e+00 1.5600556458817998e+00
      -7.0527429732865976e-01 -3.7481506799323955e-01
      -1.0672009238969982e+00 -5.8227256376004066e-01
      7.0015623046164188e-01 -1.0526374522835635e+00
      7.5550319682406025e-02 -8.1272349492399854e-01
      6.7644660953366409e-02 -8.0406175483281300e-02
      2.4152568103082150e-01 1.6456428746041363e+00
      8.0038257225930842e-01 -7.3836614011402291e-01
      -1.4015573247174360e+00 4.6034078211605128e-01
      2.9727638744250784e-01 -1.0907306134693846e+00
      -1.3474519222548036e+00 1.1794493176675468e-01
      4.8305968381033154e-02 -9.9047784325585386e-01
      9.4420270512468638e-02 -2.1210240765071248e-01
      -4.7545022025826778e-01 9.3928768158049880e-01
      8.7562615148358580e-01 2.2491745235149461e+00
      -1.1879987862833772e+00 4.8091879920620467e-01
      -3.6078862241226639e-01 4.7402350467170279e-01
      8.3216234382224907e-01 -2.0794968368911557e+00
      2.8532079390853600e+00 -1.6264908155170457e+00
      -1.4162969656363755e-01 -5.5596336308992989e-01
      -2.6614465182319597e-01 6.4044376735159081e-01
      -2.3344446419207390e-03 -1.2260718921442351e+00
      8.3833253477999703e-01 4.5447569881615552e-01
      -6.5675708871395611e-01 5.6840494387484930e-01
      -2.5204819764693926e-02 -8.6600976420323705e-01
      3.0302447504196378e-01 -1.3984114278633784e+00
      1.2825941393359943e+00 1.6675609093457744e-01
      -1.9312761868384506e-01 5.6296101339077742e-01
      3.6269765706932378e-01 1.4116163123357914e+00
      5.3227043701594601e-01 1.3728667374814858e+00
      -1.5763440131299886e-01 -6.0404569635693672e-01
      -8.3651626711654514e-01 1.2587550987527290e+00
      -4.5539388259084063e-01 2.7698231733222656e-01
      -1.1105449009960902e+00 -6.6593073877299647e-01
      -1.2600329838716009e+00 9.7410451918579088e-01
      5.1438072230350174e-01 -1.6433691572348199e+00
      -1.2793751222666139e+00 -7.7878054866140289e-01
      -5.1375821543556577e-01 2.8540788208436146e-01
      -2.4425259697569102e+00 -8.5031026987882197e-01
      -1.7006905123366542e+00 3.3774604109902057e-01
      5.7183949686981717e-01 -1.3526740907871406e+00
      1.1592026173786665e+00 -1.5889857210229854e+00
      1.5922580180870656e+00 2.3425600263634929e+00
      2.3914519412772856e-01 -1.4481928074796083e-01
      -2.4644344019840130e+00 1.3685651293760495e+00
      2.5893670858710247e+00 1.3450490790808245e+00
      -2.3160292391139192e-01 -3.5987863972858380e-01
      -5.1735946411277223e-01 6.4427440084695842e-01
      -5.5392369737519864e-01 1.1482893140346837e-01
      1.0066949021101148e+00 -9.4464159347674298e-02
      9.2556246147402699e-01 9.6827353950923278e-01
      2.8538599505509449e-01 8.8432573948807902e-01
      7.3002658607482793e-03 -3.9829004465715673e-01
      1.2329530160058277e+00 -1.4251629478484054e+00
      -1.7041882456120625e+00 -7.9788767672651506e-01
      1.0673187142934548e-01 6.7039866370834464e-02
      4.5406055360313036e-01 6.0551852432846132e-01
      4.6702933770186644e-01 6.0086997285212318e-01
      5.2122917827811310e-01 -5.7819389561486134e-01
      -4.6422755985221820e-01 1.4743206057576514e+00
      -3.0424140469728045e-01 1.8177630131743922e-01
      -1.9315596300220114e-01 1.5431301721882580e+00
      1.1768449090626475e-01 -3.2362963461570765e-01
      1.4747142835131357e+00 -1.2618265344762589e+00
      1.7008902680455343e-01 3.6740871656089585e-01
      6.5561102879684563e-01 8.0308308981101484e-01
      1.0772920301674702e+00 -1.1521333477761322e+00
      1.7085131837820098e+00 1.0190933534950304e-01
      3.6962200456590405e-01 -3.0286384890635309e-01
      1.0365946758350046e+00 -7.7887173453702288e-02
      -3.3365791936870726e-01 -4.1805259362078051e-01
      2.0513215045933522e-01 2.4443625492084932e-02
      -5.5211918446082142e-01 4.0882536589286300e-01
      1.1318393842852841e+00 1.7799887503249030e+00
      6.5489403940981716e-01 -2.2579201177179851e+00
      1.1277558679953777e-01 2.0149805281365762e+00
      9.3701560154993324e-01 -3.0214209149809607e-01
      -6.3397051304926078e-01 3.3264616137727399e-01
      -1.9882813557080752e+00 1.6506624695223044e+00
      -7.2567617915564417e-02 -1.1785527127145433e-01
      -1.0563524554470911e+00 7.7792256929261321e-03
      6.0817002510554230e-01 9.4984841920345164e-01
      1.8550416461724712e+00 -2.1094517994497277e+00
      -3.2341834199856856e-01 -4.3248182560285597e-01
      -6.0232645598001300e-01 -4.3329465960481461e-01
      -1.0243114776795974e+00 6.8863070670362092e-01
      -7.1239741905693557e-02 -7.1793907116285957e-02
      6.5133062389227836e-01 -1.9665085455926177e+00
      4.9979504970631844e-01 -8.3132305718064514e-01
      -1.4085929954673844e+00 -9.3532082273476236e-01
      -4.5055170332387195e-01 9.8812963447769342e-01
      -3.4107464490138206e-01 -7.1088691128183745e-01
      2.5908810363109760e+00 2.4642493778511598e-01
      -5.2435357471032229e-02 -4.4481263743067928e-01
      -2.7191370461912368e-01 -5.7105885358072506e-01
      -4.9902081477458338e-01 -3.9537372408154436e-01
      5.7502641355820207e-02 8.5852909660405985e-02
      -4.9786273069398662e-01 -1.2050169735647911e+00
      -3.4600065580173123e-01 -1.7286161360307262e-01
      -3.1690757527486624e-01 5.6794285032115532e-01
      1.0980184005108591e+00 -7.0047782746906628e-01
      3.5757375428111043e-01 -1.6691963298994517e+00
      -3.8838006233257277e-01 4.9182987486775592e-01
      -5.5236275801256407e-01 -1.5497117593483625e+00
      -2.5129460626863179e-02 4.7976361482762048e-01
      3.1865320564437521e-01 -6.4883040297285410e-01
      -1.9408343511009976e-01 -5.0632638861319239e-02
      -3.5090079936937135e-02 -6.0518320217532828e-01
      -3.9184197152763917e-01 2.1737143861574787e-01
      -1.2634481927721652e+00 -6.1555965385321898e-01
      1.0037788584708862e+00 -1.0340281023672662e+00
      1.0709447328668199e-01 6.2434066342038852e-02
      3.9339700535770122e-01 -5.0325043297405070e-01
      9.3626303942759970e-01 4.8000016636587539e-02
      1.9152181962845813e+00 -1.6495061993119229e+00
      7.7683846054805578e-02 -2.0259863894061785e+00
      -1.9560629514606307e+00 -1.1799808632795832e+00
      3.6612533590057461e-01 2.4748743633425003e+00
      -1.6001217335180226e-01 -8.5514792732876388e-01
      -1.3829508417809080e+00 -1.2022536803664818e+00
      -1.9864455202548879e+00 2.1335579701204380e-01
      2.7134158311293715e+00 4.8931922301767300e-01
      2.9182060271228352e+00 1.1777232207920225e+00
      8.3095528222238157e-01 -1.3476963171577812e+00
      8.8474437433987294e-02 -3.1097960549011234e+00
      1.3010486827714551e+00 -1.4794499975550255e+00
      -8.9471197909912337e-01 7.8117150699014004e-01
      7.3547287762742053e-01 -2.0081861949825952e+00
      -2.6076670697700094e-01 -1.9438789735647384e+00
      1.0328215831793262e+00 -2.0596632185437835e-01
      -4.4932206957122373e-01 -1.0321287938595225e+00
      -7.3297801722457101e-01 4.0173381722113616e-01
      -3.5340023676170901e-01 -9.1814230783268558e-01
      -1.4740683682269324e+00 4.1919887343621065e-01
      6.6782365319631276e-01 -1.0956541949804377e+00
      3.6575576769428975e-01 -6.4058979736414612e+00
      -2.6698325871070310e+00 1.2918898290740233e+00
      2.7904116062297062e+00 4.1268986836737538e+00
      2.7474648475810746e+00 8.9947130574943979e-01
      -4.1072284674958306e+00 -4.5896226181027892e-02
      -1.3904193445897191e+00 -9.3284266158404128e-01
      2.2135110589764277e+00 -5.1769294557673307e-01
      2.3411097045349969e+00 1.4577522749866434e+00
      3.3724041098036848e+00 -4.2838472626419231e+00
      6.1561575563605531e-01 -1.1522217415005205e+00
      1.6907398375854610e+00 9.3215514203797895e-02
      -1.1753520449069625e+00 -1.0528733702614577e+00
      2.2141110553334724e+00 -1.1091335552778971e+00
      -1.4004407109936654e+00 -3.5741314097513195e+00
      1.2064002516565320e+00 8.6394540541244902e-01
      -5.2574584234653596e-02 1.9947423835683323e-01
      -1.4207812991221083e+00 2.8205585468314154e+00
      -4.1796095909237323e-02 -1.1393500173525219e+00
      -6.4713506949027411e-01 9.3233905870486433e-01
      -2.4442355889376355e+00 -1.3320305061437339e+00
      2.0664504443597975e+00 -2.6849043052284234e+00
      -6.5377945354520783e-01 2.6333406908959806e-01
      -5.6277127697685758e-01 2.8051893461654780e+00
      2.4501222724808995e+00 -9.6416031916751882e-03
      4.0836465515542986e-01 1.5731297365668976e-02
      -2.3648373685764312e+00 1.7733162107257319e+00
      1.3012455555066740e+00 2.9349841188352519e+00
      -2.3804859671066156e-01 2.2198378718361456e+00
      -1.1633179932610118e+00 6.8445929159640234e-02
      -3.1218605984533082e-01 1.9081039221717915e+00
      1.3745715758651911e+00 -6.7947656520966748e-01
      1.1364278542827282e-01 1.2132667305190339e+00
      1.2480825161965992e+00 -2.5843509498842070e+00
      -2.6032316907398623e-01 -4.2677863887368552e+00
      -1.0009153191026738e+00 3.3779542203729291e+00
      -5.9749167850531171e-01 -1.4466473190153417e+00
      -2.1682849323912046e+00 4.1478533406436041e-01
      -4.1027962909727961e-01 -9.5022651136464020e-01
      8.3602262293434637e-01 -1.3411987746488516e+00
      -5.5469000731784837e+00 -4.8622703068148008e+00
      3.2676920167000225e+00 4.5256663577931615e+00
      6.0993737030133610e-01 4.8867353550382715e+00
      -4.7504668054787674e-01 -3.2180644903392395e+00
      3.9929020516053106e+00 9.0334760024749494e-01
      -6.0941984277673245e-01 1.1441755283524255e-01
      5.5923739836483799e-01 4.5281699632055048e+00
      -4.1960934339581346e-01 -9.0575333332769270e-01
      -2.0433081541335838e+00 -6.0712069052075246e-01
      -1.1467198114113932e+00 4.6435163040329677e+00
      8.6380945042694990e-01 -2.4907346415497558e+00
      -4.3398875637137446e-01 3.5401305301427350e+00
      3.7426113540010717e+00 -8.8380465280533715e-01
      -2.2370196536252638e-02 -1.4396902033342407e-01
      -7.9691373019699485e-01 -6.8251620479143205e-01
      1.3053667790824564e-01 -2.3723102164962087e+00
      -1.2188342734833602e+00 2.7170009543364091e+00
      1.2739196124117858e+00 -1.2547056158336962e+00
      1.9919874839728002e+00 -3.7210844436782897e-01
      -1.4044946205693016e+00 -7.3480925747115533e-01
      -2.5408541144502292e+00 8.3142955401870111e-01
      4.0942389776187582e+00 4.5539820021727841e+00
      -2.8430218763175275e-01 1.8940921274220981e+00
      -2.7969297647053661e+00 -1.6513522684336701e+00
      9.6950208168425478e-01 -2.9039660371655693e+00
      8.4148990900522536e-01 3.5547037297358315e-02
      -6.0738389358330314e-02 3.8358118119682034e+00
      -8.1460180732537846e-01 1.7652776435699453e+00
      -2.2202978846191526e+00 1.9114929105478462e-01
      -4.9435349230008535e-01 1.4516307598172373e+00
      -5.4901886495821162e-01 -6.7703727526313739e-01
      1.5882472629389296e-02 -8.8752229065591848e-01
      2.7853742015420022e+00 -4.2739592944590704e-01
      -6.9315716235754521e-01 -1.4562856052781386e+00
      2.3356878794602451e+00 1.5834174984849725e+00
      -2.2458062546149010e-01 1.6311952449793647e+00
      2.7813464289791673e-01 3.1919064105750721e+00
      -1.0894404280267724e+00 1.6218597786584263e+00
      3.6572601735990484e+00 -1.8943977964163969e+00
      -4.7348061932469915e-01 -1.4292168520364874e+00
      -5.6489616443624202e-01 7.2634315166686655e-02
      2.7775915196776424e+00 -1.4223125531708758e+00
      -9.6061166253521701e-01 -3.1467834958299492e+00
      7.4303963204900916e-02 6.1005863615458999e-01
      3.2472986731306408e+00 2.1676516883818207e+00
      5.9242595073238258e-01 -1.2099859852617003e+00
      -1.0722371932001107e+00 2.9279146874753410e+00
      2.6752646317396422e+00 2.4950635321792531e+00
      1.3071697458819198e+00 1.0089121071834803e+00
      1.3117852147786915e+00 -8.6849101720982103e-01
      -1.8426591695782917e+00 5.7780808892847098e-02
      7.5797252450082231e-01 -1.3909837216307062e+00
      -1.3459387988392308e+00 -7.5919782251858547e-01
      1.5013674703215734e+00 -6.4565467950797950e-01
      -2.2639355773920156e+00 -7.7400751541048596e-01
      6.1703351332395469e-02 5.4094162450712879e-01
      1.1156769749839972e+00 -2.1292938759159115e+00
      -1.1854470987386569e+00 -3.6772963143561543e-01
      -1.3311535447915372e+00 1.6297329062225321e+00
      -5.8150350209296064e-01 4.4179565597921494e-01
      1.6319998775849323e+00 1.2106022753138019e+00
      -2.7087341331397596e-01 5.2595342455818907e-02
      -2.4904959189576611e-01 -3.5907836577186978e+00
      1.3815896025949248e-01 1.3479356201983446e+00
      1.3518919227298056e+00 -9.5356175493930473e-01
      -8.2155278898879902e-01 9.9171878290082216e-01
      -1.7791381228908101e-01 1.8472894349778719e+00
      3.1499877620733607e+00 2.8789555946530720e+00
      2.7314333925004477e+00 1.5263114466593784e-02
      4.0693566154970184e-01 -1.0125105143003261e+00
      1.6532189021943836e-01 6.8642678822019587e-01
      1.4281243384336424e+00 -1.2756949805162197e+00
      -3.1242686425344979e+00 -2.6326590341479741e+00
      1.1918537503455449e+00 6.0445744966701165e-01
      1.4648743899530030e+00 -8.3451397634624808e-02
      2.1210234844692657e+00 1.4981208495113671e-01
      -1.5617784822733854e-01 -2.3499486424016260e+00
      6.5085458237777849e-01 -1.3180908695595912e+00
      -2.0490972288814180e-01 -1.8352719555693400e+00
      -4.6317430371736679e-01 1.4127878697489091e+00
      1.3656337710822950e+00 1.2091362584878176e+00
      2.2730008798779061e-01 -1.6942946604591604e+00
      5.4492093111099038e-02 -2.0416039513845221e+00
      -1.6415596976781366e-01 1.1058361490995083e+00
      1.4506667070175230e+00 1.3394942474952945e-01
      2.1444143585622446e+00 -4.7725131084076644e-01
      2.8079087655979618e-01 7.2164270220091398e-01
      8.7692835927192081e-01 1.6803754600222587e+00
      5.3589123071570743e-01 -2.4132943125871961e-01
      4.3828455337694855e-01 -6.6977931803965685e-01
      -1.3004881457274793e+00 1.2391466066534496e-01
      -2.2717977950638074e-01 5.1769586894177821e-01
      -1.1736472745587248e+00 -7.7533981710826372e-01
      -5.7741793125863272e-01 -5.4468127098444152e-01
      1.3937162663927618e+00 -4.6319910796056063e-01
      8.7561854301499287e-01 -1.2191608831213403e+00
      5.2485843167021096e-01 -4.9574047023674050e-01
      1.6171447602502111e+00 -5.7691577037408159e-01
      -7.7994627059406796e-01 -1.7736090681045633e-01
      3.2880050831747498e-01 2.6591531052004802e-01
      3.4797527962966902e-02 -1.9982775748411508e-01
      -6.8344912664621782e-01 -2.5207616680154143e-01
      2.0092652613296230e-01 1.5977115582064813e-01
      4.6159375609014913e-01 1.0474450767232693e+00
      -1.4613721870726126e+00 -4.0698363401202009e-01
      4.3822067103463480e-02 -3.2397386187614807e-01
      -4.6782630633924133e-01 -2.5112780152405323e-01
      5.9311561620117437e-01 -2.5449932646475149e-02
      1.1537457030079716e+00 4.4901535723023890e-02
      -2.3135568071950452e-01 -9.3977290981947614e-01
      7.2033737091342398e-01 -1.8875618296757266e-01
      -7.5541253772049111e-01 -8.2927920796165688e-01
      -1.0340410963139184e+00 3.6466476714782664e-01
      3.5011527726503605e-01 -2.7729731834936527e-01
      -2.5580574011809309e-02 7.7912861717180781e-01
      1.3202573437073484e-01 1.3481932576254354e+00
      4.7897182216714011e-02 1.1490810401835026e-01
      -1.1234937856286664e+00 -6.8930206418124640e-02
      -1.9572921592309997e-01 5.7517663464550750e-01
      4.4298123098041137e-01 -4.4084963300100111e-01
      -1.2271384888707131e+00 -3.9010082179381905e-01
      -8.1133187278412766e-01 3.1659251910363456e-01
      -3.2802360672474751e-01 2.7004160136781447e-01
      -6.2129277812042594e-01 1.1948310851404220e-01
      -3.4856778049790765e-01 -1.6588310866233774e-01
      -1.7801361262297072e-01 1.2738988878598805e+00
      -1.8564639093536861e+00 -2.5133067556140604e-01
      2.9532119347058849e-01 4.8736290765498480e-01
      -7.0786390196708793e-02 -2.0444435155468071e-01
      -1.0179480601582995e-01 -7.7380971187767389e-01
      3.1939129472911187e-01 -4.8342099874714095e-01
      1.3353725710400416e-01 1.6370236558935380e-01
      -6.7166179464817649e-02 -6.3130100405607836e-01
      -7.9727841672076005e-01 6.1052770823968727e-01
      1.4152964708652793e+00 -9.2311553891852127e-01
      1.9139322725727162e-01 8.0878379434624348e-01
      -2.1646467875743783e-01 -4.3572428021188286e-01
      6.4355915445555512e-01 -5.6384496728096711e-01
      1.4571336955339922e-01 3.1318030217767323e-01
      8.1641736781661667e-01 5.2797050846444815e-01
      -1.6824045466081927e-01 7.1598995247627939e-01
      -7.8100751370408061e-01 -2.3251432434281503e+00
      -3.3495180059378576e-01 -4.7148238110771501e-01
      -2.3799531166946475e-01 1.8233293859331592e+00
      6.5144794586054089e-01 1.4058800707339276e+00
      -3.6362238597142843e-01 -1.4085117646371459e-01
      -2.6759780025525598e-01 1.2788306896749595e+00
      -2.5519072463658576e-01 -9.4412953561948815e-02
      -1.5531613049134538e+00 1.8885725047750168e+00
      2.0343352566272475e+00 2.4194898060896706e+00
      8.8119734792687399e-01 -1.8506226529130909e-01
      1.7633421773561995e+00 -3.1071405327626961e-01
      -8.5670990242268708e-02 1.8633874268182293e+00
      -1.7686731684840078e+00 -1.6419895197941841e+00
      1.3982925902159058e+00 1.2231197453491823e-03
      1.3305014017918233e+00 1.1858261943356292e+00
      -6.6491773023114698e-01 -8.4638377013014721e-01
      -8.5279882706962518e-01 1.7447525077670170e-01
      -6.4459195656996437e-01 -3.2301888614814944e-01
      5.0079305547795383e-01 4.3938408830332648e-01
      -1.6329922928931815e+00 -1.1928469679347540e+00
      2.7973702647301844e+00 -1.6673921066302249e+00
      -4.0733075173142277e+00 -4.0239953347176455e-01
      1.7323751877445790e+00 6.9081194502992005e-01
      2.2076874062718947e+00 1.7394230433506289e-01
      -2.5560664058776572e+00 1.1274739488891861e+00
      -9.6455656257214606e-01 3.7641934397809056e+00
      1.8647753410906800e+00 1.0530179529916290e+00
      2.6721416410793347e-01 1.3124525961265148e+00
      9.1462907764441048e-02 2.3507721632649163e+00
      1.4765728100535172e-01 1.8488678815646042e+00
      1.5752000416020988e+00 5.0967216425505278e-03
      -3.3467987647738456e-01 2.0227596676723709e+00
      -2.7954580750767448e+00 -2.7288887588708675e+00
      7.6131307626093281e-01 -2.8094734770540436e-01
      -2.4594877127119902e-01 4.0928161526704482e-01
      7.8644199763032951e-01 -1.6218569739424002e+00
      -4.2921529200491140e+00 8.6706200037406866e-01
      -2.2987593113846105e+00 8.3920496683856471e-01
      4.2001079962445548e-01 -8.6295028960316311e-01
      4.9856847857224745e-01 -2.2427783146879228e+00
      6.7973730528228513e+00 -2.6895645339011938e+00
      -1.4228312323794046e+00 1.8292813453256420e+00
      6.2945471760739014e-01 -2.6339627014304670e+00
      2.6496324789446168e+00 1.6912699092425354e+00
      -3.0815150553569417e+00 2.4495153913979015e+00
      8.3850679572123343e-01 3.6185015190272161e+00
      5.6768751390669303e-01 -5.2412508121095003e-01
      8.5715489500681252e-01 1.6566818370610301e+00
      2.0589944479436739e+00 -5.6280344581976982e-01
      -5.8998703647541828e-01 -1.6085913433014862e+00
      1.0202576373566214e+00 3.1679387249615978e+00
      -7.7169272679537482e-01 1.9543451375252585e-01
      -2.2591187755399904e+00 -3.2896751971643585e+00
      -1.5837309001338085e+00 -1.0799764480798180e+00
      3.8599170153805518e+00 8.9564855994473058e-01
      3.1661649013589682e-01 1.3720575699797222e+00
      -1.5833665889638584e+00 -1.5427357485199240e+00
      1.4871463737075457e+00 -8.4467689517563227e-01
      -9.0262566609912276e-02 -1.4827890755078224e-03
      -3.0327832806081800e+00 -2.1644685327406341e+00
      4.6519865446224995e-01 2.5272042363798159e+00
      -4.8429670715259016e-01 -9.5603711172367056e-01
      -1.6907592195076533e+00 -3.5419300608837223e-01
      1.5237641598878182e+00 7.1113416913747529e-01
      4.4744441378475047e-01 7.2020407055606972e-02
      -1.3345675764260925e+00 4.2453809200591177e+00
      3.4415959935572173e+00 2.7996441144439843e+00
      3.4371764391312980e+00 6.0951002501847285e-01
      1.0413747571005370e+00 -2.4601722002039217e-01
      -4.9080805948211720e-01 2.5611325898842590e+00
      -1.2442315973718077e+00 -1.8520044908154329e+00
      5.8776871168463285e-01 4.0881624678553247e-01
      1.8448759372686638e-01 1.2045042290348780e+00
      1.8305759637175343e+00 -2.3997949006895576e+00
      -1.3456603653059385e-01 1.4384046858937471e+00
      -1.4860448133211408e+00 1.5499147027340705e+00
      -9.3717469823895683e-01 1.5269270871582972e+00
      5.9136974659487207e-01 2.2950880872872867e-01
      -9.0479897463044656e-01 -4.8861735718434196e-01
      -1.8578918977684071e+00 -2.4462134516321379e-01
      1.2225645343118476e+00 -1.8968742705509316e+00
      4.1851095473912342e-01 -9.1725818055534203e-01
      -2.3879874013309141e+00 2.3452882041619492e+00
      2.4229950161306353e+00 6.3328516702874371e-01
      1.2407401133853633e-02 -4.0697050933794293e-01
      -3.7805068659924873e-01 2.8283278628207253e+00
      2.4270670751888801e+00 3.6424876955102596e+00
      -1.0422017416196229e-01 7.0827215270711674e-01
      -2.2046300738760644e-01 1.3270089816440738e+00
      1.2488405267981042e+00 6.1040851369673543e-01
      1.6448249613098094e+00 1.7650232784865862e+00
      1.1198290404485043e+00 -1.0016246774613531e+00
      1.2674759172970655e+00 -3.5644543421928532e-01
      9.4270985586352118e-01 -2.5015487386409374e+00
      1.2434821363617805e-01 1.0072589413397663e+00
      -8.8482046218184796e-01 -5.4521442280583887e-01
      -3.7926780778063628e-02 -2.1391999548063314e+00
      5.5840683579016315e-01 -2.6377507177468784e+00
      -1.7166829231318754e+00 -1.7872983439891605e+00
      -2.9522691331744477e+00 2.2004809793408890e+00
      3.3596506194301017e+00 -3.3227589620699066e-01
      -2.0368825097082590e+00 1.5271746756317048e+00
      -4.3743455534080473e+00 -2.3982053335016635e+00
      3.9596343837782015e+00 -2.2444259173327979e-01
      2.2805927172555482e+00 -3.4725676724034971e-01
      -5.3014429723937473e-01 -8.4476619365954353e-01
      -1.3880771070321980e+00 2.5977963309447427e-01
      -4.0868788378515015e+00 1.9231421450423563e+00
      -6.7784365803752333e-01 3.6830940354606090e-01
      -9.7658828616669835e-01 -5.2927238037484328e+00
      1.2573609686676042e+00 2.3658417778680789e+00
      -1.8008155593494193e+00 9.8696226777758106e-02
      2.6086865465473436e-01 -2.7301061286269026e+00
      -1.3053515955064576e+00 1.3646764395982562e+00
      1.7766538733010757e+00 -4.3112048174553017e+00
      -1.0108706963939333e+00 -9.8273578664115568e-01
      3.0848986383388559e+00 -4.1619317142292456e+00
      2.3957300377009358e-01 3.4436167465646861e-01
      1.3352668836127084e+00 -1.6011147490439781e+00
      -2.5749062040302655e+00 -3.4794788671924675e+00
      1.7256846991068939e+00 7.7058559120616141e-02
      -2.1414475669367956e+00 -6.5964466198005889e-01
      5.4018735071993673e-01 -2.3304837028623218e+00
      -6.0046766644866696e-02 -3.1918915827591245e+00
      -3.2908952128780484e+00 -2.1685154002803808e-01
      -6.5288810433656708e-01 -8.8235886268182817e-01
      6.4424148932289582e-01 1.6921958403132698e+00
      -5.6438157609784212e-01 4.5957921004007085e+00
      2.8062307685933419e-01 -1.8355056040398949e+00
      9.4826521933528662e-01 -3.8660429575949427e+00
      6.2875232308532814e-01 1.1188018164034383e+00
      -1.5891155621675646e+00 -6.7013724136796515e-01
      2.2354424146577618e+00 -3.4869256785782614e+00
      1.4725103044416417e+00 3.2466762041042047e-01
      9.9518529935385447e-01 -1.7572490476577638e+00
      -8.6393136054772568e-01 8.8916613390880950e-01
      -2.2871427619302458e+00 -1.0026637497259252e+00
      -1.0039395169788385e+00 1.0051087155892471e+00
      -3.8170260949549739e-01 3.9828693957916650e-01
      -1.7548878498239071e-01 -1.8297693433013709e+00
      1.7275131194439519e+00 -7.0433071128513058e-01
      -3.3292690678106069e+00 -1.1615325781338357e+00
      -7.3609496619549941e-01 -1.2468412586503375e+00
      1.0353872732261173e+00 -2.1021112148919068e+00
      -2.4392399213192162e+00 -4.6083342624273566e-01
      -4.7777551092103288e-01 -9.3803472964378931e-01
      7.6307564845151687e-01 -3.5309873182819213e-01
      -2.1597465643648803e+00 4.0079039325294632e+00
      1.5774967926775230e-01 2.6520047378734941e-02
      1.9537309743214666e+00 -2.3009365545747933e+00
      1.2728076567053879e+00 -1.9642302494953623e+00
      -7.1957842896241153e-01 -5.1760412433764158e-01
      2.2193374779011379e-01 1.2989290188626377e+00
      -1.2155187898938180e+00 6.1298124589708436e-01
      -8.0160590509868745e-01 -9.0479198548335353e-03
      -2.1492712008266355e+00 2.2807921307636408e-01
      -1.5278929886639816e+00 -8.3194000017437642e-01
      -5.2555210552726139e-01 2.5125210330546461e+00
      9.8804838311450904e-01 1.2720887603796874e-01
      1.9409608197743014e-01 -1.2354626126704724e+00
      -5.2081582044034858e-01 -1.3706288629457550e+00
      4.0039520031549330e-01 1.5774954542886371e-01
      1.6483341979056634e-01 -1.8406469990403682e+00
      1.7798343025006044e-01 -1.2137022960234745e+00
      8.4427906336256220e-01 -6.5603951840112373e-01
      -2.0554318024816948e-01 -1.6223716520983397e-01
      -6.3807401378371920e-01 1.7203724124286033e-02
      6.9716749225581617e-02 -6.8123487473239819e-01
      -4.1529316248813994e-02 3.0313491663537789e-01
      -4.8197729799251904e-01 9.1914519057764910e-01
      7.2684316588361952e-01 9.3089926971768644e-01
      2.7680511539900088e-01 3.9353819047566141e-01
      1.0475510241145130e+00 -1.0356715710881426e+00
      -2.7630731111141743e-01 -3.4082696013886637e-01
      9.1270995675048583e-01 -1.6803888990105078e+00
      9.4853693145271112e-01 9.7918415533185296e-02
      1.9469205998897314e+00 -3.8245697021765518e-01
      -5.8288452932350232e-01 -1.5138578878846473e-01
      1.5372988154686270e-02 -5.8266935762376695e-02
      -7.6712686458109969e-02 5.4934824690752426e-01
      1.6249614550893593e-01 7.1053343536767954e-01
      7.1325225352950261e-01 4.6593255975509951e-01
      -7.5912226157618978e-01 -1.8432543138621431e+00
      -7.8191155137504270e-02 1.7820095413390738e-01
      7.5210104680765710e-01 1.2464735453318256e+00
      8.3607027996124283e-01 -2.0655312864148465e-01
      -4.2526333567422864e-01 6.8935092864510950e-01
      -9.4527376596478463e-01 -1.3360369484446093e+00
      -1.5829252765426045e+00 1.7024925310109575e+00
      -1.2472378238593074e+00 -8.0448954460742295e-01
      7.9769535674585446e-01 5.1717926184813079e-01
      9.4133853695604019e-01 3.1689243739912407e+00
      -4.3384715400466267e-01 1.0742994829987131e+00
      8.1526323903076225e-01 -6.8048544051198512e-01
      1.0233141659054242e-01 -3.4053583320350483e-01
      1.7209202147619999e-02 1.0705706377626789e+00
      -4.5861420810597908e-01 -7.9579904392028555e-01
      -1.3383350641783489e+00 1.2830141480882484e-01
      7.4239020537035005e-01 -5.9779560010568045e-01
      2.9632384604836144e+00 1.6512876536358649e+00
      3.1176097758926336e+00 1.6206256871791380e+00
      1.1328977176277111e+00 3.5481144018895794e+00
      -7.7095241574735485e-01 -2.1636791080934494e+00
      -2.0647451973200344e+00 2.1097416620651610e+00
      1.4083333017030821e+00 8.8489523467036091e-01
      6.4073218986683644e-01 1.9229619554848778e+00
      -2.4955028600868583e+00 2.1917235993188033e-01
      -3.3492571829909452e+00 -9.4904279238877087e-01
      -3.6766830950127236e+00 4.1767578902969582e-01
      -1.6514899841173722e+00 -7.6691105230113943e-01
      5.5936157475136594e-01 2.3050748179666831e+00
      1.8745191161438159e+00 7.5998384383920689e-02
      -2.9999288572156296e-01 8.1959569017154299e-01
      -6.3192130159380711e-01 5.2287657881570726e-01
      -1.3837834101157851e+00 -8.1581162774353899e-01
      2.3311452827025367e+00 1.1458224239863846e-01
      -4.3550976442029110e-01 -1.1368455815525131e+00
      -5.0424800743104403e-01 2.5169842623499199e+00
      7.8105819239185059e-01 2.8911862266686215e+00
      1.4573338203017143e+00 2.4432182567563934e-01
      2.4725632635823604e+00 1.3530150892283583e+00
      4.2917439117114418e+00 2.0675714338742956e+00
      -4.8288579637534035e+00 -2.0432450324297351e+00
      -2.4317238757372697e+00 4.1482003330005073e+00
      -6.0301252104348502e-01 7.3258672993144458e-01
      -6.4441298537412672e-01 2.0737035170040610e+00
      1.8770317868076183e+00 -3.5684135115335534e+00
      -2.5859063940802102e-01 -3.2294325338723001e-01
      -2.0836885684517368e+00 2.1159155124728639e+00
      -3.4118984734926929e+00 -2.6293978087385055e+00
      2.0407340445900428e+00 2.6216435695440112e+00
      -1.1676413334258753e+00 2.1354021140892057e+00
      5.7099278639495421e-01 -4.9079565596365643e-01
      8.8257728406614611e-01 1.6453582997640124e+00
      2.9093948582873241e+00 4.3365778643270438e-02
      1.6619965294458043e+00 -3.5079609018022123e-01
      -9.5543789053443362e-01 3.1022742513828955e-01
      -3.2337050320242140e+00 -2.4516387261314973e-01
      9.6520020334273826e-01 1.8777604130538716e+00
      2.0658950024361000e+00 4.1653147353764188e+00
      1.3823955311581864e+00 9.0576711118084696e-01
      -2.3712010266657191e+00 -8.5822073911954311e-01
      -2.7233383129305427e-01 5.4688161070834660e+00
      1.9817383571857723e+00 3.6975847705602014e+00
      -2.8065557102153575e+00 5.3917039075579776e-01
      6.2338360663925541e-01 1.6270487672346010e+00
      2.5979230674296026e+00 -1.7168710526158706e-01
      -2.0462686551696696e+00 1.6388654553216777e+00
      1.0796561336816379e+00 -7.9418337530832839e-01
      -1.7477535697256150e+00 1.4458400999400003e+00
      3.4617428334600189e+00 1.2204312535467265e+00
      3.5928165502451959e-01 2.6815567346319664e+00
      -1.9889448179323352e+00 -1.6306522432101320e-01
      1.8948039905498042e+00 -1.0538697730895150e+00
      -1.8080093837359466e+00 3.0326584808135584e+00
      -1.4443877342958822e+00 -1.7291132618962972e+00
      -1.0871035073385167e+00 1.2483174221681159e+00
      -3.3307626854761896e+00 -3.0611120090734443e+00
      7.6211414841417457e-01 5.8493355617514520e-01
      -8.4575096553533946e-01 -1.9750405741974997e+00
      1.7085778759141710e+00 1.9518957456529642e+00
      2.0866026592849454e-01 -7.4123259507276558e+00
      2.1005833553670601e+00 9.7154559311257849e-01
      -1.0355324042743290e+00 -2.3517930149033761e+00
      -1.1682871544440989e+00 -1.3335298678083967e+00
      3.0318115434718389e+00 -1.3721096437392359e+00
      1.1672946435932114e+00 -8.3282528990868621e-01
      8.9435697602414432e-01 -4.8758022174139776e-01
      2.2425003813370004e+00 1.2576734963821810e+00
      -6.1178124630391961e-01 -4.0511696510325947e+00
      2.7877675789371006e+00 7.4296581593952311e+00
      1.1386118478705207e+00 -4.0025308761294607e+00
      -1.7416598763443210e+00 -4.6984777079418105e+00
      -4.3609809214100725e-01 2.3090352566071783e+00
      -2.0635592342984475e+00 5.7350048730504410e-01
      -2.0599588124397008e+00 -2.4836300365921464e+00
      -1.2848125340398464e+00 9.2004196403863137e-01
      -1.8087138964154368e+00 -7.8298614086573988e+00
      4.7987092681320505e+00 1.9078556530831606e-01
      -3.9345697128240573e+00 -6.1762018874225899e-01
      5.0985203359022846e-01 3.2554511195551399e+00
      -5.5830085834594225e+00 -2.4732893103383908e+00
      7.1636049363745713e-01 -4.8301543344107740e+00
      7.2941293318378211e+00 -5.2646516007979995e+00
      -5.1747785940440227e+00 2.4852841103054645e-02
      -1.6632792493113275e+00 -7.1637111718152759e+00
      2.7843368374397066e+00 6.4800207244643593e-01
      3.3094829113117132e+00 8.7121428531430789e-01
      -2.7989967642034225e-01 -2.7128964462166958e+00
      1.5435173679701586e+00 -6.0376215328191725e+00
      1.0622362428066239e+00 -1.6325009259459193e+00
      -3.6889745154006359e+00 2.8447521271795911e-01
      1.3316143679863708e+00 -6.4923215228308733e+00
      -1.5640655664228313e+00 -1.2375161986310645e+00
      -7.3699764178552996e-01 -6.5503945969811266e+00
      -1.0911728546273727e+00 -1.3574647730246063e+00
      5.6066331887964138e-01 1.7254831294949309e+00
      1.0931121470221303e-01 5.3657800622131456e-02
      2.1271464797955755e+00 8.4095857649304984e-01
      -3.8640663969439015e+00 -2.5440633780753452e-01
      3.0670634114413025e+00 -2.8741049607825211e+00
      -5.4636494144997094e+00 2.2159037016111278e+00
      1.4487676554149562e+00 -4.1586896233183532e+00
      4.7247750932383727e+00 -1.7789049482443313e+00
      -4.2083973419606711e+00 7.4507600320445885e-02
      -2.2105670017398555e+00 -7.8480779710713178e-01
      2.3236918006567733e-01 -5.1088078518051896e+00
      -6.1110712416764610e+00 1.2672634297917551e+00
      -2.1091346753832227e+00 -3.0083497131536050e+00
      -4.6944984378602778e-01 -2.5118136482504414e+00
      2.4048971342297656e+00 1.1736186965881468e+00
      -5.0983943040075708e-01 1.0988826967386642e+00
      9.7784265882335875e-01 -3.2089136588920799e+00
      -5.7359812673195290e+00 2.8531884373818333e+00
      -3.9300656267397438e-01 -1.3809823669835164e+00
      -1.7973258754786510e+00 -3.6685505404608301e+00
      -1.6092025677640416e+00 1.9510305014885230e+00
      -4.7815010467484225e-03 4.9315750646758083e+00
      -7.9408438726469865e-01 -2.2184831947929142e+00
      4.4563939749006126e-01 2.8430000375284190e+00
      1.6734178691942729e+00 -1.0963895672903388e+00
      -6.9562292715125584e-01 2.9192123818899036e+00
      1.1581380735639948e+00 -6.6930738602912132e-01
      1.2311927891025698e+00 -2.5310912082132009e+00
      -9.0389944495384367e-01 -5.3674883628904393e-02
      -4.1560265423207170e+00 -1.2674468544235853e+00
      -1.2454781297154140e-01 -4.0721792487593476e+00
      -3.1809595527384431e+00 1.3316819906630710e+00
      -1.1186574536508225e+00 2.0901354046192577e+00
      -8.1092911273870838e-01 -1.0870443403578152e+00
      1.4743508638991687e+00 2.3626300506391558e+00
      2.9917946255507361e-01 4.5374840989454285e-01
      -1.7722697831528431e+00 -4.0575306799350702e-01
      -3.5497629999570939e+00 -1.7887213521385534e+00
      9.3045640815071196e-01 7.0066960476667439e-01
      -5.1539054821201835e-01 -5.0805848058519587e-01
      9.2458105780336131e-01 5.4243031720601973e+00
      -7.1521465383276395e-01 1.3316742133853097e+00
      4.5454945370913835e-01 2.0638366521294488e-01
      8.1703375574114767e-01 2.9936007915834710e+00
      1.1199747457687081e+00 7.6443805321542546e-01
      3.6828047966424393e-01 4.3808501406180600e+00
      7.4351783395898219e-01 -1.8624005899196650e+00
      -7.4689380119598525e-02 -7.5674944621944795e-01
      -1.1221113777387850e+00 -1.0961522101300989e+00
      -1.5421830062025406e+00 -1.1168217817404145e+00
      -9.2555862886628215e-01 -3.5349951930876782e+00
      -1.9691440233399606e+00 -3.2957027833943102e+00
      -2.3282651009594821e+00 1.7115761280149897e+00
      -1.5909426657560404e+00 -2.4468529901877037e-01
      -1.2965371800043471e-01 1.0576846026393101e+00
      1.3444804270214126e+00 2.1043393664731567e+00
      -1.7315746032220252e+00 -1.6962565145840611e-01
      -1.5108180802388207e+00 2.1926294298750677e+00
      3.3666562611835399e-01 -7.4578988130780977e-01
      4.3608551516747120e-02 1.1015742016186785e+00
      1.4185607009817556e+00 1.5701211416335203e+00
      2.3875425958290614e-01 1.8119428192229230e+00
      -1.7265446180703579e+00 -7.1290706296372386e-01
      -7.6867102839159729e-01 4.5128467764275310e-01
      8.1129401233304554e-01 2.6959672317922079e-01
      -7.5618488076189649e-01 -1.0397515983205582e-01
      8.7874463317204876e-01 1.1252771241959092e+00
      2.0153422541939114e-01 7.2606631512546238e-01
      -1.0275142520352090e-01 -1.2201124563988243e-01
      -2.0435767108949991e+00 3.0548922824679237e-01
      -1.8800212401419622e-01 2.2212513907226974e+00
      -1.0465470078913981e+00 5.9422426055770838e-01
      -1.2323933265164895e+00 1.3171089021282094e+00
      8.0565695622084943e-01 -4.1533620887872890e-03
      7.2147873933429707e-01 2.0516722286572167e+00
      -8.5245010341439498e-02 -2.2993541874675677e-01
      -9.6405298487271052e-01 1.6698357430328456e-01
      2.2578014213572333e+00 -7.0371504535352958e-01
      7.7321615373706007e-03 1.6294636822708666e-02
      4.6466164423276352e-01 1.0085798511626851e+00
      -1.0370315975251156e+00 4.4193063623762585e-01
      -3.2436913458481547e+00 -6.9644634656558491e-01
      -1.9127524438858827e+00 1.4492907216074635e-01
      -2.2200325498716411e-01 3.6069946490908755e-01
      -3.6320534268999122e-01 2.0122467872833671e-01
      4.2211822370381711e+00 1.3883394326919323e+00
      -2.3997968386537180e-01 4.2768805569780538e-01
      -1.7495920324961411e+00 -9.6935843244230685e-02
      -3.0725640728978476e-01 -1.2110660145919416e+00
      -8.5178291343751000e-01 8.6998952815611519e-01
      9.1687037973887930e-01 6.8307198360428056e-01
      -1.4512103449585415e-04 1.3108057109543900e+00
      -1.0316607056795073e+00 -3.3023755839240071e-01
      -9.9175360174758267e-02 5.2080655132560949e-01
      -1.8412922015904860e+00 2.6416396157045905e+00
      -3.8356318122280318e-02 -5.7108101170661202e-02
      1.1602732595063403e+00 5.5920211686082077e-01
      -1.4487387147055403e-01 -6.5680186985590339e-01
      -9.5699416075097254e-01 3.8417443668775392e-01
      -1.2758621117512510e+00 -9.8207862538389146e-01
      5.7061310867026904e-01 1.2552282730695667e+00
      -1.4329779508284377e+00 -3.9311867936510897e-01
      8.2963910637022864e-01 3.8156732982558966e-01
      -5.7570766185589417e-01 2.4112703772413453e+00
      -1.4984354777023621e+00 -7.7960627953235861e-01
      -2.5512273723394135e-01 1.2241642571682178e-01
      8.3724700028922172e-01 -2.2451421936206102e+00
      -1.1748264912249549e+00 1.6452875580985742e+00
      -1.2117599613955645e+00 1.8366747920709439e+00
      1.6936781608534524e-01 2.3381698505761606e-01
      8.6449273015633266e-01 -1.8535186145768143e-01
      -2.4087160951034856e+00 -5.3710238821587764e-01
      1.7108319120720337e+00 1.6478319661974433e-01
      -7.8945037715024091e-01 -5.1341161198410390e-01
      -8.7248162047536604e-01 -3.3458049567959969e-01
      -1.8410651588758327e+00 -3.1847625541145708e-01
      2.5360279281194367e+00 5.4907855747985646e-01
      1.5251565365583616e-01 2.2144866540178945e+00
      -1.2489649810977479e+00 -8.0402072805452551e-01
      -9.8657561348813316e-01 7.4368471005518144e-01
      -4.1712249382481061e-02 -1.3802148307290785e-01
      3.9004835453218423e-02 -2.0927860024394658e+00
      -1.5974633518037427e+00 -8.6445676078555045e-01
      1.2708448781284107e+00 3.6285031257285443e+00
      -1.7210279622630162e-01 2.8203504215788806e+00
      2.9880121764414493e+00 -1.9316692636142592e+00
      -2.5164000951152263e+00 -2.3189194368905759e+00
      -3.4995809565666165e+00 4.1111817624555852e-01
      1.6331277291225010e+00 -9.1230568231342912e-01
      2.0625942727697693e+00 -1.0642380394349282e+00
      -1.3234378585539082e+00 3.8860967235301319e-01
      -5.0751946119212832e+00 -1.4768917576696514e+00
      -2.3759719336848426e-01 5.7362886293115500e-01
      -8.6383608166816761e-01 -3.3654112897928248e+00
      -2.7118497293114454e+00 3.7722829346250175e-01
      -1.6386063872274530e+00 -1.0195120361980354e+00
      -1.2585460129966570e+00 1.3473684792395109e+00
      -3.8867225685349482e+00 1.6288565772585510e+00
      -4.9245053803430947e+00 -3.3844975647213702e+00
      -3.9249976229677137e+00 9.0004878045143633e-01
      8.1527851182411304e-01 -3.0526549986472258e+00
      7.3919472001102171e-01 -1.0372308125387923e+00
      -2.2780887143689590e-01 1.4372707747423226e+00
      6.1881794843513627e-01 1.1086954228227008e+00
      -1.1493001240763925e+00 -3.3408342752675759e+00
      4.2261295438174136e+00 -1.0459969295980451e+00
      -4.6642783847671172e+00 -1.2790056726468233e+00
      -2.8420858442489223e+00 -2.0564784502231575e-02
      9.4425115344210386e-01 -2.0692213002217761e+00
      8.2760283154024294e-01 -6.3122480544637083e-01
      9.6886874929911757e-02 -1.8145305331226707e+00
      -5.0916615921333763e+00 -3.0692523504345592e+00
      -5.5219006952056959e-01 5.3296374193751876e-02
      -1.6790704760916524e+00 -2.4166502016462785e-01
      -3.6046409020869707e-01 3.6663425982535941e-01
      -8.2144595047158397e-01 8.6376064226629912e-01
      1.6165377093925684e+00 9.5494267746732031e-01
      -3.9650667213292152e+00 -2.9516781864686186e+00
      -7.5558659875573719e-01 1.2465949530930778e+00
      -3.4242656191214689e+00 -1.0613467897988487e+00
      2.6004098576484469e+00 -1.8332744033090880e+00
      8.3067435158673056e-02 -9.9236819913120866e-01
      -8.0839675220100227e-01 -2.3161162596647871e+00
      -6.6409176149138383e-01 2.0444688536940755e-01
      -3.5132546608207749e+00 6.2105333672600054e+00
      -3.1278405113048935e+00 -5.3405430358187163e+00
      -1.2579653656384268e-01 2.1632744751349513e+00
      2.6291931732104743e+00 1.2686752138598580e+00
      -3.1403639769498239e+00 -2.2069051742032126e+00
      -4.3720142652592814e-01 -5.7336515242317683e+00
      1.2445651934180906e+00 7.6721452271121218e-02
      -2.1195995856652328e+00 -1.8402798256619655e+00
      -3.9680709977583604e+00 -2.5341065929150863e+00
      -1.3837447291592004e+00 1.0814618098375040e+00
      -1.7639165082539674e+00 -1.7402123169613828e+00
      -8.7434528352019236e-01 3.6578648289249203e+00
      -2.6652788413516180e+00 -5.5848811572113641e+00
      1.5936247120738627e+00 3.5420789567021136e+00
      -2.8405297674296364e+00 -1.1998358230249506e+00
      -2.7745305040968162e+00 1.0840482933513629e+00
      3.6185185575049905e+00 1.8759272880136728e+00
      3.7195353300509665e-01 -2.3177843972997296e+00
      -3.8613335572644449e+00 1.5040781215961014e+00
      1.0614115115875262e+00 -2.6039651664448331e+00
      -5.5023804212543892e-01 6.4379053787382450e+00
      1.1560306188550133e+00 -1.8174934927161492e+00
      2.2956579471770953e+00 1.3541406249739956e+00
      -2.2982065029143790e+00 -3.5166711890011787e-01
      -9.5721800234756249e-01 -1.8801876652254186e+00
      -4.1064114977098418e+00 4.8540920275869537e-01
      6.4189577307627461e+00 -4.3831305981991822e+00
      5.9780525609945121e+00 -1.7167285341010430e+00
      6.7450588352813312e-01 -5.7386242966735797e+00
      3.5439768772649369e+00 -2.5563279448853837e+00
      8.5181017126391023e-01 -3.3418082933846516e+00
      2.8961834509305957e-02 2.2453592726826002e+00
      -8.8790110125785249e-01 -9.7136269824391575e-01
      -3.8954550085086797e+00 -3.0630619888408495e+00
      -2.0985012016318443e+00 -6.8071006058605610e+00
      3.9193208572036918e-02 -2.0231578643824570e+00
      -1.1095608062476975e-01 1.1793170450898611e+00
      -2.3211939779744299e+00 1.0569029668377261e+00
      -3.1710931645219036e+00 3.4606254977424369e+00
      -8.6997063502592886e-01 1.8805883431643318e+00
      6.0868113499930698e-01 -1.5452844847968223e+00
      -6.1951032186765032e-01 1.1077024779539203e+01
      4.9666047744047583e+00 -3.1426733840735639e+00
      8.7613242186548590e-01 8.1087603662556447e+00
      -1.5164560467455801e+00 1.8961980622992463e+00
      -5.5645551709286405e+00 -4.2923584062077058e+00
      -4.9694617814415709e+00 -5.9961304182227293e+00
      -3.4676086020754848e+00 6.6427402197447127e-01
      1.9517179078846107e+00 -2.2299580298331048e+00
      2.1042103437003754e-01 2.6418303974394499e+00
      -2.5540094303213769e+00 4.3857655313296178e+00
      1.6489450106989323e+00 8.4081577869666002e-01
      1.0201158581747063e+00 -1.6672993699001137e+00
      -7.3277947768621807e+00 4.3794834098664825e+00
      3.1497192074409037e+00 -2.4839981962447504e+00
      -8.9201336594139835e-01 -1.7100992777399784e+00
      -7.7007272547751060e-01 4.5647318583030687e+00
      -6.0286897171046527e-01 1.3440526211188086e+00
      -1.4489307845935795e+00 7.4666057240013101e-02
      -4.5781742562830781e+00 1.7165286502605914e-01
      2.6375120070137714e-01 -3.4388758564253252e+00
      -8.1722948006195928e-01 9.9001342444462868e+00
      -6.8963774044546344e-02 -8.1727706915294740e-01
      4.8796983039902644e+00 6.5712738985380081e+00
      1.9207843942588787e+00 4.2728105431010679e+00
      -5.5081117574777334e+00 -1.8156932822272112e+00
      -4.5291715067596661e+00 -1.0931161764674483e+01
      -3.8635596864480424e+00 -8.7812961194273031e-01
      1.8148801121832479e+00 -1.3353044524082809e+00
      -2.8011536543610122e-01 -8.5489116437045698e-01
      -1.0080258223452510e+00 5.4810212594180960e+00
      9.7248617751216915e-01 -6.7370277289852054e-01
      2.4664259635330590e-01 -2.8498660449699784e+00
      -8.1819625120900010e+00 5.1516130938040696e+00
      -2.2789806975266282e+00 -4.1910718862135656e+00
      3.1975919353398869e+00 -4.0541004874025326e+00
      -4.0650226360693242e+00 3.4967365241386887e+00
      2.6844492838762024e-01 4.0777287629014518e+00
      -1.7219620215917892e+00 -2.5576952625915017e+00
      -8.5716203766361562e-02 1.6775864023388232e+00
      9.4441266061797302e-01 -1.1546878581046780e+00
      -7.1237482689836151e-01 3.3725046302069113e+00
      -4.7646439168708199e-01 -5.9108516345914397e-01
      2.5183622783507409e+00 2.5338096476133702e+00
      1.7406065797662078e+00 -5.4658708249672783e-01
      -1.8622457617761961e+00 3.6681727675768361e-01
      -2.6328015877814130e+00 -2.6969556098440015e+00
      -4.1855002389911064e-02 -2.1611561188951139e-01
      3.0154433114483088e+00 -8.5728883227052899e-01
      -1.3961309033357165e+00 8.5956646618114019e-01
      -1.5414350812224295e-01 1.8657431077825992e+00
      -1.4761594168984124e-01 -4.2791876055114281e-01
      2.6661251820511689e+00 -5.4909838127088173e-01
      -2.4433272141209925e+00 1.8111575014430267e-01
      -6.9127524492781545e-01 -8.6104688608490187e-01
      1.3229628313230879e+00 -3.9129700041066982e+00
      -5.7563521634694081e-01 1.2529047876663759e+00
      -3.0091836451889348e-01 3.6196866191837973e-01
      -5.7501379798137009e-01 -1.7262454452169167e+00
      -6.3183063971781661e-01 8.4125657994836112e-01
      3.3803565916861218e+00 1.5640739468962594e+00
      1.2619273270627582e-01 1.0440211558915466e+00
      -9.3667114071940749e-01 -8.3960067961830387e-01
      1.1731591489976927e+00 1.5389980949754121e+00
      2.8342584930264048e-01 7.3892980324530122e-01
      -4.8926230750090310e-01 -2.1003867003032655e+00
      -3.7265872654994139e+00 6.1418287317121323e-01
      7.9154074727995474e-02 -1.2072702977022909e+00
      -4.9040540909517200e-01 -1.0125253298870620e+00
      -5.8828699069239998e-01 -2.9136882584653921e-03
      2.9335038058470342e-01 4.8938233944153007e+00
      6.2601529203625106e-01 9.4160044314894178e-02
      -2.5563206312568526e-01 -7.3785097870374139e-01
      -8.7962170216406310e-01 1.2202435654262711e+00
      1.9082292615887225e-01 1.4810354157477414e+00
      -3.8646598030282470e-01 7.3470027472146884e-02
      -1.3781905211702807e+00 2.2291733686358399e+00
      5.4393278362517394e-01 8.9250914842381540e-02
      1.1661812151900459e+00 2.8367980181112684e-01
      -1.4133960469199769e+00 -1.8598253975652509e-01
      -1.8867159784500405e+00 9.1587059140744276e-01
      -1.2638939149396515e+00 -4.8285020481750840e-01
      -1.9853950069269151e+00 1.2446891847206783e-01
      1.1289207095067604e+00 -6.0335829171846977e-01
      1.3758397679488585e-01 -4.1483421718427976e-01
      1.1566518132726631e+00 6.3622046485777684e-01
      -6.1512172727002434e-01 -9.8521880675060647e-01
      3.9919009316672283e-01 -1.0262149688175075e+00
      5.6435702947579169e-01 -1.0369266490770124e+00
      -1.9940003225789180e-01 -4.5302906695917083e-01
      2.0036090802955373e+00 -4.9593284637096868e-01
      -7.3964306763353405e-01 -4.3575363077022855e-01
      -1.0632114045278784e+00 -8.5692371352415675e-01
      -1.7930041978232600e-01 2.1040899873823453e+00
      3.2008687868324515e-01 -1.7022500255387436e+00
      -1.6032810708276224e-01 2.8417259911454634e-01
      -9.5855569334736601e-02 -1.1111431939020517e+00
      -1.5859345982448163e+00 1.0945331270647534e+00
      -1.0726868361172848e+00 2.0648155995164239e+00
      -1.1953709579740381e+00 1.8647678571671886e+00
      -3.8138802295373103e-01 9.9339749373002750e-01
      1.3402817016457182e+00 -2.2252279313688552e+00
      -3.2638114227272110e+00 4.1863413998703276e+00
      -2.3828182061867187e-01 2.1213527755053962e+00
      3.1930517233900341e-01 -5.9991648937781905e-01
      1.5402968148428520e+00 1.5085125292797714e+00
      2.5598854251576393e+00 8.2580886733276604e-01
      1.1463698419211308e+00 2.9121313959249173e+00
      -1.1486647905803247e+00 -7.9528968100836051e-01
      -1.0589644033537244e+00 2.3083648303656243e+00
      1.1167641977966300e-01 1.2170421412721477e+00
      -1.6396263539446079e+00 -5.2893206842395279e-01
      -5.2401428672869277e-01 3.8591436004073087e-01
      -5.6836160296806748e-01 4.4409489900766502e-01
      2.2709916930815166e-01 1.6355255088497700e+00
      -9.4472660735031833e-01 1.2464966722859733e-02
      1.8420048388685395e+00 4.8052863434422488e-01
      6.5047055455471538e-03 -1.4008865164684148e+00
      7.5576957481232876e-01 -1.8489491345379960e+00
      9.2314109940702771e-01 1.5802870988308428e+00
      -3.1759167868238976e+00 1.6182300916588024e+00
      2.3710716585467990e+00 -6.7446157777841487e+00
      -2.7259298898442430e+00 9.6400983019838815e+00
      -1.2140311598708629e+00 1.9777660821160286e+00
      -6.4661801353836545e-01 2.0441493753208534e-01
      8.9352612747275617e-01 2.8354930135154492e+00
      1.7800321579199800e+00 3.3143703536608253e+00
      2.1263706779730680e+00 6.4063357848208939e+00
      -6.6546513448554723e-01 -1.4634813344941586e+00
      -3.0887329888376551e+00 2.1641687274035362e+00
      -2.5620117578882146e-01 9.5827361578219794e-01
      -9.8224023291283202e-01 -4.7706075000331133e-01
      1.9882060941857513e+00 1.8220770383433693e+00
      -8.0373502723292756e-01 -2.2610363925739549e+00
      -5.7526121954157761e+00 5.3573984143739306e+00
      2.4947298169117921e-01 -7.0887535493811438e-01
      5.3071741761752755e-01 -1.8506993596512407e+00
      2.4639880318691740e+00 -4.1020344887766242e+00
      1.5378651911867938e-01 -1.5212139610190620e+00
      2.3311223769853910e+00 5.2538770954108358e+00
      -2.0352337671337861e+00 -1.9085265271380075e-01
      1.6181130616843873e+00 6.0586684532985502e-01
      -2.3357988116800024e+00 5.0043040374801526e+00
      -5.3952931781332678e+00 1.3873198611264863e+00
      2.7616328442574383e+00 1.1093097566729313e+00
      -7.3701298798250670e-01 4.9697366446969332e-01
      -1.5408682703781111e+00 1.2179289550406756e+00
      -2.1845758549833727e+00 1.0131084992190744e+00
      -4.0996012746168304e+00 5.8468821157632700e-01
      -1.8686310931748549e+00 1.6296040829042477e-01
      -1.6609162026221629e+00 -3.2201788313890081e+00
