<?xml version="1.0"?>
<opencv_storage>
<opencv_ml_ann_mlp>
  <format>3</format>
  <layer_sizes>
    140 40 31</layer_sizes>
  <activation_function>SIGMOID_SYM</activation_function>
  <f_param1>1.</f_param1>
  <f_param2>1.</f_param2>
  <min_val>-9.4999999999999996e-01</min_val>
  <max_val>9.4999999999999996e-01</max_val>
  <min_val1>-9.7999999999999998e-01</min_val1>
  <max_val1>9.7999999999999998e-01</max_val1>
  <training_params>
    <train_method>BACKPROP</train_method>
    <dw_scale>1.0000000000000001e-01</dw_scale>
    <moment_scale>1.0000000000000001e-01</moment_scale>
    <term_criteria>
      <iterations>300000</iterations></term_criteria></training_params>
  <input_scale>
    7.3858658826082522e+00 -4.8780526684732797e+00
    7.7890238642571719e+00 -6.0199255723819149e+00
    8.3232641858657317e+00 -6.8004747245508526e+00
    8.6337500570114987e+00 -7.2329859068287412e+00
    8.5915740235825577e+00 -7.2382443372188812e+00
    8.6190766610574894e+00 -7.2470535036343531e+00
    8.8502072140601502e+00 -7.5695707678309025e+00
    9.1323378779891211e+00 -7.9095795669329050e+00
    9.3501149180432677e+00 -8.0642076290665088e+00
    9.4597889780450313e+00 -8.1554244396879145e+00
    9.1018495302679039e+00 -7.8199358229936600e+00
    1.0033585335613974e+01 -8.7676398363134709e+00
    9.4232318388113949e+00 -8.0964691752329774e+00
    9.5559302677560396e+00 -8.2227886480649524e+00
    9.6652935227266603e+00 -8.2596951636381828e+00
    9.2893704689023338e+00 -7.8228796520978259e+00
    7.9474384172220978e+00 -6.5388592991257299e+00
    7.8825924449457920e+00 -6.3468128702832303e+00
    7.3768711079097660e+00 -5.6079916234011291e+00
    7.0042782274115920e+00 -4.7955910281246794e+00
    8.7527567457013138e+00 -4.4767676119448971e+00
    7.5785127054863040e+00 -4.3522838480189794e+00
    6.5893623775190013e+00 -4.2184127180718116e+00
    6.2666012940732863e+00 -4.4201708626791500e+00
    6.4994283630464968e+00 -5.0609390275682733e+00
    7.4472072690534361e+00 -6.3082377314687959e+00
    9.0798895270839637e+00 -8.1786519383550935e+00
    1.0300929317904041e+01 -9.5636470697259810e+00
    1.2416568620547077e+01 -1.1664092850492604e+01
    1.2801590396346167e+01 -1.2070333917352913e+01
    1.2986165937278905e+01 -1.2283878841911605e+01
    1.2453247246260204e+01 -1.1738710704878210e+01
    1.1588707183788692e+01 -1.0795660801012692e+01
    9.5503961273102256e+00 -8.6360750542705809e+00
    7.6545992162959120e+00 -6.5281991432700153e+00
    6.2185204833079553e+00 -4.7777145280922726e+00
    3.5821618713097876e+00 -2.0701107559435359e+00
    3.7713838190967115e+00 -1.8297187176953182e+00
    4.0986580733733868e+00 -1.5782046237850824e+00
    4.7691434963886197e+00 -1.5639361746564473e+00
    2.8556676965430895e-02 -2.8267669206351459e-01
    2.1956325413351272e-02 -4.0056906981005064e-01
    1.7124888185796015e-02 -6.3496637466027173e-01
    1.3907182865977747e-02 -9.4480234194112023e-01
    1.2405350787778411e-02 -1.1045121197613437e+00
    1.2361248738872843e-02 -1.1223659845627165e+00
    1.2980872619258052e-02 -9.4352002677787117e-01
    1.5613781855118034e-02 -6.7490963492528366e-01
    1.9511762623866460e-02 -4.2806510842741502e-01
    2.4294204885788220e-02 -2.8742160711605119e-01
    2.3071793699006197e-02 -3.4734888651847190e-01
    1.5365261723715782e-02 -6.0210483378266555e-01
    1.2026619594469273e-02 -9.2937907688990584e-01
    1.1641086648646369e-02 -1.3147606494639577e+00
    1.2218326520263110e-02 -1.5787166436249318e+00
    1.2202793202515138e-02 -1.6644674384035953e+00
    1.1596750068731024e-02 -1.3516717351444731e+00
    1.1761112508688542e-02 -9.4403566734593469e-01
    1.3966017996976133e-02 -5.9495536354707912e-01
    2.0363476968019920e-02 -3.6752113818007426e-01
    2.8360253338018147e-02 -3.3695779809387422e-01
    1.5236178608333631e-02 -5.9750837581502958e-01
    1.2133535033609125e-02 -9.5190894488799660e-01
    1.2197709473033013e-02 -1.4059718791952691e+00
    1.2699349934653338e-02 -1.6708069298522139e+00
    1.2670409192062434e-02 -1.7615706552044972e+00
    1.2105490216508146e-02 -1.5185716291569060e+00
    1.1664652206646958e-02 -1.0223884985271710e+00
    1.4319622128624150e-02 -6.0759238655525538e-01
    2.5007414442276506e-02 -3.3784466878424413e-01
    5.0414183781481485e-02 -2.9159840175510054e-01
    1.7506161328001708e-02 -5.6050635397248694e-01
    1.2403494682107202e-02 -1.0627626775047472e+00
    1.2718561527974421e-02 -1.6696653395055416e+00
    1.3102369012709435e-02 -1.8921425601236002e+00
    1.2981861229258242e-02 -1.8990593886099731e+00
    1.2357769318371336e-02 -1.7124977843351785e+00
    1.1754444903703382e-02 -1.1301190830688588e+00
    1.5605578122347754e-02 -5.9541337172841380e-01
    3.8131130734231349e-02 -2.8568608506627086e-01
    1.4310416188782210e-01 -3.3389396349190559e-01
    2.5139150229461431e-02 -5.0619914050742354e-01
    1.2881721371505894e-02 -1.1021079965671734e+00
    1.2890078820439212e-02 -1.7181823994461125e+00
    1.3669744994188391e-02 -1.9753873042891326e+00
    1.3158496044979484e-02 -1.9426939554668268e+00
    1.3661410118848230e-02 -1.9066484202173786e+00
    1.2449517134892183e-02 -1.2087166985179127e+00
    1.8880708755426745e-02 -5.6869866586059514e-01
    7.5577161062513887e-02 -2.4016090816732893e-01
    3.4506243126143044e-01 -6.5271806159339374e-01
    3.2093030895130721e-02 -4.5953901414796977e-01
    1.3175931633646639e-02 -1.0831615701271859e+00
    1.2980200737457585e-02 -1.8332852966417896e+00
    1.4090511411633198e-02 -2.1786763513742060e+00
    1.4253429701114062e-02 -2.3532401849251956e+00
    1.3760662711852122e-02 -2.1788413467167049e+00
    1.2528954691186577e-02 -1.2799051304079028e+00
    2.1328206694364665e-02 -5.3585480076205416e-01
    1.2020984646975937e-01 -2.5722367325216305e-01
    1.2622642977765086e-01 -3.2544729168046621e-01
    2.3912777654813477e-02 -4.7631109189176291e-01
    1.2686137196812565e-02 -1.0548054802431017e+00
    1.2997667869760247e-02 -1.7308301804780664e+00
    1.3639083402838254e-02 -1.8429523700741086e+00
    1.3147470586625073e-02 -1.8030836568620001e+00
    1.2634670940122758e-02 -1.8250123405758827e+00
    1.2191578149179150e-02 -1.1848442552317149e+00
    1.7820097808477913e-02 -5.5825300505112108e-01
    5.9308402572711860e-02 -2.5434354477629412e-01
    4.4976855026051581e-02 -2.8173685362778189e-01
    1.7226132756848811e-02 -5.2984521999652778e-01
    1.2240789146843274e-02 -9.3832521089526277e-01
    1.2379045860189815e-02 -1.4845956299966627e+00
    1.3060000917940665e-02 -1.7496334968870770e+00
    1.2982454975665535e-02 -1.8346146096692320e+00
    1.2366264540057006e-02 -1.6579551348262174e+00
    1.1667632034068844e-02 -1.0866776902998496e+00
    1.4524091424209918e-02 -6.0895758005470757e-01
    2.7723064992829498e-02 -3.1910182472041976e-01
    2.8412505856744076e-02 -3.1616695046303894e-01
    1.6603919296111654e-02 -5.5358548144173791e-01
    1.2901478834517224e-02 -8.5138739773341066e-01
    1.2369210312055475e-02 -1.2566378576791200e+00
    1.2853559077295721e-02 -1.5273020257724690e+00
    1.2912076164614638e-02 -1.6510236416071307e+00
    1.2331495175513461e-02 -1.4119233753522926e+00
    1.1713530845533561e-02 -9.6258995836685468e-01
    1.3689492124844636e-02 -6.3016913158150301e-01
    2.1096765900242551e-02 -3.7801934361229600e-01
    2.9627856226874510e-02 -2.7847226102299755e-01
    2.2425175583215894e-02 -4.0740796386226108e-01
    1.7520608984535439e-02 -6.2930241812044285e-01
    1.4180397536335531e-02 -9.2749238661713573e-01
    1.2631428577609039e-02 -1.1044532713458552e+00
    1.2473455818783234e-02 -1.1629622646429885e+00
    1.2902599307253732e-02 -1.0098289922639043e+00
    1.5036481243424786e-02 -7.3204792170370270e-01
    1.8845014146299410e-02 -4.8087797703918544e-01
    2.4211705037941480e-02 -3.0464155809294008e-01</input_scale>
  <output_scale>
    5.2631578947368418e-01 4.9999999999999994e-01 5.2631578947368418e-01
    4.9999999999999994e-01 5.2631578947368418e-01 4.9999999999999994e-01
    5.2631578947368418e-01 4.9999999999999994e-01 5.2631578947368418e-01
    4.9999999999999994e-01 5.2631578947368418e-01 4.9999999999999994e-01
    5.2631578947368418e-01 4.9999999999999994e-01 5.2631578947368418e-01
    4.9999999999999994e-01 5.2631578947368418e-01 4.9999999999999994e-01
    5.2631578947368418e-01 4.9999999999999994e-01 5.2631578947368418e-01
    4.9999999999999994e-01 5.2631578947368418e-01 4.9999999999999994e-01
    5.2631578947368418e-01 4.9999999999999994e-01 5.2631578947368418e-01
    4.9999999999999994e-01 5.2631578947368418e-01 4.9999999999999994e-01
    5.2631578947368418e-01 4.9999999999999994e-01 5.2631578947368418e-01
    4.9999999999999994e-01 5.2631578947368418e-01 4.9999999999999994e-01
    5.2631578947368418e-01 4.9999999999999994e-01 5.2631578947368418e-01
    4.9999999999999994e-01 5.2631578947368418e-01 4.9999999999999994e-01
    5.2631578947368418e-01 4.9999999999999994e-01 5.2631578947368418e-01
    4.9999999999999994e-01 5.2631578947368418e-01 4.9999999999999994e-01
    5.2631578947368418e-01 4.9999999999999994e-01 5.2631578947368418e-01
    4.9999999999999994e-01 5.2631578947368418e-01 4.9999999999999994e-01
    5.2631578947368418e-01 4.9999999999999994e-01 5.2631578947368418e-01
    4.9999999999999994e-01 5.2631578947368418e-01 4.9999999999999994e-01
    5.2631578947368418e-01 4.9999999999999994e-01</output_scale>
  <inv_output_scale>
    1.8999999999999999e+00 -9.4999999999999996e-01
    1.8999999999999999e+00 -9.4999999999999996e-01
    1.8999999999999999e+00 -9.4999999999999996e-01
    1.8999999999999999e+00 -9.4999999999999996e-01
    1.8999999999999999e+00 -9.4999999999999996e-01
    1.8999999999999999e+00 -9.4999999999999996e-01
    1.8999999999999999e+00 -9.4999999999999996e-01
    1.8999999999999999e+00 -9.4999999999999996e-01
    1.8999999999999999e+00 -9.4999999999999996e-01
    1.8999999999999999e+00 -9.4999999999999996e-01
    1.8999999999999999e+00 -9.4999999999999996e-01
    1.8999999999999999e+00 -9.4999999999999996e-01
    1.8999999999999999e+00 -9.4999999999999996e-01
    1.8999999999999999e+00 -9.4999999999999996e-01
    1.8999999999999999e+00 -9.4999999999999996e-01
    1.8999999999999999e+00 -9.4999999999999996e-01
    1.8999999999999999e+00 -9.4999999999999996e-01
    1.8999999999999999e+00 -9.4999999999999996e-01
    1.8999999999999999e+00 -9.4999999999999996e-01
    1.8999999999999999e+00 -9.4999999999999996e-01
    1.8999999999999999e+00 -9.4999999999999996e-01
    1.8999999999999999e+00 -9.4999999999999996e-01
    1.8999999999999999e+00 -9.4999999999999996e-01
    1.8999999999999999e+00 -9.4999999999999996e-01
    1.8999999999999999e+00 -9.4999999999999996e-01
    1.8999999999999999e+00 -9.4999999999999996e-01
    1.8999999999999999e+00 -9.4999999999999996e-01
    1.8999999999999999e+00 -9.4999999999999996e-01
    1.8999999999999999e+00 -9.4999999999999996e-01
    1.8999999999999999e+00 -9.4999999999999996e-01
    1.8999999999999999e+00 -9.4999999999999996e-01</inv_output_scale>
  <weights>
    <_>
      -3.7396852795810935e+00 6.8375463762460198e+00
      -6.4808066497764010e+00 2.4236186275452249e+00
      1.8585826899266691e+00 -1.1548538383066635e+00
      -1.1070975282493487e+00 4.6224265463222763e-01
      -3.4685282604198577e+00 2.4768720414604140e+00
      -2.9910358626370065e-01 7.4491885060955276e-01
      -4.3200264425918284e+00 -3.6609594998027997e+00
      5.2299792671626575e+00 -3.4265847360227601e+00
      8.0502236106803460e-01 -3.3530126934235343e+00
      1.8297310258664536e+00 -3.7580070627125925e+00
      -3.9356085168279251e+00 3.2241580617508818e+00
      1.0460094151007771e+00 1.5705754741784150e+00
      -2.4798443678988318e+00 -2.5030984876551976e-01
      2.9650732235257271e+00 6.2417481516940831e-01
      6.3261780472308775e+00 -1.8511674381206518e+00
      -2.5262463123077024e+00 1.7851356613116978e+00
      -4.5543592416026646e-01 -1.5133921500636287e+00
      4.5959117104720587e-01 2.4014022967902945e-02
      3.7668437820672263e+00 5.2434657005808685e+00
      2.0849383422010219e+00 3.9053819791252500e+00
      -6.7786143554811185e-01 3.4490581055112473e+00
      -2.9065512176964878e+00 -5.8496993327583704e+00
      3.9339939979547416e+00 -3.9635047436442252e+00
      -5.4769580381350425e+00 4.2417379222149104e-01
      -5.0745784261404818e+00 1.4079412628021404e-01
      -2.9761429752058439e+00 6.4234740008611224e-01
      1.1847190158141514e+00 -1.3503597642007981e-01
      3.2223416809694441e+00 -2.8607437802651146e+00
      3.3221988827474309e+00 -5.7000023528055621e+00
      3.0152845965352064e+00 1.3762050602318971e+00
      -4.5845425539221347e+00 -4.3600446549948648e+00
      1.8723620603273965e+00 6.0357319594051306e+00
      -7.2693672665921949e-01 -5.5583438632000837e+00
      -1.4938447581287377e+00 -2.0482595768991620e+00
      -3.0860374882213968e+00 -4.4902141630358114e+00
      -1.0794593798006074e+00 4.6250324853433700e+00
      3.6006262717366537e+00 -1.3242104818242886e+00
      -2.1992267096918003e+00 2.3622300048441280e+00
      1.9411053708763943e+00 2.6867545296186219e+00
      7.2918008483809960e-01 5.0945998169976692e-01
      3.7128275543319296e+00 -4.0163836765583544e-01
      -2.9346886535899910e+00 4.7578435165906185e-01
      4.3717227426648035e+00 1.8157962526637543e+00
      -1.6246495910922178e+00 -2.8766109570730986e-01
      8.2452001074783099e-01 1.8014574399637377e+00
      -2.0825189440711305e+00 2.5150354723141439e+00
      4.0721459951052008e+00 -1.5787381210187070e+00
      -3.1963245629492234e+00 4.4831126372619196e-01
      1.3959675605394224e+00 4.9394154366609113e+00
      -3.2609948382279295e+00 -1.5539904081694471e+00
      -7.8716179804565858e+00 2.0630797904117566e+00
      -1.0265089135943111e+00 2.9453341463282614e+00
      5.2275350062467663e+00 -8.2866747891041275e+00
      3.4537642932599368e+00 4.0278022506539018e-01
      -5.8225229663627855e+00 -3.6768185740352033e+00
      -3.5679382024042159e+00 -3.3855926483458441e+00
      6.0851350694639290e+00 1.7138899296838644e-01
      4.8681515204076167e+00 3.8494057694622885e+00
      -2.5330626991960625e-01 -7.3745484233280645e-01
      1.5039471537427878e+00 -4.2002822478622024e+00
      1.7223304919081353e-01 1.4356462025973780e+00
      2.4955614660276066e+00 -6.2636494623376562e+00
      4.2798571232689735e+00 5.1630732440261951e-01
      -4.0107095298041817e-01 5.2793678287106527e+00
      4.7029315156425255e+00 -1.1728962190537366e-02
      1.3388927851574501e+00 -7.6622390082422287e-01
      1.5055402482198488e-01 5.7322041499819738e+00
      5.1060047201883085e+00 -2.3348507928216291e+00
      -7.7302460110617288e-01 8.6605389690114876e-01
      1.2834842136295614e+00 3.5605662109099417e-01
      -2.9443326572851363e+00 -8.3450290561565965e-01
      -3.1724874081746921e+00 -8.6583747363112558e+00
      1.2759698224700082e+00 7.7515581574260861e-01
      -1.8267677554125752e+00 2.9021456584383043e+00
      3.0039552494105131e+00 2.6236113507109109e+00
      -6.2220524475859040e+00 5.8617182361780502e+00
      -6.0938178852390914e+00 -2.4988572664742188e+00
      3.6412434518054746e+00 7.0085918786905466e-01
      1.0244433814195055e+00 -8.0971025321968215e-01
      -6.5571137545221270e-01 -9.2766481906542109e-01
      4.7807115365509328e-01 1.4182885976445374e+00
      2.0562244120178619e+00 -7.3003263640050320e-01
      -8.7783284323487845e+00 -1.8060178039432999e+00
      -3.8859555248796272e-02 2.2842673489944243e+00
      1.4555864833920842e+00 -4.2188799838048237e+00
      4.5168282976759775e+00 -4.7104025856133136e+00
      -1.7162991425131724e+00 5.0458656881606769e+00
      2.0125580391199542e+00 -1.3201077289423895e+00
      -1.7880347725186025e+00 -4.4019581632514839e+00
      1.5924336358940128e+00 -6.0619655360946566e-02
      6.9481740171380257e-01 -3.1187432564796795e+00
      -4.0449634169944781e+00 -7.8765312281207347e+00
      1.2648322155052074e+00 4.6126993905507465e+00
      -6.2196973909470605e+00 3.1751435436887099e+00
      2.5344453731604735e+00 1.5581633007621392e+00
      1.0799231836979273e+00 4.5401169901395306e+00
      -3.7109721987518705e+00 -4.5650347697599036e+00
      -4.6442052522016688e+00 -7.7632367172443102e+00
      -1.2629741138374209e+00 1.7185034567754438e+00
      1.5712090882614052e-01 1.2148681507724006e+00
      -2.0258088196469046e+00 1.4548592625269374e+00
      4.0652771606010045e-02 1.0403152671075269e+00
      5.3431614270101180e-01 2.1633527431850630e-01
      -2.9813260645578579e+00 -6.2122950172976026e-02
      -7.0752265332395514e-01 8.7187277030187338e-01
      4.1408094252570082e+00 6.6968729930629289e-01
      -2.9300368919415627e+00 2.4255606783455760e-01
      4.6668879214176622e+00 -5.7048288407453296e-01
      -2.9148514365210207e+00 -3.0825865734537139e+00
      -6.2709631614710148e-01 -2.4419949041178191e+00
      2.0490364636624911e+00 -2.5955001073422319e+00
      7.2518811061504718e-01 1.5603056088872751e+00
      1.2541211596914378e-01 -2.0757309495355702e+00
      -1.4053111861333560e+00 -6.2290659055346547e+00
      1.8396306497204145e+00 2.2618436266547839e+00
      -6.4368920262884544e+00 1.0158591572340416e+00
      -1.1284150000021451e+00 1.4709308201018816e+00
      -2.4753896580452905e+00 -1.3979494456612664e+00
      -1.5901935629024286e+00 -2.9954580665842995e-01
      1.9162594405172260e+00 -3.3661351617293098e+00
      9.4618664247343354e-01 1.4788080935765056e+00
      -3.3639187957246168e+00 1.6634893136360955e+00
      -2.1988141722083226e-01 -4.6769193864068086e+00
      -3.6068987763874785e+00 -2.1424428729126004e+00
      8.0411153501030996e-01 4.9615060826304767e+00
      -2.5364948270833705e+00 -3.0736009962992652e+00
      -3.6107863321590585e+00 -4.3057764859626557e-01
      4.2104819727640326e+00 -2.5940384900259374e+00
      -3.9326638068948681e+00 8.7949850645797034e-01
      3.1220358601505747e+00 -5.3493116269344956e-02
      2.9455857606099158e+00 2.1050822320633373e+00
      8.9863036284514219e-01 5.2438710165982565e+00
      1.5786957752629813e+00 -3.6701113427641054e+00
      -1.2804299648469701e+00 -7.7631427635003352e+00
      -1.0446815925505805e-01 4.1201046257115298e-01
      -4.0188558502495404e+00 8.5919683364041788e+00
      8.7519117675389968e-01 1.1472429270741387e+00
      1.0400410136280720e+00 6.4790177864976173e-01
      3.7550465436168601e+00 -4.8049055316009986e-01
      6.6716753522274352e+00 -7.9160463584658851e+00
      -2.1908053989846391e-01 3.7250664952236954e+00
      -2.4948713711235500e+00 -1.6394898555537919e-02
      -2.5878951395824896e+00 -1.0474770160377753e+00
      -8.2383837583551376e+00 -3.6744532048611420e+00
      -3.8188742966776695e-01 -3.4601970316414756e+00
      5.3690523401086967e+00 -1.0392078114024541e+01
      1.9862942267226604e+00 -4.4030504875304830e+00
      1.7185858010111929e-01 -8.7617503152953677e+00
      -3.1453250091455769e+00 -5.3487927958600601e+00
      1.2965067260283751e+00 3.2520984851016993e-01
      -5.9869297327297755e+00 6.0487551938570150e-01
      3.3698698525239928e-01 -3.2476803254826869e+00
      -1.2546726263886703e+00 4.2106966459353856e-01
      -1.7598906311645888e+00 1.9985321352911538e+00
      -3.1016115350082335e-01 1.7336965375971400e+00
      4.6880029940926233e+00 8.4460748337137903e-01
      4.9948873470486213e+00 -1.8921796157207227e+00
      4.8967505500966695e+00 9.3838101939511642e-01
      3.6446768835126639e+00 -3.5903213610246745e+00
      -2.1832977444948143e+00 -2.1809480318474148e+00
      1.1389064115616534e+00 3.6889627187993552e+00
      -5.2251978165111579e-01 -3.2519254731820029e+00
      1.7804089342319762e+00 1.4543704246081934e+00
      -6.3505448252826657e-01 -4.7617580349388977e-01
      -1.4931220960075706e+00 -8.2738614654981575e+00
      1.1748608972113468e+01 -2.1064218468091696e+00
      2.3239573294433069e+00 -4.8775305707345389e+00
      -1.1478480143454535e+00 -1.7091277402260560e-01
      -3.3640426236000415e-01 -5.4510690799842791e+00
      3.0348796965082587e+00 -7.2106343439909093e-01
      -4.5236708807230741e+00 2.7978294093449065e+00
      2.6015562751997630e+00 -8.5405711892153899e+00
      -5.0022474567365425e+00 3.3971216207881234e+00
      -1.6261360838444636e+00 8.1956748079564488e+00
      2.3126724238886198e+00 9.4780181377473105e-01
      2.9355009885224264e+00 -2.7781674136578687e+00
      7.1504546192214491e+00 -8.9962025855592084e-02
      -8.2491580736459136e-01 4.7529293032746507e+00
      -1.0730358665392699e+00 -1.8933514768716682e+00
      2.0055132565650697e+00 2.7812888288141373e+00
      8.4063118319817087e-01 -1.4868638472308529e+00
      -3.6011674582432607e-01 3.0432000845956146e+00
      -7.3774169643978438e-01 -1.5526180922815460e+00
      1.5105771021519974e+00 7.6921871338149972e-01
      -3.6520458500274620e+00 -1.1501586050677337e+00
      7.4969926984326181e+00 1.5839380170548911e+00
      -9.0424733314114503e-01 3.8021826003134918e-01
      -2.2775314957474269e+00 8.2215903784511535e-01
      -3.5714012435738858e+00 -4.6770739892858550e+00
      -2.9596018739977588e+00 3.5973436975009668e-02
      2.9856227018432291e+00 6.1696586413197507e-01
      -1.4425643640625003e+00 -4.8927095065209318e+00
      1.8120371900582890e+00 -2.1492127174044855e+00
      -1.1345622479602169e+00 1.3231846342561890e+00
      -1.4178228471471284e+00 1.4843421833013535e+00
      2.1954282526431523e+00 -1.1709500315957584e+00
      -1.7882815132382990e+00 3.1084253359142844e+00
      6.3016231689697531e+00 2.2785578250633653e+00
      -4.9815443584817087e+00 3.9592804877097367e+00
      -1.9968323415800933e+00 -1.5187490792282976e+00
      1.3603671797324060e+00 -2.1645396734084694e+00
      -3.6208704125861373e+00 6.2653314930417026e-01
      -3.4733103715378744e+00 2.0711705612292093e+00
      1.2088205234301332e+00 -3.8800302353199112e+00
      -4.1500707596425446e-01 -1.1778328931563504e+00
      1.5100583870183821e+00 -6.6337525244614692e-01
      3.6675985556688060e+00 4.2434601474796463e-01
      1.6302756567120713e+00 -3.0911666609495364e-01
      3.6793735794283147e+00 1.4132300388936279e+00
      -4.8744681581430811e+00 1.7061324975113874e+00
      -6.5746315558506152e-01 -1.0216785549971601e+00
      -1.9481800373515141e+00 1.7668215267629899e+00
      -7.9872054455151587e-01 -1.6911944218754398e+00
      -6.2168357075101999e-01 -1.2791929696691115e-01
      -2.5713019011784923e+00 -1.4612707630077000e+00
      -6.1217344998776180e-01 -1.8660089092018322e+00
      1.7689912734845430e+00 -4.5540066861796618e+00
      6.2224730141774902e+00 -6.2502779491099447e-01
      -2.4939057817375527e+00 8.5171572316746025e-01
      -4.7283873947470596e+00 -1.2048249665965369e+00
      -9.2838525274068351e-01 -1.8601287660238297e+00
      6.6065081937536740e-02 -7.9930363191787701e-01
      2.1078404170111749e+00 4.2029377015946823e+00
      3.7655633469826819e+00 -2.9605578389842293e+00
      -6.6883318035882333e-01 -1.2908542130321619e+00
      5.9933320926363329e+00 -3.3454163649868955e+00
      5.2793589070485512e+00 5.2683258877900156e+00
      -6.7276286135524321e+00 -2.7573011493742161e+00
      2.6399561747302238e+00 1.1790359988444914e+00
      2.2386670613170745e+00 -1.3916774019447620e+00
      1.5613387790856121e+00 3.7848476144874832e+00
      4.3961628146437887e-01 -2.8007324901560318e+00
      1.0926201353456728e+00 4.5522425243137549e-01
      -7.8319645327829895e-02 3.2559338672030842e+00
      -2.0041815021775458e+00 8.9504359743454087e-01
      3.0536112552770533e+00 -2.2810389867070566e+00
      1.1771140433651630e+00 1.0902508059230793e+00
      4.0541692533718576e-01 -3.6254630348186483e-02
      -2.0820877843531189e+00 -2.6456972626970807e+00
      -4.2936364000566583e+00 1.6226203215623831e+00
      -9.0658302482363262e-01 -1.4338103481238389e+00
      4.2217535254448197e+00 4.6376057336487229e+00
      3.7768239944611435e+00 1.0589787379756022e+00
      1.6991715662373101e+00 -1.1598404764977686e+00
      2.2601105775255723e+00 1.7012646141112453e+00
      -4.2709662846764562e+00 7.6428387156347277e-01
      3.3338203715226413e+00 3.6093750550838153e+00
      4.9536718755378031e+00 -4.6361074875616213e+00
      4.3933247546582099e-01 -7.1686327313286380e-01
      -1.7422648537432932e+00 2.2337601295012877e+00
      -6.9044670066659619e-01 -2.3532141677788356e+00
      -6.5850477313212319e-01 2.2135655407968859e+00
      -1.3378398663327400e+00 5.5527148053365778e+00
      -1.6366633547987455e+00 -3.1777145942178651e+00
      1.1837932685362751e+00 -1.1680356203601141e+00
      7.1996913915048610e+00 4.1977271216204803e-01
      -2.5095196604421614e-02 1.0602548562542127e+00
      6.2705569213695824e+00 -4.2496464934912179e+00
      -3.1017589887307051e+00 2.0724515424044681e+00
      -4.0003370961634959e+00 5.6074014571426813e+00
      -2.4665211935458400e+00 -2.7399094633457257e+00
      3.5882502015275737e+00 1.2652167419505516e-02
      -1.8337854525338239e-02 -6.8356140985285592e+00
      1.3570758441832915e+00 -4.7353509095106627e-01
      1.9379351183656095e+00 5.2139703846092065e+00
      -2.8262523126296668e+00 6.9142114951780920e-01
      2.5631372775471357e+00 2.1563464758686157e+00
      1.5466886638900792e+00 4.4989985187340347e+00
      4.2973192641132663e+00 -7.8582685308690792e-01
      -2.0223649347318116e+00 4.0165592746937211e+00
      1.2877383203230272e+01 2.5022475003489837e+00
      4.1119696529820204e-01 4.4121543295426289e+00
      -1.6808687296829938e+00 -3.1431719008972092e-01
      -5.4023825588397989e-01 -7.6209279305656485e+00
      1.2755569295464295e+00 -1.6713637494006905e+00
      1.0388433877520487e+00 -1.3954673808962834e-01
      1.5957279382464931e+00 -4.2309042447669158e+00
      -5.5843565819613472e-01 8.4208248118884277e-01
      -1.3363620860440750e-01 3.5401092594567514e+00
      4.2272499910965244e+00 3.5215457028687149e+00
      -4.0881699667483744e+00 -2.7006528824081777e-01
      5.3767776751532281e+00 -1.8812376118635314e+00
      -3.4173691018411416e+00 -4.2597967524602067e+00
      1.1197338504018313e+00 1.7586028844152793e-01
      2.1159995695457403e+00 5.7556407266544629e-01
      -3.8710941918049278e+00 4.8981894009240134e+00
      1.8163773379173802e+00 2.9458391604153134e+00
      -9.3432516535082506e+00 6.1837822384809416e+00
      2.7362463689980170e+00 -1.0366039728030938e+00
      -3.3308994317841365e+00 1.5113797332867522e+00
      8.0051853456857742e+00 6.3007306896499218e+00
      1.9282475119637823e+00 8.0506854685720715e+00
      9.8155348494457495e-01 2.1702653169097923e+00
      6.4527476682903773e+00 -6.4093582392594408e+00
      -3.3299346139832662e+00 -3.2810555761037002e-02
      5.2299003052808635e-01 -5.9473633097703820e+00
      2.9289749083140961e+00 5.1982924132305031e-01
      -6.4361261517027870e+00 2.9859169857225609e+00
      -2.1050960976578106e-01 1.4798476384274326e+00
      -1.9131991567531634e+00 -2.9429319276585435e+00
      -1.1257099793847818e+00 -2.0808102006248421e+00
      -2.8006148603848278e+00 6.7626701629221198e-01
      -4.0424705471764080e+00 -1.8630378842290845e+00
      2.4334641151670291e+00 -3.3653033097687646e-01
      1.2208300252595758e+00 -2.7577448801869906e+00
      -4.8275637380507375e+00 4.5622175444520305e+00
      -2.6950849523966314e+00 -2.2233289129298424e+00
      -4.2184950775231806e+00 -9.9828597360575511e-01
      1.4216628032885272e+00 2.7533421323442053e+00
      -1.3526081027941568e+00 -1.2813200043662050e+00
      -3.2044137089865643e+00 6.0726928790206998e+00
      4.3835737134484569e+00 1.9545532567018467e+00
      -1.2527090868829721e-01 3.1989686379862694e+00
      -1.2680451699219528e+00 -1.9703400833941003e+00
      -1.6179140842737960e+00 -1.7630481171936092e+00
      1.7293648718272387e+00 -2.9285293366310450e+00
      -1.0097282197891737e+00 6.8919054001478741e-02
      3.1209090768439429e+00 1.9062007069363147e+00
      1.0994839323546073e+00 -4.6350521399352216e+00
      -4.0325509182806396e+00 -1.6637161474753299e+00
      -2.3078434945936612e+00 5.0817448841030885e-02
      1.2789322285183857e+00 7.4856626073637267e-01
      7.2289731222119818e-02 4.1532713452564627e+00
      -5.7823557091970299e+00 -3.8842088521396145e+00
      1.7639205923473908e+00 1.0226279687503714e+00
      -1.1966680669786903e+01 5.3850238919667461e+00
      -3.4625238042639492e+00 -3.4992100423834906e+00
      -6.3561015405693713e+00 -3.9673343255131849e-01
      -3.4727693951755381e+00 -1.7541936693370623e+00
      -2.0067146343862987e+00 1.6253682066824131e+00
      2.2035477602163209e+00 5.7302148913948532e+00
      -1.3447000507326343e+00 8.7627228564516173e+00
      1.1453413106968924e+00 6.8933851000957054e+00
      -6.5922518440124751e+00 1.3775974062372227e+00
      -2.9035331844855703e+00 1.4963952523566654e-01
      1.6225967330347397e+00 2.2726924219441799e-01
      -3.6430387018877926e+00 1.9316567445842776e+00
      -3.6153749134252622e+00 -7.5589773025283724e-01
      -6.5416838542232378e+00 -4.6432427108349152e+00
      -9.1843492894300915e+00 2.5073141843650499e+00
      5.4589936508302355e+00 2.0294365696613803e+00
      -4.4447799283768047e-01 -3.2587467274567601e+00
      5.5152329344444775e+00 4.5962037103566855e+00
      -2.8255000808810591e+00 1.2716632825521546e+00
      -3.6055569506793987e+00 6.3564634950813392e-01
      -1.5627342809851239e+01 1.0878353199458561e+00
      -3.2915188014574839e+00 -5.2179464679686101e+00
      8.6752567572240373e+00 -1.6830283714568635e+00
      1.8160895327522451e+00 8.6757616011716472e+00
      8.5174837257618172e+00 3.3755875685949817e+00
      -4.4258383886012048e-01 -6.2070498229277904e+00
      4.6635034739116561e+00 4.4334016305035897e+00
      1.2720557020965624e+00 -3.0430385464238818e+00
      -1.3107880621418651e+00 -5.3096240242985253e+00
      2.3493464542228510e+00 1.1312203141762018e+00
      -5.4062357916685577e-01 4.5457349546652166e+00
      -3.1614143638065362e+00 9.8788728929454050e-01
      -1.8147050557720821e+00 -8.6671020171686886e-01
      -5.6218486994973704e-01 -4.5564393380821144e+00
      -5.4382808147004749e+00 -9.8035404739026522e-01
      4.0980986581577987e+00 1.0245765767919555e+00
      5.4230231363997099e+00 -9.3225714070280219e-01
      1.7303872296284217e+00 2.6045009324719262e+00
      -2.5487372476190777e+00 9.4579299773340764e-01
      1.7212381892867414e+00 2.2388976818732954e-02
      -4.1871095417124380e+00 1.0838655410054516e+00
      -1.2648715567108428e+00 -6.5117899584590555e+00
      4.6550512212015400e+00 1.5572729789486341e+00
      3.8072402793188029e+00 7.9509277675877010e+00
      9.3730937836181871e-01 9.1677051861299441e-01
      1.5511951036759393e+00 -6.2637416340520282e+00
      4.5894335996772080e+00 1.1235762515909733e+00
      -3.2253468330497768e+00 -5.6559973427357822e-02
      -1.3240218342533843e+00 -9.2584561268759902e-01
      2.5173470504900650e+00 -4.0856545504362671e-02
      6.3128742036300958e+00 3.3387731555241804e+00
      -5.3639841639941146e+00 3.2415724129974655e-01
      3.4072661435656930e+00 -2.9287078288472337e+00
      -7.0059404131921921e-01 -3.6945980649513981e+00
      -2.8526842069152738e+00 7.0347376227228384e+00
      2.5965077618098908e-01 -1.5259805261755968e+00
      5.5150207451365549e+00 -1.3830543826700004e+00
      -1.1226510369928309e+00 6.8127050849833785e-03
      1.2190998084398974e+00 -8.7482964965891097e-01
      -1.6744093166966725e+00 2.0532019497580528e-01
      3.2474721013240555e+00 5.1601859054514354e-01
      -5.3137975997923457e+00 -5.4133739336792077e+00
      -3.0378605220750501e+00 5.4421090708620232e+00
      -1.5813930387623412e+00 -4.5472454425108841e+00
      -5.8144168113209265e+00 1.0696717000653109e+00
      2.4416329677342588e+00 1.8983076509385022e+00
      6.8317965549666027e-01 -2.1399216069956339e+00
      3.4501334625191853e+00 1.3181506964202339e+00
      -3.7209968669595619e+00 5.7679899371650887e+00
      -2.6411517879964106e+00 -2.5279404558146790e+00
      1.9446897000486405e+00 8.4075795904636230e-01
      -5.4186116273477480e-01 -7.0812010723133201e-01
      -3.2315702510543537e-01 1.6845009282012766e+00
      1.2044003658489264e+00 -3.2278276529830913e-01
      -4.8241479102307983e+00 2.6358455210897476e+00
      -1.3009261373062206e+00 -9.3960712416403258e-01
      -1.9610659642587664e+00 1.2970849703109091e+00
      1.9614947762084169e+00 9.6390340155422543e+00
      8.9878826678187385e-01 2.0707769413822560e-01
      1.4552091472690185e+00 2.9708782540384820e-01
      1.5227190741889740e+00 -2.2952314527206514e+00
      2.4409669406819798e+00 -2.4369407197909294e+00
      2.4482177167796575e+00 -4.7845544910231813e-01
      -2.1447615418612559e-01 3.5268771071778722e+00
      2.4436514675265730e+00 1.2111363114336991e-01
      3.7543126084576222e+00 -1.6476234000166026e+00
      -2.3088094801312303e-01 2.0026971481401037e+00
      3.3627029528498600e+00 -3.7592256059333540e+00
      -8.2109163913292127e-01 -3.7878150517711574e-02
      1.2431786907387334e+00 1.4031376900873853e+00
      -3.5047850556337828e-01 1.3693420168527228e+00
      -2.4831310945439951e+00 1.2911477514115266e+00
      -4.1522607423415971e+00 -1.6043784323599550e+00
      -1.8131975806640044e+00 -4.0776905783924922e-01
      1.1962345363975513e+00 9.5315209927863229e-02
      -6.3753455725596293e+00 1.0947397142461111e+00
      3.2224383313950589e+00 -7.1395209568264284e-01
      1.3012341422869960e-02 6.7971001097781585e+00
      -6.1694225621589960e-01 3.6489862866711400e+00
      -3.3690511019174701e-01 1.4190393454044854e+00
      4.2207467023593397e+00 -5.2888385068812338e-01
      1.6644130823024477e+00 3.6451328130867355e+00
      1.6129449397530429e+00 -6.4220694340817079e+00
      2.8902731145486880e+00 -1.6185462918247091e+00
      1.0939864740802197e-01 7.0726528936098665e-01
      3.7732098789118123e+00 -5.7668406661545712e-02
      2.4178948338150308e+00 -6.9716611803509010e-01
      3.4194115900611828e+00 -2.6450759474016330e+00
      -1.6602747701333596e+00 1.6572293455710430e+00
      5.8022776944721632e-01 2.4681100019638658e+00
      -3.4822329413932579e-01 -4.3090181013245319e+00
      -5.0177823263499732e+00 2.1317665985267977e+00
      -9.1940956076753153e+00 -1.7059862849614140e+00
      -1.1025767905108741e+00 -1.7166902576566427e+00
      -6.2984863738543284e-01 8.0861670775033421e-04
      1.3093542362831942e-01 -1.0055467574576349e+00
      4.3579077940878336e-01 1.0786978626707857e+00
      1.0803744188501467e+00 5.3390065247926053e+00
      6.1734614572345228e+00 1.9353794765402332e-02
      3.2027752475702836e-01 -5.1765570184507903e-01
      1.1623515140872887e+00 9.8037471796863984e-01
      8.2493125889798735e-01 1.0362519958486092e+00
      1.1339250935376670e+00 -3.1277521262517207e+00
      1.3119953083021569e+00 2.2345695881406735e+00
      -2.8864951858306980e+00 2.6182676438320849e+00
      -1.8238895378199789e+00 -5.5304120684749647e-01
      2.3830201488603091e+00 -2.7315578398457943e+00
      1.3869411553160547e+00 -1.5201133113559273e+00
      2.1461133939005697e+00 4.7000650778960340e+00
      3.2788534111315810e+00 2.0316002720430246e+00
      2.1680632088449960e+00 -3.7629868600114236e+00
      -2.3079301932174916e+00 2.6702824912086207e+00
      -1.2330624293291198e+01 -2.5740926509656754e+00
      -1.7091950364848505e+00 1.2438823608826000e+00
      3.3514289887356723e+00 -2.9158365674753717e+00
      4.1022435884140024e-01 9.2431069185663439e-01
      -2.7848322284510170e+00 1.5436339423053520e+00
      3.4262015287360867e+00 3.6556817717404502e+00
      2.8014820314758273e+00 1.9548185626845496e+00
      -1.2060628790663769e-01 4.8041052627605640e-01
      -9.2409191236986465e-01 2.7866939557115022e-01
      2.1592614914300881e+00 -3.5561067116700680e+00
      3.0931456015135130e+00 -3.4037786547116986e+00
      4.0551572465518870e-01 -5.5464887516864780e-01
      -4.9278276557083851e+00 1.8655406788066853e-01
      -1.8706276143601013e+00 -3.3073697813067708e+00
      -1.2926167766891685e+00 9.0194078838823821e-01
      7.1518506105074120e-01 2.8442995940948772e+00
      3.9658990602597886e+00 3.8587040511663007e-01
      6.5075559611034288e+00 4.1030874440436449e+00
      -2.2986571692543882e+00 -7.8479037637997582e+00
      3.2227855574274487e+00 -2.2889075829835218e-01
      -4.1948892425639084e+00 -2.5063045578593304e+00
      1.0934322059268358e+00 -1.5855641694567955e+00
      1.8475393094707726e+00 8.1857544255807380e-01
      3.1082062738898322e+00 2.3856415977774432e+00
      -2.0261908891745173e+00 4.4902891152258491e+00
      -1.8604734005901522e+00 3.7288337762576376e+00
      4.0826889059714344e-01 4.3268811690555314e-01
      -2.6138843925059603e+00 2.1706991789113559e+00
      7.1148304957245543e+00 9.4424838763979102e-01
      -3.4929471194371753e-01 -1.2518546073923758e+00
      -4.6261611033224748e+00 -7.8469162445028342e+00
      -2.3477261579306457e+00 2.7843503232752997e+00
      -4.0029363316915250e+00 1.4408997694808308e+00
      -1.4571529791152353e+00 -5.9375327634907968e+00
      -1.3321033338582338e+00 -2.8245957736637584e+00
      1.4633411284776956e+00 9.4461769568247855e-01
      -4.0804095864941081e-01 6.2974699055120560e+00
      1.8746386280788605e+00 3.8124241067896003e+00
      -2.0303375038401925e+00 1.5678634972306821e-01
      -5.1739934373450103e-01 -4.9168356633686633e-01
      2.6403772272072623e+00 3.9705741072705858e-01
      7.9467180611336241e-01 1.2965857944745121e+00
      5.3858243026164032e-01 9.1135401828344609e-01
      -6.3762886839890429e+00 9.7378329276858910e-01
      -3.0226676126010332e+00 -4.9946660648926011e+00
      1.7582926363922988e+00 -3.7869418779406825e+00
      -4.3566256468518709e+00 4.0298823993597193e+00
      -5.7039906616608329e+00 -1.1270588061105327e+00
      -2.7534199133509136e+00 -3.9875354832433679e-01
      3.3570020825637803e+00 2.3360631117884455e-02
      6.2181640759323265e-01 -4.2174665408760015e-01
      2.6117049871567124e+00 -7.5597106806146674e-01
      4.8685885463274570e-01 -4.0472655133254509e+00
      -5.5750574473288266e+00 -2.1586328666598065e+00
      -1.1414753868800167e+00 1.9652827119934664e+00
      -3.3680211932533868e+00 5.6876541256707034e+00
      -6.4717118184083002e+00 5.9817364864358180e-01
      3.0787253000521020e-01 6.0653811960223045e+00
      7.8637954906308263e+00 2.2861297615726741e+00
      -4.0714063615413865e-01 -4.2894644271667115e+00
      3.0287761616163555e+00 -1.6266408400892016e+00
      -2.4168896119389003e+00 2.0140712108156933e+00
      -5.2926516619606403e+00 1.5335350084459938e+00
      2.9573197636383406e+00 7.0161019780850111e+00
      -3.3693882821801752e-01 -5.0264610045238562e+00
      5.1827360846453452e+00 8.2472378603705234e+00
      -2.3275042531332546e+00 6.5721292300379408e-01
      -3.3254152616804999e+00 -5.5985439977932028e-01
      5.8445520562154547e+00 -2.3252340305506233e-01
      7.9479119107723672e-01 1.0908019807070879e+00
      3.4008318620406874e+00 -6.9176794363163960e+00
      -1.2430642712341240e+00 1.5757454169416421e+00
      3.9787664749665432e+00 -2.0703308898463915e+00
      4.9714151504950177e+00 -4.3260207791125742e+00
      -1.5716055517112781e+00 -6.2656439680311014e+00
      -1.9331222914628654e+00 2.3350353639325830e-01
      -4.1196992293057191e+00 4.6380724687826369e+00
      -1.4566917175824082e-01 1.9649767679227184e+00
      2.8740238073902264e+00 4.4613279172336648e+00
      -5.3586968410975162e+00 1.4418684265076385e+00
      2.2868832169439108e+00 -7.3658179786101063e-02
      -3.8136681792831304e+00 4.1096819200318944e+00
      1.5085902982052111e+00 -5.6104025584567303e+00
      1.6674888848212159e+00 -5.0114273572858403e+00
      -4.2758423996679440e+00 1.9506382639923057e+00
      3.3343255856839331e+00 -1.1509236860712715e+00
      -3.2455608712850903e-01 1.4043865338958190e+00
      1.0969350875122270e+00 6.4367689139046647e-01
      5.2320931684352567e+00 2.2603942240365127e+00
      3.3518582238217807e+00 -3.3146385779291410e+00
      2.2027301111574102e-01 4.5610759590745458e+00
      -5.3476322029804271e+00 9.6323771222790255e-01
      4.6097538518195966e+00 2.5948657104036101e+00
      -8.0132565124236677e-01 -8.4332532986763209e-01
      -4.7425335861033995e+00 7.8958469815035430e+00
      -5.9723978057783524e+00 -6.7340199545914414e-01
      -3.5535825885974166e+00 -3.5171592241021749e-01
      1.4681341817643081e+00 -2.6510207180756962e+00
      -2.6805917494622191e+00 6.0440174121587633e+00
      -2.6284200540443332e+00 -2.2320645445387557e+00
      5.3531740078566044e+00 2.3527881814393541e+00
      -7.4797179121546709e-01 4.9300446191402285e+00
      3.2704334439153926e+00 2.0657816975032737e+00
      6.3709554138728004e+00 -1.9654695082283207e+00
      1.5241649455860888e+00 -4.4239528509142279e+00
      -5.9214539300657554e-01 4.4540029021303278e+00
      1.9491068330283159e+00 -1.7659224146217305e+00
      2.1383381279483138e+00 2.2688127182433204e+00
      -2.1469673681803823e+00 -1.2781830057043850e+00
      3.5331676274112833e-01 -3.2569095739161615e+00
      -4.0688336264824159e+00 1.2238924382046943e+00
      -3.0501259316712579e+00 3.1458431159266307e+00
      2.1143239687670641e+00 3.3272282821119963e+00
      -5.1887408559037902e-02 -1.9119208596572688e+00
      2.3019973927914767e+00 -3.3616580259318694e+00
      -2.5234940890591107e+00 2.9766789574877786e+00
      -2.1127949839720508e-01 1.3013641222783290e+00
      2.2698187245379278e+00 1.9230281610312088e+00
      5.4985741364040508e-01 -1.1824224706145410e+00
      -4.2989262581813010e+00 -7.0842356959167896e-01
      6.3351454225685655e-01 -3.1620282603529842e-01
      7.4336875618580933e-01 1.8278221149170117e+00
      -1.9373132343351046e-01 1.3933455337018685e-01
      -4.0830124738749660e+00 -2.2035766836598909e+00
      4.3011576388923132e+00 -2.3214237810413190e+00
      9.6067413215846353e-01 -6.7032964087461144e-01
      3.5849285385552504e-01 1.7633737763358293e-01
      -1.1147507711916269e+00 -5.4292800978224187e-01
      -6.1332921036493238e-02 2.4696708549156265e+00
      2.2116801739355155e-01 -1.3089858651976061e+00
      -1.2766607460997621e+00 -1.7234148788712091e+00
      -9.4537741035713063e-01 1.8676527653154770e-01
      -4.8380599380789393e+00 4.2184915108046859e+00
      1.6966207751515985e+00 1.7184182653587263e+00
      -4.1464395030281448e-01 -3.6288622567080728e+00
      -6.3539977319629255e+00 -2.1224878443902555e+00
      4.8713834870101513e-01 -1.3986485399376063e+00
      4.6292885771813119e-01 6.9512279916795077e+00
      9.8952082342827874e-01 5.9899366415512070e+00
      -2.7730834723471531e+00 -1.8637469953525818e+00
      3.6944799867993168e+00 -3.2167806533708621e-01
      2.3633353687009144e+00 4.2911780507182034e+00
      4.8032632154432164e+00 8.4685660877564910e+00
      2.1262744166930343e+00 -2.1729906976503242e+00
      2.5322163374056270e+00 -1.9258740579762010e+00
      -2.3704920888981724e+00 -4.8955430052723264e-01
      -1.9324558640777714e+00 1.1348543585500110e+00
      -3.5732651374139079e+00 1.9211051262842940e-01
      1.4720647174882120e-01 7.1161520125399624e-05
      8.9338078429391843e-01 2.6702562728959917e-01
      5.8867229630743934e-01 1.1252148718611905e+00
      1.9244846356910936e+00 -4.8256144050907412e+00
      -1.8648064306067258e+00 2.8396318379992613e-01
      -3.0147975095404460e+00 -5.5489333114622550e+00
      7.7940226399897200e-02 -4.1518381873341204e+00
      -2.5904064106120419e+00 -3.1030537225966728e+00
      3.6516367226960993e+00 -1.0497374085666755e+00
      -1.4479934886463375e+00 -1.4484847807061796e+00
      -1.0017696285712465e+00 1.6273092228137789e+00
      -7.9435926532534240e-01 1.7949128551943974e+00
      2.5129406018402229e+00 -2.3476334491704436e+00
      2.0353530019727533e+00 2.0851909078330211e-01
      5.4297391589410067e+00 4.9743620191375015e+00
      2.6216038010981180e-01 -2.0427693639631501e+00
      2.8054281308614679e+00 -6.4851112059024441e-01
      -2.2014527693081045e+00 -3.6601103853344550e+00
      4.5126463086274882e+00 -1.7718916344937935e-01
      2.9280350575229477e+00 -1.3534894895040401e+00
      -2.0150520973775682e-01 -3.6869847540573913e-01
      2.5265143462631596e+00 -2.6884306480141924e+00
      -2.4045247942285064e+00 -1.6587770452272037e+00
      -4.1829064663863358e-01 -1.6100232538184120e-01
      8.6164731395089136e-02 -7.5632510880080561e-01
      1.2796430532114784e+00 3.4729564431116033e+00
      -2.0829122078673241e+00 3.1031763994688619e+00
      -1.1462852562680967e+00 -2.8685927362226216e+00
      -2.0286782172875153e+00 -3.7434937571227167e-01
      -3.3874440158568837e+00 -2.5026474509885372e+00
      -5.4836416812832756e-01 -4.0678024226502298e+00
      9.1323267273280584e-01 -1.6432031359149750e+00
      -3.6427996202152957e-01 -4.3180152226043020e+00
      -2.7843496508322846e-01 2.4438819270254419e+00
      -1.7190165600983285e+00 2.0031962564018673e+00
      -1.6153767085663402e+00 -1.1480965757078994e+00
      1.1363518315211150e+00 1.3601832954579243e-01
      -6.4335285470442161e+00 -4.2373207759083709e+00
      -2.0558103869863684e+00 -6.8796714036040507e-01
      2.1247533813695658e+00 -5.4034873883203431e+00
      -2.2547114485957227e+00 -7.4329821263129432e+00
      -1.5009023234906660e+00 1.4358933975027638e-02
      -3.2179657146273306e+00 -1.3875207638539335e+00
      -1.9235997286511248e+00 2.4829166705588528e+00
      -3.8583717348195603e+00 -2.5498336975883484e+00
      -4.1752714314584177e-01 4.7308460332484676e+00
      1.9390134027837531e+00 -5.1048145695200038e+00
      -5.5438290298309800e-01 -5.2000737418827037e-01
      -5.4951273443949511e-01 1.1910116245162552e+00
      2.6181717843044788e-01 -5.7447959308757888e+00
      -1.4778277277263012e+00 -4.2729095831622749e-01
      4.4621141570372407e+00 -2.6138449344581782e+00
      3.8525331936327212e-01 2.3742151133217622e+00
      3.1792578932700759e+00 3.5909865955431464e+00
      -6.9910690320372000e+00 1.1691988092445471e+00
      -6.0315127676045401e+00 -1.1000845908368964e+00
      6.5199066077927839e+00 6.2443163009508487e+00
      -6.8118153361482525e+00 3.5738142127188990e+00
      -2.1917768629608645e+00 -3.7858573948269805e+00
      4.2351344870586999e-01 -1.9434193917686451e+00
      -1.4913573524871833e+00 2.3675248564203675e+00
      2.2747822499409449e+00 -1.0229728862298901e+00
      5.4926159275111024e+00 7.7534197968981724e+00
      -2.0043738073784548e-01 9.5941007024908065e-01
      1.3311995933823204e-01 1.0094009644843041e+00
      -5.0076384007869930e+00 5.7749215445910309e+00
      -6.4918776647459586e-01 2.5360898116104935e+00
      4.3851727292781097e+00 3.4652945543585929e+00
      1.2838164901178875e+00 7.2225132525188873e-01
      -6.0364508553135487e-01 -8.1494601228252534e+00
      -4.1273497376576911e+00 -6.9022875911036241e-01
      4.2078094068714922e+00 -2.9390127672426005e+00
      1.4855510167836302e+01 3.1408819063426754e+00
      5.6456482806354407e+00 -2.1085619118500682e+00
      -3.3925901516961838e+00 3.8304392477919684e+00
      -4.9941964623220141e+00 -3.3109034244854767e+00
      3.1212618222054895e+00 9.9582052960532170e+00
      -1.5629654506278341e+01 2.1338128934680126e-01
      -1.5811363248042534e+00 -4.8945100890849685e-01
      -1.0595819904703943e+00 -5.1554425819844321e+00
      1.4860798177963814e+00 8.0694191965149376e+00
      -4.5403290833173315e+00 -4.0426940067739841e+00
      4.6318854144385684e+00 7.0717917265684509e+00
      3.3312779571391231e+00 5.6611796809028329e-02
      5.1298305134848219e+00 3.2346335680024092e+00
      -8.5406807249618879e+00 3.7968047075170634e+00
      -5.0143443446113067e-01 3.8579258626873965e+00
      3.4939298003666894e+00 5.5989982334063759e+00
      4.4642303030595238e+00 9.2071990438296336e-02
      2.2467686140319354e+00 -6.7384246035320920e+00
      -5.5124261616308070e+00 1.5752982269457576e+00
      -1.7213669691004037e+00 -1.4519124855491294e+00
      7.4819812854798302e+00 4.7921819951412941e+00
      5.4972243829109626e+00 -4.8017354462335726e+00
      -2.8187112190831414e+00 -3.2398531753955688e+00
      -6.0802193604460939e+00 2.7686644929533126e+00
      4.0799671050487225e+00 7.8787863540290743e+00
      -6.1864116531583964e+00 1.3486039919290110e-01
      -1.9686304706241122e+00 4.8287405845552051e-01
      1.4511741422622300e+00 -8.4423953694394474e+00
      9.8307962826831030e+00 4.7363314753165682e+00
      4.4792332537756180e-01 3.2703208234092553e+00
      4.9040266636411456e+00 1.1035522596242107e+01
      2.0136850472348714e-01 -3.4401641768040405e+00
      5.7673378240142634e+00 -2.3911132335176799e-01
      2.1672076680852981e+00 1.2414312785385812e+01
      1.7235756546979331e+00 5.9424703532597736e+00
      6.9585889273420118e+00 2.6287028016218033e+00
      1.9744195616216513e+00 1.3845523535772957e+00
      4.4485338979203881e+00 -7.4511831927011576e+00
      -2.3875133150109451e+00 -3.6552002661430123e+00
      8.0385880966603462e+00 1.2925460680529304e+00
      4.9878958947677825e+00 -1.6146434107143217e+00
      -3.5687812903279021e+00 -1.2549823639684508e+00
      -8.5976039139697757e+00 6.3905810082978387e-01
      -3.9134785394252867e+00 -7.8060199079983283e-01
      -5.0166257020898364e+00 1.6386878038884771e+00
      -8.0976489909078153e-01 -4.9417397098859448e+00
      -2.6056170554806717e+00 2.0760541666912546e+00
      -2.4453327082162715e+00 -1.1942991424064942e+01
      1.5712997805407207e+01 1.3208851724250124e+01
      5.1582623263846683e+00 2.1573394061425719e+00
      1.2376540708703606e+01 3.3990386853124432e+00
      6.6076078209752112e+00 -4.3459620039598921e+00
      3.3178041630022168e+00 -4.4052790238633426e+00
      -1.7173703047949713e+00 -7.0045426348354702e+00
      -5.3109176965691818e-01 1.7033424378264247e+01
      1.7925467518470117e+00 7.0571961215771295e-01
      3.4096776511405023e+00 -4.4931169085436036e+00
      -2.2240559586243491e+00 -1.9334901950713217e+00
      -3.1540831405161800e+00 2.1938091860805015e-01
      9.4956179260891382e-01 -3.0761634449304709e+00
      1.0812460020419055e+00 3.1280790357805293e+00
      -1.1948082052190345e+00 -5.0818181311622057e+00
      2.1891826953651723e+00 -7.7490726093206161e+00
      -5.9845270049964263e+00 3.9481583798600567e-01
      -1.0154255941722548e+01 1.5506430399412419e+00
      -1.0855871558942512e+01 -5.6336959313001131e-02
      -4.2880770597219553e-01 1.8784296969495149e+00
      1.1080328233352874e+00 -7.2596953998970566e+00
      7.5243516720313162e+00 7.6784324861230377e+00
      -1.0309130276384948e+01 7.5698125094709043e+00
      4.3098103368895586e+00 2.8285020951139797e+00
      -6.9920374165620176e+00 4.0006290919649601e+00
      -1.9972190269905494e+00 2.7456093537618527e+00
      1.8211504302742292e+00 5.0901226830471389e+00
      8.6354622218850778e+00 9.1435528726896198e+00
      2.3111370546566867e+00 2.1543281520488082e+00
      -5.2840435241954946e+00 1.7265403480264061e+00
      4.4695900964075141e+00 -3.4741899859616017e+00
      -2.8602196753287668e-01 -6.0578115628919633e+00
      -2.1125286401384358e+00 -2.0359922415536693e+00
      -4.7019011044207755e+00 2.0441565743513115e+00
      -3.6122887252097700e+00 -1.8645712988569918e+00
      -2.4915621328871956e-02 -4.7307725716416078e+00
      -1.6376416462841086e+00 -1.0271246012864670e+00
      5.3478491697539541e+00 -4.2089064879597515e+00
      -4.1258738992679218e+00 -6.3322290282900129e+00
      2.2216082916575925e+00 5.7669795200562364e+00
      4.9286544141624100e+00 -3.3152431098202753e+00
      -4.9747591876027233e+00 -3.7211954373817746e-01
      -5.1384225119121023e+00 -1.6571376967446911e+00
      -4.9419025896613968e+00 -2.1619903688037372e+00
      -2.0675855308972317e+00 -3.6251144525687504e+00
      7.3619739818847596e-01 2.5874547548289302e+00
      6.6548663277025337e+00 5.4647148947531532e+00
      6.1256693772949955e+00 1.1237958363891508e+01
      9.5865332527425213e+00 -1.1460315338682435e-01
      -1.2970115245749495e+01 2.0954427400768902e+00
      -3.7762415576410957e+00 -2.9955138477085623e+00
      -6.8313584687752611e+00 2.6122935415010269e+00
      4.3001046685000670e+00 -1.4499571443157289e+00
      7.9605906156312409e+00 -6.5646743820672917e+00
      3.5333259775604007e+00 -2.3518267406242996e+00
      2.2692584600879355e+00 7.1705743903011072e+00
      -1.2729788118654042e-01 5.1679979410066830e+00
      1.2116304686248713e+00 -1.8458905089525655e+00
      -3.4003210642454400e+00 -6.7234769249091171e+00
      -2.8415416451177129e+00 -5.6899018836197568e+00
      1.4096178378801836e+00 -7.3914765290221434e+00
      1.1205753860052545e+00 7.4974658246658721e-01
      3.6184026277512285e+00 -5.2179456746621860e+00
      -4.4721687505663867e+00 2.6747865857432234e+00
      -5.1942742392671970e-01 -2.8422016511996571e+00
      1.5129544612933661e+00 -2.7969117319958636e+00
      -1.9079464542229911e+00 2.6582432940240870e+00
      3.1747746745204153e+00 4.9001374512646692e+00
      6.1152721087646018e+00 3.3191940105366977e+00
      -5.4339123111977390e+00 -1.8573223857481465e+00
      -2.8467720808602475e+00 -5.9554521121394144e+00
      -1.9245991596421117e+00 8.7307749842528750e+00
      -7.0794434254043803e-01 3.8259401469780143e+00
      3.0367936861392466e+00 -7.7731363116079004e+00
      -1.9153449898474322e+00 -4.2201147770838157e+00
      -2.2881083282492165e+00 -1.1952316938215617e-01
      4.1292604954663199e-02 -9.2265874995393182e-01
      -7.1749627900566590e+00 9.5887416204445710e+00
      6.1612832776484749e+00 -2.1093089523088753e+00
      2.2714970924176967e+00 8.1140816312468598e+00
      5.5714111880714867e+00 4.5560020191187967e+00
      -5.3414363336195159e+00 -3.0410566896578008e+00
      7.9898252047247000e+00 -1.0531332807523730e+01
      -1.5033660852327090e+01 1.7563954281163525e+01
      -6.2047831966800606e+00 4.0713528850871299e+00
      1.4732091080759723e+01 -4.5553567215001287e+00
      -1.3554220875763647e+01 8.8399312668480654e+00
      4.7069039273681188e+00 -1.4334636655481994e+01
      -3.1966723561373409e+00 -9.3504371644991036e+00
      1.3321319281089334e+00 -1.0057407681763840e+01
      1.9597109535560730e+01 -4.2727059111558825e+00
      -2.3571295605671327e+00 -2.6806978399427153e+00
      2.6677671492218349e+00 -6.0165544840124241e-01
      1.0308164204161796e+00 1.1634558794655188e+01
      8.5788673743696169e+00 6.0484194416788082e+00
      8.1596563025507081e+00 -3.7768683678133890e+00
      -2.6542520287363907e+00 2.2556388082126926e+00
      1.6428821404796279e+00 2.3532683319842135e-01
      -4.4145683063365180e+00 -2.4887762081158580e+00
      -7.2367891999012524e-01 1.3035859342597753e+01
      -2.7495439393949423e+00 7.9099318937513434e+00
      -7.9178376893681790e-02 4.8046313097841260e+00
      4.7072570926017896e+00 -4.2349662549219271e+00
      -1.6226981433270453e+01 7.2447543747803422e+00
      -7.2099598375141509e+00 6.1170439649847754e+00
      3.8595137487653881e+00 3.3772587417013713e+00
      -5.3939178726277657e+00 -4.7585577626446440e-01
      2.1831181186613655e+00 -4.0282694053898274e+00
      2.3925194023278640e+00 -1.5784051863182349e+00
      -2.7624020090784058e+00 -1.3589768737316863e+01
      1.2446590156505694e+01 2.5862633809036040e+00
      -4.1860346713500736e+00 -5.7752721714022650e+00
      8.5508133700565061e+00 -1.8714410180296821e+00
      4.7290658201676141e+00 5.7287238774100562e+00
      -3.0094173389257621e+00 9.7060362764248307e+00
      2.5633648017760566e+00 -1.2704263225574846e+00
      -1.0475372752557828e+01 1.7695453927847711e+00
      -2.6319735354619103e+00 6.3417709222113103e+00
      4.2339588798013255e+00 -6.3184280422969064e+00
      5.2155878537421430e+00 2.2127941816991605e+01
      1.0318212546663382e+01 5.4572686631180334e+00
      -7.0878372469617590e+00 1.4791966666603282e+00
      1.0077195468502325e+00 1.4445123958410010e+01
      -1.2001103114078653e+01 6.4162581868258215e+00
      5.2915021852906623e+00 3.0531687288745615e+00
      7.9567290054989597e+00 1.0129721756548351e+01
      -5.9751186990406895e+00 -1.3533289681048655e+00
      6.2802677063056827e+00 5.1287912385757431e-02
      2.4264007875974141e+00 -4.6510650388491692e+00
      1.1562099274774473e+00 -1.2324060567982121e+01
      2.1146915688254865e+01 1.3926183688773790e+01
      -9.4335203874852880e+00 -1.0999350428262980e+01
      2.1494968391546319e+01 4.7755285336992781e+00
      6.6091485390650204e+00 1.4693302695082735e+01
      7.9657554679763303e+00 1.8696177238834624e-01
      -4.0509123103674813e+00 -4.8643272169858580e+00
      -1.2962179414875037e+00 -6.1456365996763811e+00
      -5.8074255834628783e+00 2.1354054326934747e+01
      1.6131444172310403e+01 -1.0263723517787851e+01
      -1.8658580301755234e+00 2.5292449421550895e+01
      4.7606056405178121e+00 5.9518320232528703e+00
      2.1275544485061704e+00 7.9070930867324452e-01
      1.5281891049211461e+01 8.7179159231801968e+00
      -9.8905432688524026e+00 4.4646366997318548e-01
      -8.4859999623904869e+00 4.2709005923252503e+00
      5.7020327990979869e-01 1.0089712219789222e+00
      -8.6155713517889883e+00 8.8812652327512058e+00
      -4.4677598832625343e+00 4.0719739854366690e+00
      1.0865987701492910e+01 2.8565484379397614e+00
      2.0102922376141194e+01 -2.5930364714968266e+00
      3.1102497370872786e+01 3.7617998783613702e+00
      -1.5979129091121498e+01 -2.0863317534553534e+01
      2.2372326709181475e+01 -1.6031173431259089e+00
      -3.3936493403537278e+00 8.3612514995714537e+00
      -2.8140196751143276e+00 1.0735254112273415e+01
      -4.9508174651308927e+00 -5.1789778249144023e+00
      7.0087498340416463e+00 -2.2236168912873282e+01
      -5.4432211445809751e+00 2.6257966506521928e+01
      2.1959902797849661e+01 -7.9029763987328829e+00
      -4.3982337050722053e+00 3.7798737170337681e+01
      6.1148892794229495e+00 -7.2394350938433165e+00
      -4.8630390067317514e-01 -7.9588707800963832e+00
      -6.5797258155004201e-01 1.9038045719525346e+01
      -1.5223321884466460e+01 1.4147297672359285e+01
      1.8197737287674396e+00 8.5504308781352645e+00
      -3.9541224312467776e-01 1.4278681673258729e+00
      -4.1397932583138042e+00 -2.4542856764768355e+00
      4.2974500237648111e-01 8.9380800308150317e+00
      1.1534235468791845e+01 -6.1049657883089212e+00
      9.4338044845449431e+00 -4.9608513076304801e+00
      2.6937965027501043e+01 5.6841683180513174e+00
      -1.9472591689609004e+01 -1.8417869569297054e+01
      1.7286857976161951e+01 2.4753699755105902e+00
      -1.7392259920153943e+00 2.1578590007167584e+01
      1.0611981712540091e+01 -2.1859850267106626e-01
      -4.0453440883462743e+00 -4.4922549446324149e+00
      -3.4958131168439537e+00 -2.4669945469333562e+01
      -1.5986308345381905e+01 2.4388489906251976e+01
      1.0287798110068957e+01 -1.7213568781665558e+01
      -7.0612320901026902e+00 3.5681984464878184e+01
      6.4699063143441657e+00 9.1969455692093222e-02
      -5.0318619290391258e+00 -1.9313787574252473e+01
      8.9262146413303824e+00 2.0309828112808876e+01
      -1.8487951887817950e+01 2.0382226362640545e+00
      2.7985330402921567e+00 1.6200771731767286e+01
      5.6558244066436147e+00 1.0796171534052439e+00
      -5.1331250729812981e+00 -1.2047018120702184e+00
      1.2825848033802885e+00 4.2648346743656091e+00
      1.5636169158971387e+00 -7.4820199301784456e+00
      3.6838793194437955e+00 -5.5932000753204134e+00
      4.4705306547634287e+01 3.9105783869663275e+00
      -1.8111160607563370e+01 -1.6579208444286159e+01
      5.1659529633524848e+00 -1.1339222970107607e+00
      1.9289657708042323e+00 8.8611864639066518e+00
      1.9371554364286599e+01 4.6743942420160103e+00
      8.4926960070522450e-01 -5.7182274168391336e+00
      5.7848356139294950e+00 2.5499381436870644e-01
      -4.3103116197479263e+00 2.0259948607570372e+01
      2.5698770972974097e+00 -4.0433394188093033e+00
      -8.3517720413414338e+00 2.7006346754402117e+01
      -1.1593046602341253e+00 5.1136476640034112e-01
      -9.8547396427202134e+00 -3.4183319845771338e+00
      1.2045537869741338e+00 1.8305584280818369e+01
      -1.2288456897724840e+01 -2.6743061829411148e+00
      1.4374478065082422e-02 1.5234230583933554e+01
      4.3981496303681977e+00 1.1826953025179996e+01
      -7.8297799530626726e+00 3.4897601668086886e+00
      3.3166555138325231e+00 5.2521778221521025e+00
      3.4983741483877466e+00 -2.4413903238453859e+01
      3.3852576331787212e+00 -8.8750813335106891e+00
      3.0677746881790252e+01 -2.7977845979470048e+00
      -8.6465871781340446e+00 -2.8124889811717448e+01
      1.9209947690747835e+01 1.7420322499659571e+00
      -1.4963806012064751e+00 1.0457813031461849e+00
      2.1684962803803717e+01 4.2886836531637460e+00
      -1.3637345883215377e+00 -2.0560762522549907e+00
      6.2209579310181233e+00 2.8007033633309324e+00
      1.4516480837771697e+00 1.7848749213549940e+01
      7.0175004180853504e+00 -1.1574051134020397e+01
      -5.6478883556406663e+00 3.0834336677609087e+01
      -1.1644255999331845e+01 -9.3660924895521465e+00
      -5.9817441760902934e+00 -5.4183494310325253e+00
      6.7361032777563923e-01 1.7071871769138241e+01
      -6.7992401929341320e+00 -1.6479925101033750e+01
      -2.4013041511282625e+00 -9.6519380998676518e-01
      7.7801879701165735e+00 3.0339413959357091e+00
      -2.6326278491266386e+00 5.3975525740632229e+00
      -5.6260370753612428e+00 -2.2606071008851809e+00
      1.1932128870666880e+01 -1.9296319355629024e+01
      1.9721764236793728e+01 5.4287334042019610e+00
      1.4623971192448787e+01 -1.7850843758621977e+01
      -9.7442772303525915e-01 -2.0477152704514879e+01
      1.2794276892878999e+01 4.8475856974799827e+00
      8.7187828086707153e+00 7.7684095827897055e+00
      1.5650257273975305e+01 -9.8616139774832012e-01
      9.7273958506371443e+00 1.8811567811651162e+00
      3.0700435070524374e+00 -4.6078823368159325e+00
      -6.5536373085107629e+00 1.2790465333493234e+01
      5.3631618501043399e-01 3.7385707513376896e+00
      3.5277154173432095e+00 1.6537447845324728e+01
      -4.1701011103520917e+00 -8.3072151535188770e+00
      -6.8492207545060522e+00 3.1501175695733070e+00
      3.1149029841443621e-01 -5.4172312441976123e-01
      -7.8950979182277559e+00 -1.3451921688970641e+01
      -4.4127020109285091e+00 -7.3328346370124642e+00
      1.3237350861383659e+01 5.6590720999573936e+00
      -4.8210224861697520e-01 2.5107314169299069e+00
      -7.1175129108320299e+00 -4.6671083307963643e+00
      5.2588874156181715e+00 -1.0916511637218219e+01
      8.0867057835372709e+00 -1.0919220787993447e+00
      1.3622989037981544e+01 -6.6149733115900640e+00
      -4.7063239990454679e+00 -1.2770597316102908e+01
      1.3776465146653299e+01 4.1156730197786279e-01
      1.6019198622740873e+01 2.7869275267229754e+00
      7.4863340195239063e+00 1.7056098569553257e+00
      -1.8313390129032165e+00 1.6214490017640464e+00
      -5.8145034409821807e+00 -6.9741416448703779e+00
      -5.1154965086726403e+00 7.7776351136311668e+00
      6.3343356450746775e+00 -1.0186620036882688e+01
      1.6001507242720596e+00 2.0904724247969945e+01
      2.6757775912290567e-02 -1.1393066900757816e+01
      -1.7082681167536209e+00 -2.7243725295274572e+00
      -5.5974885863918289e-01 4.0510984299729529e+00
      -6.7178681284855006e+00 -3.5393434786632407e+00
      4.9824438077966162e+00 -6.4294039925396911e+00
      1.4589752291372864e+01 -4.0253406895161203e-01
      -4.9253385489997052e+00 -2.3988844387939867e+00
      -3.0828082238029473e+00 6.0428947489530971e-01
      3.8125857715630693e+00 -1.1642373795109984e+00
      8.3833182435591471e+00 2.3566170209410213e+00
      1.0347763913787464e+01 -8.4287198459836663e+00
      -1.5240563870899434e+01 -8.3416852518331215e+00
      7.8793837503740010e+00 -5.2066850649797480e-01
      2.4772048694519606e+00 4.3610646823130006e+00
      1.5709407738865270e+01 -3.7183117428910450e+00
      -7.2475433572102421e+00 -8.2209104610592765e-01
      -7.7633652868399068e+00 3.0953213949171676e+00
      1.3412778202708897e+00 -1.0532740658384260e+01
      1.0098662628569041e+01 4.6678541398799576e+00
      7.8852593050657882e+00 -5.2057772533715614e+00
      6.2095247307564927e+00 1.5093179013706473e+00
      1.4082694553817037e+00 -1.0810831727762791e+01
      -4.3508976397721011e-01 -4.8706460534024965e+00
      2.4516808100980771e+01 -9.0915571217068187e+00
      -3.4334402579238894e+00 3.9743768633699585e+00
      -1.0629468739950802e+01 6.9112159003318974e+00
      5.4327500459899882e+00 1.9455390418802587e+00
      -1.7121569240124763e+00 8.8392916006155016e+00
      6.4115639758566720e+00 1.0651773754854014e+01
      1.8790755078685823e+01 1.2342521999124564e+01
      -3.9371626836854228e+00 4.0976071411841639e+00
      4.0099053251687513e+00 -1.0147440818141222e+00
      -1.6216838174186517e+01 -5.4573753416814563e-01
      5.1638423838221774e+00 -1.0868118332921390e+00
      -1.0082000977524293e+01 -5.8450101290916407e+00
      -6.6021901142315564e-01 -7.2944932234889537e-01
      4.9985658563132480e+00 1.7277478618179408e+01
      -5.3373723692726855e+00 8.1328951095145943e+00
      1.6109862359105442e+01 7.4072629171015700e+00
      1.1150509453834626e+01 1.0377025285483883e+01
      1.0216768117773233e+01 -9.2030690938625737e-01
      3.7541680839324915e-01 -1.0217838950544891e+01
      9.8343675498205296e-01 3.2687132847241669e+00
      1.6747321162179101e+00 -2.4043062565435736e+00
      -2.1053579289119631e+00 1.0400601787110968e+01
      -8.8579978980860972e+00 4.0423514768493432e+00
      -9.5817157932448787e+00 8.7734174277394050e-01
      -3.5749646534579194e+00 -8.2822600084766993e+00
      -1.0264913134218860e+01 -4.1791370462861375e+00
      4.0865933934042102e+00 8.2418944372464864e+00
      8.1372278276376857e+00 4.4231015891017131e+00
      3.0128007197101092e+00 -2.1030872675158360e+01
      1.1814863664445134e+01 -2.0707535988896804e+00
      4.0620073370089177e-01 1.3856445563548768e+01
      4.1464099224370186e+00 2.1321964216965914e+00
      6.8397098416789186e+00 -2.2730428611208100e+00
      3.5315390688174548e+00 -1.5449598550548818e-01
      6.5047169475406648e+00 3.5183597908461484e+00
      1.0760272411666413e+01 -6.7628821110616775e+00
      1.2752316343237272e+01 6.4515775280645142e+00
      3.2084729300652964e-01 4.2937133516360699e+00
      -1.0179930091276115e+00 -2.0079347401665402e+00
      -7.6738817051295678e+00 4.8579316317287313e+00
      -1.3644531479503885e+00 3.0597390853777451e+01
      -2.0756907157731391e+01 2.5128962120561617e+01
      -3.2730612781878574e+00 -7.1095501059501922e+00
      -3.9683034025444317e+00 1.7673982835376972e+01
      -7.4829971048180353e+00 3.0609553432039012e+00
      1.9386874888657863e+00 1.3579604202579272e+00
      7.8568491513282712e+00 9.8241671176089689e+00
      1.2879192549984775e+00 1.6047147841109432e+01
      4.4649152387036367e-01 -1.6911590083897348e+01
      1.1215709574335960e+01 2.4995383294315512e+00
      1.5498184828979520e+01 7.1284710226627714e+00
      6.5092284682936938e+00 1.4276197490001884e+01
      6.2475958231389601e+00 1.1119765240945196e+00
      1.1963684168406095e+01 -5.5786182527323136e-01
      3.9152591555344025e+00 4.8411121554701904e+00
      4.9496687788492437e+00 -1.0236331562509543e+01
      1.3064393399692635e+01 2.7108203400361264e+00
      -1.1436695397193743e+01 1.3535290989657234e+00
      7.5201137293308529e+00 -9.6083994039241851e+00
      -8.7277274201957411e+00 1.6428864135970230e+01
      -3.0266281611057266e+00 1.0023246898727743e+01
      -1.6229466433222143e+01 2.2972533035831844e+01
      1.6605342449384107e+01 -1.0456941523654082e+01
      9.8241795138833340e-02 8.3054966265177530e+00
      -6.2876684937523377e+00 -7.9418413715797342e+00
      4.0284791884397563e+01 1.2408257228579624e+01
      1.9292392523103430e+01 2.1226131434637473e+01
      -5.1216003271527484e+00 3.0587463143247415e+00
      7.4617901023797835e+00 -1.2372285629646516e+01
      8.3738686584265913e+00 7.7529819146769252e-01
      9.3285565949439704e+00 -1.4125569751627539e+01
      -5.5707674521532704e+00 1.2897495953796208e+01
      1.6023490106120668e+01 1.7753410673088124e+00
      -8.9323416821713710e+00 2.0079595706005296e-01
      1.4629271724029891e+01 -1.4299715146126093e+01
      -1.3821493156732062e+01 -2.3879685216261994e+00
      2.8583712327094393e+01 6.9311505220320706e+00
      -7.5377723047058378e+00 -8.8564527402210373e+00
      1.0219755817892826e+01 -4.1919134343870441e+00
      8.6772232884012688e+00 1.7151215901467218e+01
      -1.1027506782454330e+00 5.6501875309978056e+00
      -1.4899408698534575e+01 1.3218722509880912e+01
      2.0229106938919483e+00 -5.5226640108602014e+00
      1.0059638823345916e+01 1.4486788080514570e+00
      -4.9617692605004304e+00 -1.0129525206610410e+01
      3.1042261758503695e+01 2.7949036051001883e+01
      -2.2152934712170866e+00 2.8731556560726595e+01
      4.5244872189893766e-02 -1.3758512433379934e+01
      -5.3548523838719619e+00 -1.1440188784487043e+01
      -5.6469179182742675e+00 -3.9187955051637582e+00
      1.6451817521067845e+01 -1.6110514985544675e+01
      -4.3093515078992803e+00 1.1090806030061742e+01
      2.7353797800394318e+01 3.8974009646672609e+00
      5.6720296696026642e+00 2.7446456065862382e+01
      1.4556807163933467e+01 -1.8598427431369124e+01
      -3.2105273636259288e+00 -1.0314687779085727e+01
      1.6406035111246386e+01 6.8746994986277636e+00
      -1.1533632188390362e+01 -4.8813197149222596e+00
      5.4356818615198799e-01 -4.5672347130589808e+00
      7.1773478377597941e+00 1.1683120272659734e+01
      1.2073329396651978e+01 -1.3544890302125657e+01
      -3.5901269192552427e+01 1.9362537399688183e+01
      -2.7561991971505218e+00 -2.2873483249185309e+00
      -5.6480889073670228e+00 -6.8112702705210033e+00
      -4.6548135325413638e+00 -9.9016022739626652e-01
      3.1801515969988507e+01 2.1105278066094208e+01
      -9.6991428438688292e+00 2.6049709172466795e+01
      3.1788436849885087e+00 -8.2505341743918077e+00
      5.8155515740146306e+00 -1.3233643869270653e+01
      -5.2957470789835703e+00 5.3066067461592255e+00
      6.7643876306238191e+00 -3.1862300524330665e+00
      -8.4515622920363160e+00 4.0574770904529691e+00
      1.9005043337614261e+01 9.7107305790367859e-01
      -8.7772867892947062e+00 1.3464818399915012e+01
      9.7788838830723019e+00 -2.1921814948385045e+01
      -1.5222959708698589e+01 -1.4322627774262124e+01
      1.5590385605759945e+01 1.7665491531507694e+01
      2.4246211320143320e+00 -1.3226327739274563e+01
      5.1840112927622339e+00 -4.4235555759424638e-01
      1.4480680678766410e+01 4.4600286504616884e+00
      1.6392230299432122e+00 -8.7662546820940275e+00
      -3.3918040446232354e+01 2.0936903989627385e+01
      -8.0861151269347609e+00 9.8070738409643310e-01
      1.7972813153641891e+01 -1.1620178357361487e+01
      -3.3256027449812940e+01 -4.6672161250291078e+00
      3.9713072122118099e+01 3.0455946523329068e+01
      -7.0235220741518081e+00 1.9816358662668272e+01
      -1.1038676494953030e+01 1.5496966547043437e+01
      2.1594171880847628e+00 -1.1881753606525258e+01
      -2.3812692193675802e+00 -3.8078908027044709e+00
      3.2964051816194313e+01 6.5649108738903239e-01
      -1.6128996054638524e+01 1.1220528853730281e+00
      3.2780170438155287e+00 1.9072308593974900e+00
      -1.0417971125631711e+01 7.1347470202546814e+00
      3.2529704277479454e+00 -7.5988566089313947e+00
      -1.8829662420553053e+01 -1.2822734015310214e+01
      8.0760953641593147e+00 2.7398976881397783e+01
      -4.5230673597590219e+00 -9.2445519485822540e+00
      -8.3558102208369700e+00 -9.7614155182986799e+00
      3.0965607326299383e+00 6.1946921658509151e+00
      -3.5163890764668841e+00 -6.5920926328233032e+00
      -1.6550374914015261e+01 1.2995664791332411e+01
      4.7820295986952823e+00 9.1178418616505059e+00
      1.6284348867747283e+01 -2.7000218628928034e+00
      -1.2669703061909885e+01 -5.6727505513725127e+00
      1.7548286291034337e+01 2.5167457903712414e+01
      1.3509419303231875e+00 1.5815561593095104e+01
      -1.0861993480329113e+01 9.2784426294391960e+00
      -1.1010831887141203e+01 -8.1334652746629246e+00
      2.1111444882670298e+01 -2.0652386061889820e+00
      1.9683851258941562e+01 -8.4490179884075580e+00
      -2.7935107250645530e+01 5.4879596733418112e-01
      -4.1359802772788221e+00 -1.0868580154927409e+01
      -3.6763128686352466e+00 5.4674890676963050e+00
      1.2330509273491705e+00 4.2772427513151108e+00
      -1.8457928204980966e+01 -3.8506783441456469e+00
      9.8154820614445502e+00 1.8642937790918907e+01
      -6.6614519760501389e+00 7.1532591850764762e+00
      -1.2860030762757094e-01 3.5062923202127854e+00
      2.1796897391059002e+00 9.2534014431837779e+00
      -1.0362522024613957e+01 -2.0043176745427940e+00
      -1.3595690276017958e+01 3.7864446581740272e+00
      5.6665435029202573e+00 -2.7680626264633181e+00
      1.4934694073508018e+01 5.7657388493310533e+00
      -7.5489363912531129e+00 8.5097374000440584e-01
      7.1334064084495754e+00 7.1531681977136907e+00
      -2.7505597728449495e-02 -1.7306443059933672e+00
      9.5468664476537040e+00 -7.6733924757866045e+00
      -1.6001317363921764e+01 -4.1590571255846109e+00
      1.3590949704863434e+01 -5.8244792134653278e-01
      8.0234775142857373e+00 2.0833123543350500e+00
      4.9740620792917394e+00 1.0808811518439594e+00
      -1.9302342140921540e+00 2.4029738663465552e+00
      -5.1854102241250741e+00 -3.6606461615898209e+00
      -3.3074148073591769e+00 -9.6043864580204819e+00
      -1.6088035431025443e+01 -1.3730305141791314e+01
      1.1008018920593910e+01 1.5021711857290372e+01
      -6.6469994072768512e-01 7.6150382034085586e+00
      2.2711544338043947e+00 -5.7043329221663308e+00
      -2.7782853212160115e+00 -1.6443628208461809e+00
      -8.3639953612324884e+00 5.8286782155720367e+00
      -5.4363479811440873e+00 -4.0870886296898750e+00
      -2.0674922737473915e+00 5.9378571104551874e+00
      9.3497487036496025e+00 3.1589975743417287e-01
      -5.3222195574985127e+00 -2.5213927694192164e+00
      2.3167590212282626e+01 -7.3975040042309974e+00
      -1.0018389563081287e+01 7.2235126618367884e+00
      -1.3782939441548192e+00 -2.5003778715983427e-01
      -2.8273585037916273e+00 1.6978249317813838e+00
      -2.9026265478699851e+00 1.8808440146035739e+00
      1.2747305019247101e+01 1.1083912928065113e+01
      4.0743497689965857e+01 3.9196128378694914e+00
      4.2834377689547338e+00 2.0370052420017423e-02
      -2.8886637241952606e-01 -1.9791975562977775e+01
      -4.1117750457717855e-01 9.4507677213793995e-01
      7.4413845621566663e+00 6.1001034257000617e+00
      -1.5334481677822684e+01 1.7706463838453139e+01
      1.1055300827827992e+01 1.2169102255850296e+01
      7.1168404397831475e+00 -1.1987518044188430e+01
      -1.2269351896048295e+01 2.8541908380988614e+00
      9.2152640680798417e+00 -2.0011880279230709e+00
      5.6610733753748443e-01 1.6408245710685708e+01
      -7.0306163907768058e+00 -5.3941123182914561e+00
      -1.7595861215016282e+00 1.2802111708682920e+01
      -7.1774968928901419e+00 -1.6582961721158814e+01
      1.5468552370136370e+01 8.5943317572376241e+00
      -1.9635556138587609e+00 1.7232572346763888e+01
      -1.4074258066685399e+01 8.5799428259694697e+00
      -2.7743328243696168e+00 -3.1436981932675163e+00
      1.1708673864593520e+01 7.5852290830463200e+00
      8.6270060093867489e+00 -7.3289591835911381e+00
      -2.6805326002247072e+00 6.4724611794248998e-01
      6.4573410656391710e+00 -6.8003335735207777e+00
      8.8101159571136911e+00 -2.0391575489089435e+00
      1.8976312547679530e+01 -2.2633068936510989e+00
      2.4043004290663434e+00 -2.2578472492368620e-01
      6.8880140563100456e-01 2.7836399096786959e+01
      -2.1222420724252404e+00 2.3290543823494431e+01
      1.1337481819243324e+01 -1.6611638868099348e+01
      -9.1974721712824365e+00 6.6008346589927003e-01
      1.4726234686323231e+01 8.3403744900125787e+00
      8.7171056036346825e-02 1.3215917142386443e+01
      4.3707445696831870e+00 -7.8486580064047127e+00
      -2.7030469946505744e+00 -8.3610636875448225e+00
      -1.2978602941167372e+01 -1.1547912982511873e+01
      -1.2312305969610351e+00 7.3080930615464723e+00
      5.6256661738387166e+00 1.1834607372930636e+01
      -4.0197246565876454e-01 4.6544179682216296e+00
      -5.3341426958880946e+00 -5.8341366625251645e+00
      4.9196244809505245e+00 -3.0631480987248647e+00
      1.3028916513408900e+01 -9.0262133316899789e+00
      -1.3153465291891242e+00 1.1163382717653569e+01
      1.1812086089292432e+01 -7.1732520213241253e+00
      7.5416390935912041e+00 6.5993836150842418e+00
      6.4287803134783736e+00 -4.4383152582685916e+00
      -4.4877255412220984e+00 -4.0153036180121321e-01
      -1.2769530968544910e+01 1.5685470549766663e+01
      -3.4153623036691569e+00 2.3303869235647889e+00
      8.6096374361862189e+00 -2.1529198613066363e+01
      -1.0748020119889883e+01 -5.6585554389377748e+00
      9.2948082091635111e+00 8.3804061574612003e+00
      -6.5136122290098477e+00 -3.6467305499601674e+00
      1.1524787478663987e+01 3.4091002105534578e+00
      1.3208717821499658e+01 3.7349355743181674e+00
      -1.6615229265773618e+01 -3.7740987202019461e+01
      -2.2833847327732890e+01 2.7316847064822777e+01
      2.1969106028592726e+01 3.7250370515867228e+00
      -4.8749633529936194e+00 1.5670403591340719e+01
      1.6196089626806323e+01 1.8329453654218117e+01
      -4.3666501331169911e+00 1.2913494303708601e+00
      3.4203148339619922e+01 -3.0658537901998752e+01
      -3.5378166868000056e+00 5.4485142757982157e+00
      9.7710828301008394e+00 1.6658311174565794e+00
      5.2932631249320359e+00 2.2657717590014883e+01
      2.8212455327494879e+00 -8.7677417130187028e+00
      8.8317153915578146e+00 1.0304211667837320e+01
      -1.5545718274463249e+01 1.4719999942205808e+01
      -8.6301846444697610e+00 7.7640780059201884e+00
      1.7744492114243666e+01 -4.0749253358741562e+01
      -2.8981976586854909e+01 5.2521610721293088e+00
      1.1605037119526195e+01 -2.5931899132924841e+00
      3.7950491591774194e+00 -7.8451926626974391e+00
      3.3241242396763035e+00 3.0048229667462509e+00
      3.8397334028534580e+00 -4.9567904865438868e+00
      -1.4831075986282265e+01 -3.9432888223360933e+01
      -4.7869133692309553e+01 1.3660955560091200e+01
      8.8362434704102863e+00 -1.2944960930441400e+01
      -2.9131086677287247e+01 -3.9192371740005862e+00
      7.7659254289516584e+00 1.5309189476595185e+01
      -5.6651068563813265e+00 -3.6629774360781004e+00
      2.0652298401307462e+01 -2.0531607265526453e+01
      -9.5996012835138291e+00 1.2077479911861968e+01
      1.9695855002269091e+01 2.5824998099324159e+01
      1.1413856511513872e+01 3.0460140100024688e+01
      1.2260914946265228e+01 4.2865394920190090e+00
      -1.2395581242469322e+00 4.7238575851563187e+00
      -1.3280732355118266e+01 1.4575483986103958e+01
      -1.7942979480694966e+01 1.2196650429328011e+01
      1.0293606806962993e+01 -2.5211721591182350e+01
      -6.1941970966446682e+00 -9.7744388746567683e+00
      2.5311699220105190e+01 3.5223248673755072e+00
      6.2126448542135204e+00 -1.6983265543485761e+01
      -1.6526286659145806e+00 1.3059233745553525e+00
      1.1991899905253922e+01 -4.0635300371754184e+00
      -1.4797086405946109e+01 -3.3163229519268178e+01
      -4.7696096397781922e+01 9.6308455453706987e+00
      6.7781808022159487e+00 -2.7615742267398556e+01
      -2.9358204647686335e+01 -4.1459379131016227e+00
      -3.2188707046525624e+00 2.6977296447819743e+01
      2.4377415501214692e+01 1.1594422344962823e+00
      5.3839577882468724e+01 -1.3724800457684120e+01
      7.3401397910523547e-01 1.3911855824355316e+01
      2.6957111553315789e+00 1.5924655601000554e+01
      1.3753934079854284e+01 2.7584815978462448e+01
      1.9541353018161743e+01 -1.1605774507726881e+01
      -5.4328728698410282e+00 -2.9775719636442717e+00
      -4.3935634616695864e+00 1.2862008964615248e+01
      4.2229003167461645e+00 -1.5318569259734227e+01
      1.2166088995257397e+01 -1.6667817578991105e+01
      1.6329967195888806e+01 -3.5960275545779332e+01
      1.3123223406256457e+01 -2.1386684028978181e+01
      1.4186190813202828e+01 1.5417257161837755e+01
      -2.9886266411581357e+01 1.6415858995340308e+01
      4.8213719965703303e+00 -1.5010491029846625e+01
      -2.6828895241348363e+01 -2.5553486294964546e+01
      -5.3457942144075155e+01 -7.9016869681139390e+00
      1.1148143098556961e+01 -1.7260761772692710e+01
      -2.2770340564305712e+01 1.4502116449426888e+01
      -9.3319327749392507e+00 1.4158477135279458e+01
      2.9335178962612172e+01 5.7731699371514067e-01
      5.1688784334956786e+01 -7.0880114730514725e+00
      1.1458493878989113e+01 1.2758842410762380e+01
      -1.6939096463730072e+00 -1.6140494367011765e+01
      7.9509146001861843e+00 5.3156123312277810e+00
      2.5862546590451032e+01 -9.2638128887578541e-01
      -8.0793814039215874e+00 1.5679996871626571e+00
      2.5373655893473397e+00 9.4704966129761026e+00
      1.0292439652822626e+01 -1.7058487178393573e+01
      1.7198243868756421e+01 -7.7275207483066426e+00
      2.7738630239945302e+01 -1.0975786428497642e+01
      1.2925790759041481e+01 -3.5078270354197947e+01
      -3.3201021099384502e+00 1.6416537366436092e+01
      -9.8010160228132008e+00 7.2515754992693371e-01
      6.0937796015295858e+00 -3.7220170922553701e+00
      -9.9806648654216605e+00 -1.8847875281761713e+01
      -3.8862357110607732e+01 4.5610040363519637e+00
      6.3801101251593053e+00 -3.1700006271955896e+01
      -1.9035353302832352e+01 -7.9271129516533954e+00
      -2.5787729433414210e+01 3.1900140501575258e+01
      1.3706209852870893e+01 5.1801206265838777e+00
      3.0107060899491870e+01 -1.3421179086335957e+01
      5.9944139909549687e-01 1.3014953133062198e+01
      1.2663882653006118e+01 -2.0241987385498565e+01
      -1.5257791125405127e+01 4.5138397937695593e+00
      8.3149115471266146e+00 -4.9784103315256614e+00
      -3.9075992165883937e+00 -7.8107801783591277e+00
      1.3568927591201106e+01 8.8683022241890885e+00
      5.6664178690648894e+00 -4.9441588250053963e+00
      6.6225598962675827e+00 -3.7209385868472027e+00
      1.1372690249077852e+01 -1.9731006743443782e+00
      1.3382889190122674e+01 -2.4890632744265861e+01
      -1.3687815776661790e+01 1.2278604779579524e+01
      9.1353875504739701e+00 -1.6170384999412995e+01
      8.7578144991267468e+00 -4.6924586925429184e+00
      -1.5845487992398150e+01 -1.3972260707674927e+01
      -3.8570525165326437e+01 1.8066103049534242e+01
      1.4961925488875085e+01 9.7621326501598880e+00
      -1.6146407173172260e+01 -6.0589797445664955e+00
      1.1129392292062528e+00 2.2482122504059586e+01
      4.7539747907452474e+00 3.9584982149115429e+00
      1.5804307907090331e+01 1.1252626042426062e+01
      -2.1959864019440083e+01 1.1397499042583718e+01
      -4.4574179268128571e+00 -2.1904736095552309e+01
      1.0417726667085306e+01 1.6262525404538376e+01
      2.1655196286197562e+01 1.0942708484329321e+01
      1.6836938532920422e+00 -2.5169928759097417e+01
      1.4154140829289059e+01 1.2281842528461617e+01
      4.3351699020719547e-01 -8.4395381638475548e+00
      2.0357112032198973e+01 -3.3431352303457098e+00
      -9.1498020401108313e+00 -2.3084225602382111e+00
      1.5469557091852931e+01 -6.1238126993393287e+00
      -1.5404977678892507e+01 7.7532377034282511e+00
      8.0000268904408323e+00 2.9475759330496656e+00
      3.3999608781628612e+00 -1.6234984792676567e+01
      -1.0004537875804321e+01 -2.6086994807702388e+00
      -1.8869912817871718e+01 1.9849693613326792e+01
      1.9104630723138996e+01 1.7938727761361992e+01
      -7.6651514359591317e+00 -8.2264820272884496e+00
      -2.3194099319775496e+01 5.1679824801466907e+00
      9.6928665517105070e+00 2.6545454360183913e+00
      6.0396946978729789e+00 -1.7377013693775723e+01
      -2.5186726543563616e+01 1.8729792687532161e+00
      6.5865999694884214e-01 -1.8858423626465353e+01
      6.3269940059247407e+00 -2.4138324664467853e-01
      1.2543542343592422e+01 3.8122496680232714e+00
      -5.7675782531038351e+00 -1.2310270046050645e+01
      1.5662457968393924e+00 2.8665033735349851e+01
      -4.0944208308364711e+00 -4.6040202341943232e-01
      5.6317482189410013e+00 3.5668879008688688e+00
      3.7361045069973939e+00 2.2393000615135787e+00
      6.7871168948257021e-01 2.5009227087654864e+00
      -2.1992908933854455e+01 -5.0569633461026759e+00
      8.4383120739463600e+00 3.0500424890472506e+00
      2.1343379192516966e+01 -7.4697762736161968e+00
      -3.5693353339555736e+00 3.6619578528331415e-01
      7.0189227361157851e+00 6.9972892648873053e+00
      1.7090140175865623e-01 2.9197632674290230e+00
      -3.9052528739914578e+00 -6.3669770829912267e+00
      -1.6461735030641726e+01 -2.8266805625766178e-01
      1.4353678975885117e+01 -4.1194298502445520e-01
      -1.1408430978519266e+00 -6.7033478690681534e+00
      -4.0337689101636913e+00 4.4070386511997208e+00
      6.9489147873416082e+00 2.0884998172273672e+00
      7.3569956849061313e+00 1.0877311539869453e+01
      -7.5152146572333383e+00 -4.6256822811223932e+00
      -9.0146594852221473e-01 4.8428429912958775e+00
      7.0011095985619631e+00 -2.1996612051989826e+00
      -9.3602477572437124e+00 1.8326436594582469e+00
      -5.9026135271160420e+00 1.1324989302983555e+00
      1.3685810157598902e-01 1.4565344977606010e+01
      5.9464788479626920e+00 -1.0262403183858108e+01
      -2.3314559962646335e+01 6.0147705232097808e+00
      1.6723212542448498e+00 4.0043881477862628e+00
      -1.1504101817313432e+01 -1.2034720319714868e+01
      8.5237379146305372e+00 5.1498162094241327e+00
      -1.2570724528239026e+01 4.8624119884564658e+00
      1.0933009848760118e+01 2.0334360586799805e+00
      2.7754928206882030e+00 2.1125846369238950e+00
      -8.1563981230327478e+00 1.4563511299530857e+01
      -2.3113134497056413e+00 -5.4566917823909700e-01
      6.2697889356565684e+00 -3.4845696235888089e-03
      -1.5631565450520555e+00 2.8620012533792671e+00
      2.2336332900854350e+00 -1.2859418600671551e+01
      -7.0634362973241869e+00 -3.3831778595630997e+00
      -3.2528654211079489e+00 1.6623323960747893e+00
      4.3200574044501980e+00 -8.8929879753431997e+00
      5.7834383907970777e+00 -5.8188431105225717e+00
      1.2571085970815346e+01 1.6513606464612401e+01
      1.8944429757713642e+01 -7.9687275930133978e+00
      1.1666040492133115e+01 3.4042266125091767e+00
      4.4859755189802879e+00 -5.3351055816139725e+00
      -8.7815731558307308e-01 2.7289783313381357e+00
      -5.1345014590355680e+00 -3.4867140786257580e+00
      -6.2150675878908972e+00 9.2562357634753201e-01
      2.3850434271460408e+00 -9.7227345182932279e+00
      -3.3151589871894963e+01 -1.4731662236378749e+00
      -4.0248853637316140e+00 -1.1815047836846155e+01
      5.9059088023327142e+00 1.3984786978435704e+01
      -8.1513146206895986e+00 -2.6541628476709112e-01
      -2.1815802335109518e+00 -1.0044074078070990e+00
      1.6468504647945327e+01 7.1958905708208381e+00
      -6.1585757705178441e+00 6.2486964364943809e+00
      -2.4962069443861186e+00 -9.4791819823318788e-03
      5.4225316300681170e-01 -6.8555811431597338e+00
      -5.1154352287007647e+00 -9.2666944836300171e+00
      5.2495788362307350e+00 -9.7388658633035323e+00
      -9.6546765139148309e+00 -2.8793555453520148e-01
      4.7891586094271190e+01 9.1502072693105703e+00
      -7.5820003149631132e-01 -7.6171315420812968e+00
      7.0714177387948318e+00 -6.8663122185692407e+00
      4.6711618565053392e+00 -1.9767559692152542e+01
      6.7029903919854794e+00 -2.0917627586645072e+01
      -6.1719036456562000e+00 2.6198900160423456e+01
      -2.5086632430466511e+00 -2.3780259451402788e+01
      1.4999825003273719e+01 1.3923697355387480e+01
      -1.9735010172625017e+01 1.8310813223633229e+00
      2.2239483749538742e+00 8.6715741007221734e+00
      -4.4011828343981225e+00 2.4738817264974063e+01
      -1.3885406987412440e+01 1.9381317545161572e+00
      -7.8948154914447146e+00 6.7687733732224797e-01
      2.1864084437762305e+01 3.2175740108017226e+00
      -1.1816389462607221e+01 -2.5913145400215452e+01
      4.8701865262549484e+00 -9.1924921447386208e+00
      -1.0140333310035915e+01 -6.5489474856056438e+00
      -1.6994476792717954e+01 -2.4163249236364603e+01
      8.0401270401799199e+00 2.6898616278159211e+00
      7.8957116922931569e-01 8.2898789875306833e-01
      5.0289772114830447e+00 -4.5807219860752006e+00
      2.0974572815719640e+01 -7.8652740389438422e+00
      -1.8523261980234302e+01 -1.8361149884298296e+01
      -2.1401889459763734e+00 -6.6940302845147837e-01
      2.6561083871940060e+01 -1.7000861684882921e+01
      2.8157784798415486e+00 1.1869405427010770e+01
      -3.3296840980585176e+00 -1.0825044753557341e+01
      5.9160935977826146e+00 1.1336012359008503e+01
      -3.6916159409122599e+01 -1.2136176248601624e+01
      -6.5901462546295111e+00 -2.5538882809769188e+00
      -6.8846678031453035e+00 1.5031418150859461e+00
      -2.4301547000983028e+01 2.2768349194540027e+00
      1.3839825073394291e+01 1.9091265628985321e+00
      1.5246382016073787e+00 -1.6035309588949840e+01
      -6.4870867120939115e+00 -1.7517116535948990e+01
      -7.1411302782559405e+00 7.4591857180554983e+00
      -3.8015659836463467e+00 -3.5575747793413591e+01
      -3.9548114985785666e+01 1.0569020386806669e+00
      1.1724760395516700e+01 1.6905560492001943e+01
      9.2114026811904086e+00 1.3801391240162455e+00
      -3.1830148970652747e+01 -8.1758833224113499e+00
      3.8618245349120386e+01 -2.0158897782589595e+01
      -3.8644642444893798e+01 -2.3759043930443113e+01
      -2.4789932715133993e+01 9.5168830585316044e+00
      1.1297352613202836e+01 -2.8071863589425377e+01
      1.4606892535262988e+01 -1.7492088997515282e+01
      1.9504290205840032e+01 5.8745721834299740e+00
      2.3862403579018658e+00 2.2348324942804387e+00
      -3.4123615689773573e+01 -1.4530286846631528e+01
      1.0944727174043665e+01 1.5170261951307584e+01
      -1.7080895472364080e+01 1.9855238775051397e+01
      -1.7498106908726445e+01 -3.2864100683334044e+01
      3.1491722168673792e+01 -1.8647258662525228e+00
      -1.7901885266303804e+01 -1.9986920116016389e+01
      -2.2443410948415243e+00 -1.8096667799928735e+01
      -1.1996684021061828e+00 2.7220871660821054e+01
      -8.8634007477301289e+00 -2.5616613034194966e+01
      -4.6553607700029787e+01 -4.5236157549287084e+00
      -8.8691951954039316e-01 1.8552389446454207e+01
      3.3096478966525824e+00 3.8231370993237426e+00
      1.0577966056728577e+01 -7.4082596931638962e+00
      1.7692958385006392e+01 2.3529328259120588e+00
      2.0821748956289262e+01 -2.9147017793379657e+01
      -1.2833812636491992e+01 8.9668314497520143e+00
      -2.1431753277677862e-01 -5.3249751734409934e+01
      4.3226865670052961e+00 -2.9162958401323955e+01
      7.7601805725743551e+00 9.6405326279673986e-01
      2.0741009246678995e+01 -1.8548761759325970e+01
      -3.2737694756816218e+01 -9.9607558545020467e+00
      2.3285379390353170e-01 -3.6223755743856112e-01
      1.1543314100802650e+01 -3.1838979721160346e+01
      -2.8079677394356171e+01 1.3216358410938893e+01
      3.4746779393459349e+01 -3.6872854948963663e-01
      -9.4407444852131999e+00 2.4758857826804088e+00
      -7.3551700758240095e+00 -1.6108524322377825e+01
      -1.2377696835774910e+00 -7.1805686141502605e+00
      -7.5373898331855447e+00 -3.1922582875578513e+01
      -1.9610959380321557e+01 9.6499963326428801e+00
      1.0010431516417013e+01 1.1448141516081094e+01
      -1.1620299951441165e+01 -1.5392293217931581e+01
      3.2550466581872186e+01 1.1452245970783711e+01
      1.5545950701474931e+01 1.5372496030975882e+00
      2.7866176797768379e+01 -8.3263561739306873e+00
      -1.8405313818602050e+01 -3.7341877060078330e+00
      1.3930150569118963e+01 -3.3272705780940470e+01
      -1.6666914206257019e+01 -2.7479098515225509e+01
      -6.6218837828503840e+00 3.9699241612812585e+01
      4.6576385040397717e+01 -1.5468521281168744e+01
      -3.6705844739848139e+01 -2.3459819644972132e+01
      -3.1399133574731305e+01 -1.4162634522578905e+01
      -5.8717018183119751e-01 -1.8151979180764297e+01
      -2.6566578203487612e+01 4.6505329411011136e+00
      6.6038100943517746e+00 -3.3777124051535599e+00
      -9.5423476628136950e+00 5.8545100772897749e+00
      2.1940056957300772e+01 -3.8211871380258216e+00
      -1.2124199289491909e+01 -3.1157136843416641e+01
      1.1259173561231121e+01 -1.5949429772377504e+01
      -3.3495323810359295e-01 2.7766501124096958e+00
      3.0044530031408296e+01 1.2010789186270283e+00
      -1.3093770166304289e+01 -2.6683910435559458e+01
      5.3253595238789444e+00 3.1891191078868541e+01
      2.2577087958077765e+01 -9.1627242078480347e+00
      1.5876867687232597e+01 -1.6828419902653845e+01
      7.8051743117020491e+00 -1.4613139154074123e+01
      8.4315802100007566e+00 -1.6242299269911431e+01
      1.8212366043006576e+00 5.8068221833620148e+00
      -1.2840659158488815e+01 1.7009005035309684e+01
      4.9009878927198265e+01 -1.2968806995087009e+01
      -2.5543225197145478e+01 -3.0668513544732150e+01
      2.7808810263424260e+00 -8.0901590018284555e+00
      -1.1441119373012530e+01 7.9256722306347065e+00
      -1.6247913745676424e+01 1.2796703635640661e+01
      1.5806501442894799e+01 -1.0453035462327276e+00
      -2.4543370881961253e+00 -1.3018067029389762e+00
      2.1776587210858082e+01 2.1798523209290743e+00
      -1.8014834147666559e+00 4.7549238631718120e+00
      -3.1018844153466025e+00 -5.3779779215435486e+00
      4.7681507839307979e+00 -3.0725144469834449e+00
      1.6463750843774140e+01 -1.3351896087037764e+01
      -7.1606701422784830e-02 -2.8077926998694842e+00
      4.2435468416703550e+00 1.5938685864820137e+01
      1.2901431476758077e+01 -1.5953790662025435e+01
      4.0846847724098447e+00 9.1364288894194345e+00
      -4.7279337383874616e+00 4.0122314951567848e+00
      1.2047348646763012e+01 -1.4197648584630853e+01
      7.0028665012024947e+00 -5.3311604501960748e+00
      -3.4111067437777520e+00 1.6797775936802733e+01
      1.1486848285483541e+01 -2.5734237297722515e+00
      -1.2553637074848847e+01 -7.8140615833470424e+00
      1.2801404656859990e+01 -8.0286854531318905e+00
      1.9430899925659366e+00 -5.5082996035388765e-01
      -2.9236267542680576e+01 5.7181946808713153e+00
      1.1249285235232367e+01 -2.2665371565121020e-01
      4.7558641294561221e+00 -8.9883125228092560e+00
      1.3478226563084107e+01 1.3334135139553441e+01
      7.5737023605234075e+00 2.6391935930867627e-01
      2.0119046859356220e+00 -8.3385629797462126e+00
      1.0312509789584545e+00 1.2051499914088886e+01
      2.2262684406720377e+00 -1.1810218991052521e+00
      -8.5025406050941683e+00 5.1527383923006882e+00
      -1.0794199355155198e+01 1.2456103924366533e+00
      4.0706131924023579e+00 -2.0956434362180119e+01
      -2.0522179729091086e+00 6.1228519324159310e+00
      3.9304779977927495e+00 2.7964583797453431e+00
      4.1766325922115124e+00 -5.6082570667877425e+00
      1.1954636283220561e+01 1.0893238413444317e+00
      4.6809634523910697e+00 -9.4381159506989742e-01
      7.8944965254237243e+00 3.4930751491385799e+00
      -2.6847231630907862e+00 -1.2090582855588541e+00
      1.0872128584195924e+01 1.7136759604883531e+00
      -6.2823434686851776e-01 9.4346185160188494e+00
      -2.3099118427776354e+01 2.1976008348499243e+00
      4.0108609388218301e+00 -4.5779709939502737e+00
      8.9601840554915881e+00 -1.1342133638442954e+01
      -2.7109728551019647e+00 -7.0734748879521114e-01
      4.9729556145759100e+00 4.1855822332005914e+00
      -5.8102227244762821e+00 3.1919512815995432e+00
      3.9252697937661885e+00 -7.6995085354684480e+00
      -3.1579745650883324e+00 7.3474325883546743e-01
      -1.1295900970634329e+00 1.7038374787179755e+01
      1.4334292458723692e+00 -1.4322173944137825e+01
      1.0205992414489710e+01 -7.8538860721832444e+00
      4.9885417337544116e+00 -3.7342384715631805e+00
      1.4908130263526251e+01 5.6344338442002870e+00
      -1.1424869409213818e+01 -3.3741855785499566e+00
      -1.3270044569532857e+00 -7.7973866552671067e-01
      -1.0651626445018371e+01 3.7973748165848846e+00
      -9.5361481648810074e+00 2.2283885546786562e+00
      5.6708320354983437e+00 3.2416020590355918e+00
      -2.3207255997620475e+00 4.4880486382566342e+00
      4.9936757100432203e+00 2.8114950066207531e+00
      -4.3677463638286982e+00 -6.5010888810006460e+00
      -6.1403264352916054e+00 -6.6954498798195061e-01
      9.5333013083037166e+00 -4.0291113231402802e+00
      4.4508537199033151e+00 1.9815610092385960e+00
      3.6194117554479051e+00 -7.5833830171789476e+00
      1.2227723320335077e+01 8.7891251711335894e+00
      -1.9098200098053951e+01 3.9148743630378252e-01
      -3.4814226294677569e-01 -4.5319986338159772e+00
      3.2333004204392886e+00 -4.5434368797599740e+00
      -9.0854432981876361e+00 7.5183367279226250e+00
      1.7135494881432042e+01 1.5146100403427274e+01
      4.1148444949258769e+00 7.6652543526033323e+00
      -5.2740674328571018e+00 -6.8875158725671088e+00
      -3.4314982047679763e+01 -1.2037828912343906e+01
      -1.0282845439220914e+01 2.1679061453629089e+01
      3.0413346379964428e+00 -4.9669655884379891e+00
      1.2090159803306065e+01 8.3263172422231975e+00
      -3.0640405316105368e+00 -4.2901643467517836e+00
      -1.0225775249569660e+01 -5.9505337106440388e+00
      1.4474920518121202e+01 -4.7711672008529371e+00
      -7.5751117990371730e-01 -3.6561455493162893e+00
      2.0246196417356234e+01 -2.9506444798766340e+00
      1.8803633965447396e+01 8.6443266748728984e+00
      9.9421787979008798e+00 8.3935694826217278e-01
      -1.0157530301468634e+01 -4.4690072227043167e+00
      -3.3419150893720968e+01 8.7517787547708785e+00
      -1.9285853744809170e+01 -1.5171230070680908e+00
      8.0653026265687053e+00 -8.3081526452972252e+00
      6.3896323559513055e+00 -1.3875831316490487e+01
      -1.5769576246647430e+00 -9.2655248101885448e+00
      9.1891888143662515e-01 8.0939802693574556e+00
      1.7295143291376579e+01 -1.1786580212716448e-01
      -2.0371267779937301e+00 -3.0545372691151290e+01
      2.6080768375160510e+01 -1.5891703369174909e+01
      -2.0535867588378128e+01 4.1680935332592270e+01
      1.1349970972080861e+01 1.4276360243326888e+01
      2.9560704193852487e+01 1.3095524770872455e+01
      1.7107682784617133e+01 -1.5136251346401872e+01
      -2.1046356501286994e+01 3.0955681988700547e+00
      6.7955120255691370e-01 1.1618653900310441e+01
      -3.1266547329218117e+01 -3.9835145574281685e+00
      -1.0735501695955159e+00 -4.2434023226274427e+00
      5.8091453186921980e+00 -2.0119219881801125e+00
      3.8504204989812960e+00 -2.6112860429588231e+01
      -5.8205056713869894e+00 2.4883533967135296e+00
      -1.8982463572951154e+01 -1.0121757634021158e+01
      -2.3225512741227714e+01 1.0932661572874984e+00
      -2.4650610477122370e+01 -3.2335123935829635e+01
      -2.0928334012193552e+01 8.4177368750756312e+00
      5.2006431031767001e+01 2.5156112617756271e+01
      2.3709575676451301e+01 -1.4504222127572984e+01
      -1.1676233853433514e+01 -2.6924246821957468e+01
      1.0134608708066564e+01 -1.6794521654865513e+01
      3.7666230436098601e+01 8.8332131507113782e+00
      5.5561944622462098e+00 3.3538796263558197e+01
      2.9335694452390069e+01 -4.3570659586625347e+00
      -4.2870724307671146e+00 3.9985268597190422e+00
      6.2503386065631787e+01 -2.8887974112466677e+00
      7.2955166150379669e-01 5.2723118275913485e+01
      2.5002366330112800e+01 5.4788268723680051e+00
      -1.5072129332108094e+01 -2.5336332103859423e+01
      -2.2744436374844163e+01 5.2720132453968516e-01
      1.4347984095460220e+01 -2.7882648458409893e+01
      -1.6637890623018869e+01 -4.0283306086372065e+01
